<?xml version="1.0" encoding="UTF-8"?>
<!-- This network was created in BNBENCH -->
<smile version="1.0" id="bnbench" numsamples="100000" discsamples="100000">
    <nodes>
        <cpt id="RatingMidAtt_AT">
            <state id="S0to4_75" />
            <state id="S10_5to10_75" />
            <state id="S10to10_25" />
            <state id="S11_5to11_75" />
            <state id="S11to11_25" />
            <state id="S12_5to12_75" />
            <state id="S12to12_25" />
            <state id="S13_5to13_75" />
            <state id="S13to13_25" />
            <state id="S14_5to14_75" />
            <state id="S14to14_25" />
            <state id="S15_5to15_75" />
            <state id="S15to15_25" />
            <state id="S16_5to16_75" />
            <state id="S16to16_25" />
            <state id="S17_5to17_75" />
            <state id="S17to17_25" />
            <state id="S18_5to18_75" />
            <state id="S18to18_25" />
            <state id="S19_75to20_25" />
            <state id="S19to19_5" />
            <state id="S20_5to21" />
            <state id="S21_25_" />
            <state id="S5_5to5_75" />
            <state id="S5to5_25" />
            <state id="S6_5to6_75" />
            <state id="S6to6_25" />
            <state id="S7_5to7_75" />
            <state id="S7to7_25" />
            <state id="S8_5to8_75" />
            <state id="S8to8_25" />
            <state id="S9_5to9_75" />
            <state id="S9to9_25" />
            <probabilities>0.05152 0.02882 0.02523 0.03985 0.03385 0.05209 0.04742 0.0612 0.05948 0.05983 0.06099 0.05067 0.05469 0.03681 0.043 0.02584 0.03125 0.01703 0.02067 0.01527 0.01969 0.01026 0.01946 0.00669 0.00515 0.0108 0.00978 0.01371 0.01177 0.01832 0.01653 0.02174 0.02059</probabilities>
        </cpt>
        <cpt id="RatingRightDef_HT">
            <state id="S0to6_75" />
            <state id="S10_5to10_75" />
            <state id="S10to10_25" />
            <state id="S11_5to11_75" />
            <state id="S11to11_25" />
            <state id="S12_5to12_75" />
            <state id="S12to12_25" />
            <state id="S13_5to13_75" />
            <state id="S13to13_25" />
            <state id="S14_5to14_75" />
            <state id="S14to14_25" />
            <state id="S15_5to15_75" />
            <state id="S15to15_25" />
            <state id="S16_5to16_75" />
            <state id="S16to16_25" />
            <state id="S17_5to17_75" />
            <state id="S17to17_25" />
            <state id="S18_5to18_75" />
            <state id="S18to18_25" />
            <state id="S19_75to20_25" />
            <state id="S19to19_5" />
            <state id="S20_5to21" />
            <state id="S21_25to21_75" />
            <state id="S22_75to23_25" />
            <state id="S22to22_5" />
            <state id="S23_5to24" />
            <state id="S24_25_" />
            <state id="S7_5to7_75" />
            <state id="S7to7_25" />
            <state id="S8_5to8_75" />
            <state id="S8to8_25" />
            <state id="S9_5to9_75" />
            <state id="S9to9_25" />
            <probabilities>0.01127 0.01571 0.01367 0.02326 0.01861 0.03641 0.02965 0.05889 0.04726 0.07625 0.06902 0.07656 0.07979 0.05812 0.0679 0.03678 0.04686 0.02423 0.02917 0.02457 0.03023 0.02081 0.01564 0.00709 0.01174 0.00441 0.00738 0.00828 0.00628 0.01073 0.00953 0.01273 0.01117</probabilities>
        </cpt>
        <cpt id="PDIMs_AT">
            <state id="S0" />
            <state id="S1" />
            <state id="S2_" />
            <probabilities>0.86668 0.13134 0.00198</probabilities>
        </cpt>
        <cpt id="RatingMidDef_HT">
            <state id="S0to6_75" />
            <state id="S10_5to10_75" />
            <state id="S10to10_25" />
            <state id="S11_5to11_75" />
            <state id="S11to11_25" />
            <state id="S12_5to12_75" />
            <state id="S12to12_25" />
            <state id="S13_5to13_75" />
            <state id="S13to13_25" />
            <state id="S14_5to14_75" />
            <state id="S14to14_25" />
            <state id="S15_5to15_75" />
            <state id="S15to15_25" />
            <state id="S16_5to16_75" />
            <state id="S16to16_25" />
            <state id="S17_5to17_75" />
            <state id="S17to17_25" />
            <state id="S18_5to18_75" />
            <state id="S18to18_25" />
            <state id="S19_75to20_25" />
            <state id="S19to19_5" />
            <state id="S20_5to21" />
            <state id="S21_25to21_75" />
            <state id="S22_75to23_25" />
            <state id="S22to22_5" />
            <state id="S23_5to24" />
            <state id="S24_25_" />
            <state id="S7_5to7_75" />
            <state id="S7to7_25" />
            <state id="S8_5to8_75" />
            <state id="S8to8_25" />
            <state id="S9_5to9_75" />
            <state id="S9to9_25" />
            <probabilities>0.00142 0.01702 0.01442 0.02736 0.02221 0.04018 0.03299 0.06094 0.05022 0.0758 0.07136 0.07255 0.07765 0.05385 0.06553 0.03691 0.04549 0.02301 0.02918 0.0226 0.02819 0.01791 0.01356 0.01142 0.01232 0.01038 0.0326 0.00238 0.00137 0.00614 0.00368 0.01118 0.00818</probabilities>
        </cpt>
        <cpt id="Unpredictable_offensives_HT">
            <state id="S0" />
            <state id="S1" />
            <state id="S2" />
            <state id="S3" />
            <state id="S4" />
            <state id="S5" />
            <state id="S6" />
            <state id="S7" />
            <state id="S8" />
            <probabilities>0.35179 0.35151 0.19774 0.07338 0.02005 0.00435 0.00076 0.00033 9e-05</probabilities>
        </cpt>
        <cpt id="Wingers_HT">
            <state id="S0" />
            <state id="S1" />
            <state id="S2" />
            <probabilities>0.00116 0.02753 0.97131</probabilities>
        </cpt>
        <cpt id="Tech_defenders_HT">
            <state id="S0" />
            <state id="S1" />
            <state id="S2" />
            <state id="S3_" />
            <probabilities>0.83357 0.15164 0.01386 0.00093</probabilities>
        </cpt>
        <cpt id="Unpredictable_defenders_HT">
            <state id="S0" />
            <state id="S1" />
            <state id="S2" />
            <state id="S3" />
            <state id="S4" />
            <state id="S5" />
            <state id="S6" />
            <probabilities>0.66635 0.25914 0.0606 0.011 0.00237 0.0005 4e-05</probabilities>
        </cpt>
        <cpt id="Unpredictable_mistake_players_HT">
            <state id="S0" />
            <state id="S1" />
            <state id="S2" />
            <state id="S3_" />
            <probabilities>0.49681 0.3271 0.12731 0.04878</probabilities>
        </cpt>
        <cpt id="Technical_offensives_AT">
            <state id="S0" />
            <state id="S1" />
            <state id="S2" />
            <state id="S3" />
            <state id="S4" />
            <state id="S5" />
            <state id="S6" />
            <probabilities>0.48662 0.34636 0.12989 0.03055 0.00587 0.00068 3e-05</probabilities>
        </cpt>
        <cpt id="Corner_headers_offence_AT">
            <state id="S0" />
            <state id="S1" />
            <state id="S2" />
            <state id="S3" />
            <state id="S4" />
            <state id="S5_" />
            <probabilities>0.09115 0.19754 0.26032 0.21701 0.13661 0.09737</probabilities>
        </cpt>
        <cpt id="RatingISPDef_AT">
            <state id="S0to6_25" />
            <state id="S10_5to10_75" />
            <state id="S10to10_25" />
            <state id="S11_5to11_75" />
            <state id="S11to11_25" />
            <state id="S12_5to12_75" />
            <state id="S12to12_25" />
            <state id="S13_5to13_75" />
            <state id="S13to13_25" />
            <state id="S14_5to14_75" />
            <state id="S14to14_25" />
            <state id="S15_5to15_75" />
            <state id="S15to15_25" />
            <state id="S16_5_" />
            <state id="S16to16_25" />
            <state id="S6_5to6_75" />
            <state id="S7_5to7_75" />
            <state id="S7to7_25" />
            <state id="S8_5to8_75" />
            <state id="S8to8_25" />
            <state id="S9_5to9_75" />
            <state id="S9to9_25" />
            <probabilities>0.00011 0.10282 0.09447 0.10134 0.10217 0.08944 0.099 0.04871 0.07387 0.01797 0.02999 0.01374 0.01375 0.01302 0.0132 0.00061 0.00601 0.0018 0.03067 0.01511 0.07853 0.05367</probabilities>
        </cpt>
        <cpt id="Corner_headers_defence_HT">
            <state id="S0" />
            <state id="S1" />
            <state id="S2" />
            <state id="S3" />
            <state id="S4" />
            <state id="S5_" />
            <probabilities>0.07863 0.16961 0.23995 0.22505 0.1549 0.13186</probabilities>
        </cpt>
        <cpt id="RatingRightAtt_AT">
            <state id="S0to4_75" />
            <state id="S10_5to10_75" />
            <state id="S10to10_25" />
            <state id="S11_5to11_75" />
            <state id="S11to11_25" />
            <state id="S12_5to12_75" />
            <state id="S12to12_25" />
            <state id="S13_5to13_75" />
            <state id="S13to13_25" />
            <state id="S14_5to14_75" />
            <state id="S14to14_25" />
            <state id="S15_5to15_75" />
            <state id="S15to15_25" />
            <state id="S16_5to16_75" />
            <state id="S16to16_25" />
            <state id="S17_5to17_75" />
            <state id="S17to17_25" />
            <state id="S18_5to18_75" />
            <state id="S18to18_25" />
            <state id="S19_75to20_25" />
            <state id="S19to19_5" />
            <state id="S20_5to21" />
            <state id="S21_25_" />
            <state id="S5_5to5_75" />
            <state id="S5to5_25" />
            <state id="S6_5to6_75" />
            <state id="S6to6_25" />
            <state id="S7_5to7_75" />
            <state id="S7to7_25" />
            <state id="S8_5to8_75" />
            <state id="S8to8_25" />
            <state id="S9_5to9_75" />
            <state id="S9to9_25" />
            <probabilities>0.05329 0.03118 0.02444 0.04686 0.03774 0.06421 0.05528 0.07207 0.07077 0.06749 0.07229 0.0516 0.05951 0.03492 0.04301 0.02231 0.02851 0.01335 0.01819 0.00985 0.01532 0.00566 0.00848 0.00321 0.00294 0.0053 0.00431 0.00927 0.0076 0.01362 0.01169 0.0198 0.01593</probabilities>
        </cpt>
        <cpt id="Head_offensives_HT">
            <state id="S0" />
            <state id="S1" />
            <state id="S2" />
            <state id="S3" />
            <state id="S4" />
            <state id="S5" />
            <state id="S6" />
            <state id="S7" />
            <state id="S8" />
            <probabilities>0.14877 0.28442 0.29144 0.18297 0.0718 0.01703 0.00306 0.00049 2e-05</probabilities>
        </cpt>
        <cpt id="Head_opposing_players_AT">
            <state id="S0" />
            <state id="S1" />
            <state id="S2" />
            <state id="S3" />
            <state id="S4_" />
            <probabilities>0.16436 0.27395 0.27009 0.17044 0.12116</probabilities>
        </cpt>
        <cpt id="Head_opposing_players_HT">
            <state id="S0" />
            <state id="S1" />
            <state id="S2" />
            <state id="S3" />
            <state id="S4_" />
            <probabilities>0.16733 0.26593 0.26783 0.17317 0.12574</probabilities>
        </cpt>
        <cpt id="Tech_defenders_AT">
            <state id="S0" />
            <state id="S1" />
            <state id="S2" />
            <state id="S3_" />
            <probabilities>0.83126 0.15317 0.01477 0.0008</probabilities>
        </cpt>
        <cpt id="Unpredictable_defenders_AT">
            <state id="S0" />
            <state id="S1" />
            <state id="S2" />
            <state id="S3" />
            <state id="S4" />
            <state id="S5" />
            <state id="S6" />
            <probabilities>0.65771 0.26275 0.06326 0.01278 0.00268 0.00073 9e-05</probabilities>
        </cpt>
        <cpt id="RatingRightDef_AT">
            <state id="S0to6_75" />
            <state id="S10_5to10_75" />
            <state id="S10to10_25" />
            <state id="S11_5to11_75" />
            <state id="S11to11_25" />
            <state id="S12_5to12_75" />
            <state id="S12to12_25" />
            <state id="S13_5to13_75" />
            <state id="S13to13_25" />
            <state id="S14_5to14_75" />
            <state id="S14to14_25" />
            <state id="S15_5to15_75" />
            <state id="S15to15_25" />
            <state id="S16_5to16_75" />
            <state id="S16to16_25" />
            <state id="S17_5to17_75" />
            <state id="S17to17_25" />
            <state id="S18_5to18_75" />
            <state id="S18to18_25" />
            <state id="S19_75to20_25" />
            <state id="S19to19_5" />
            <state id="S20_5to21" />
            <state id="S21_25to21_75" />
            <state id="S22_75to23_25" />
            <state id="S22to22_5" />
            <state id="S23_5to24" />
            <state id="S24_25_" />
            <state id="S7_5to7_75" />
            <state id="S7to7_25" />
            <state id="S8_5to8_75" />
            <state id="S8to8_25" />
            <state id="S9_5to9_75" />
            <state id="S9to9_25" />
            <probabilities>0.01151 0.01574 0.01304 0.0221 0.01794 0.03551 0.02785 0.05789 0.04591 0.07468 0.06861 0.07399 0.07831 0.05749 0.06669 0.03755 0.04764 0.02581 0.03193 0.02875 0.03303 0.02151 0.01762 0.0085 0.01215 0.00517 0.00865 0.0073 0.00587 0.00987 0.0084 0.01237 0.01062</probabilities>
        </cpt>
        <cpt id="TacticSkill_HT">
            <state id="S0" />
            <state id="S11to12" />
            <state id="S13to14" />
            <state id="S15to16" />
            <state id="S17to18" />
            <state id="S19to20" />
            <state id="S1to8" />
            <state id="S21to22" />
            <state id="S23to24" />
            <state id="S25_" />
            <state id="S9to10" />
            <probabilities>0.71764 0.01341 0.00922 0.01289 0.03151 0.04729 0.00372 0.06299 0.04728 0.04197 0.01208</probabilities>
        </cpt>
        <cpt id="TacticSkill_AT">
            <state id="S0" />
            <state id="S11to12" />
            <state id="S13to14" />
            <state id="S15to16" />
            <state id="S17to18" />
            <state id="S19to20" />
            <state id="S1to8" />
            <state id="S21to22" />
            <state id="S23to24" />
            <state id="S25_" />
            <state id="S9to10" />
            <probabilities>0.68423 0.02032 0.01261 0.01745 0.03776 0.05323 0.00392 0.06414 0.0495 0.04152 0.01532</probabilities>
        </cpt>
        <cpt id="Unpredictable_own_goal_players_AT">
            <state id="S0" />
            <state id="S1" />
            <state id="S2" />
            <state id="S3_" />
            <probabilities>0.49245 0.35908 0.12271 0.02576</probabilities>
        </cpt>
        <cpt id="PNFs_AT">
            <state id="S0" />
            <state id="S1" />
            <state id="S2_" />
            <probabilities>0.74148 0.25321 0.00531</probabilities>
        </cpt>
        <cpt id="RatingISPAtt_AT">
            <state id="S0to4_75" />
            <state id="S10_5to10_75" />
            <state id="S10to10_25" />
            <state id="S11_5to11_75" />
            <state id="S11to11_25" />
            <state id="S12_5to12_75" />
            <state id="S12to12_25" />
            <state id="S13_5to13_75" />
            <state id="S13to13_25" />
            <state id="S14_5to14_75" />
            <state id="S14to14_25" />
            <state id="S15_" />
            <state id="S5_5to5_75" />
            <state id="S5to5_25" />
            <state id="S6_5to6_75" />
            <state id="S6to6_25" />
            <state id="S7_5to7_75" />
            <state id="S7to7_25" />
            <state id="S8_5to8_75" />
            <state id="S8to8_25" />
            <state id="S9_5to9_75" />
            <state id="S9to9_25" />
            <probabilities>0.00014 0.07647 0.09316 0.03293 0.05402 0.01134 0.0189 0.01222 0.00958 0.01075 0.01281 0.00897 0.00944 0.00208 0.04632 0.02501 0.09185 0.07352 0.10077 0.1002 0.10261 0.10691</probabilities>
        </cpt>
        <cpt id="Quick_offensives_AT">
            <state id="S0" />
            <state id="S1" />
            <state id="S2" />
            <state id="S3" />
            <state id="S4" />
            <state id="S5" />
            <state id="S6" />
            <state id="S7" />
            <state id="S8" />
            <probabilities>0.16892 0.32434 0.3041 0.1521 0.04081 0.00763 0.00163 0.00043 4e-05</probabilities>
        </cpt>
        <cpt id="Unpredictable_special_action_players_AT">
            <state id="S0" />
            <state id="S1" />
            <state id="S2" />
            <state id="S3" />
            <state id="S4_" />
            <probabilities>0.2618 0.31601 0.2312 0.12066 0.07033</probabilities>
        </cpt>
        <cpt id="RatingLeftAtt_HT">
            <state id="S0to4_75" />
            <state id="S10_5to10_75" />
            <state id="S10to10_25" />
            <state id="S11_5to11_75" />
            <state id="S11to11_25" />
            <state id="S12_5to12_75" />
            <state id="S12to12_25" />
            <state id="S13_5to13_75" />
            <state id="S13to13_25" />
            <state id="S14_5to14_75" />
            <state id="S14to14_25" />
            <state id="S15_5to15_75" />
            <state id="S15to15_25" />
            <state id="S16_5to16_75" />
            <state id="S16to16_25" />
            <state id="S17_5to17_75" />
            <state id="S17to17_25" />
            <state id="S18_5to18_75" />
            <state id="S18to18_25" />
            <state id="S19_75to20_25" />
            <state id="S19to19_5" />
            <state id="S20_5to21" />
            <state id="S21_25_" />
            <state id="S5_5to5_75" />
            <state id="S5to5_25" />
            <state id="S6_5to6_75" />
            <state id="S6to6_25" />
            <state id="S7_5to7_75" />
            <state id="S7to7_25" />
            <state id="S8_5to8_75" />
            <state id="S8to8_25" />
            <state id="S9_5to9_75" />
            <state id="S9to9_25" />
            <probabilities>0.05451 0.03232 0.02479 0.04795 0.03954 0.06482 0.05765 0.07104 0.06822 0.06572 0.07006 0.05091 0.05923 0.03497 0.04318 0.02229 0.02906 0.01359 0.01743 0.00951 0.01449 0.00624 0.00837 0.00324 0.0029 0.00549 0.00384 0.0097 0.00739 0.01325 0.0117 0.02021 0.01639</probabilities>
        </cpt>
        <cpt id="Forwards_HT">
            <state id="S0" />
            <state id="S1" />
            <state id="S2" />
            <state id="S3" />
            <probabilities>0.04745 0.06081 0.67024 0.2215</probabilities>
        </cpt>
        <cpt id="TacticType_HT">
            <state id="S0" />
            <state id="S1" />
            <state id="S2" />
            <state id="S3" />
            <state id="S4" />
            <state id="S7" />
            <state id="S8" />
            <probabilities>0.71764 0.03214 0.09905 0.02144 0.04142 0.02931 0.059</probabilities>
        </cpt>
        <cpt id="PNFs_HT">
            <state id="S0" />
            <state id="S1" />
            <state id="S2_" />
            <probabilities>0.74131 0.25249 0.0062</probabilities>
        </cpt>
        <cpt id="CDs_AT">
            <state id="S0" />
            <state id="S1" />
            <state id="S2" />
            <state id="S3" />
            <probabilities>0.06054 0.63369 0.20997 0.0958</probabilities>
        </cpt>
        <cpt id="RatingLeftDef_HT">
            <state id="S0to6_75" />
            <state id="S10_5to10_75" />
            <state id="S10to10_25" />
            <state id="S11_5to11_75" />
            <state id="S11to11_25" />
            <state id="S12_5to12_75" />
            <state id="S12to12_25" />
            <state id="S13_5to13_75" />
            <state id="S13to13_25" />
            <state id="S14_5to14_75" />
            <state id="S14to14_25" />
            <state id="S15_5to15_75" />
            <state id="S15to15_25" />
            <state id="S16_5to16_75" />
            <state id="S16to16_25" />
            <state id="S17_5to17_75" />
            <state id="S17to17_25" />
            <state id="S18_5to18_75" />
            <state id="S18to18_25" />
            <state id="S19_75to20_25" />
            <state id="S19to19_5" />
            <state id="S20_5to21" />
            <state id="S21_25to21_75" />
            <state id="S22_75to23_25" />
            <state id="S22to22_5" />
            <state id="S23_5to24" />
            <state id="S24_25_" />
            <state id="S7_5to7_75" />
            <state id="S7to7_25" />
            <state id="S8_5to8_75" />
            <state id="S8to8_25" />
            <state id="S9_5to9_75" />
            <state id="S9to9_25" />
            <probabilities>0.01185 0.01608 0.01385 0.02238 0.01857 0.03668 0.02846 0.05861 0.0482 0.07853 0.06833 0.07646 0.0789 0.05705 0.06772 0.03658 0.04745 0.0248 0.03043 0.02508 0.02988 0.02004 0.01501 0.00746 0.01118 0.00478 0.00743 0.00842 0.00632 0.01028 0.00941 0.01242 0.01136</probabilities>
        </cpt>
        <cpt id="Quick_offensives_HT">
            <state id="S0" />
            <state id="S1" />
            <state id="S2" />
            <state id="S3" />
            <state id="S4" />
            <state id="S5" />
            <state id="S6" />
            <state id="S7" />
            <state id="S8" />
            <probabilities>0.16797 0.32074 0.30725 0.1523 0.04118 0.00854 0.00153 0.00048 1e-05</probabilities>
        </cpt>
        <cpt id="Technical_offensives_HT">
            <state id="S0" />
            <state id="S1" />
            <state id="S2" />
            <state id="S3" />
            <state id="S4" />
            <state id="S5" />
            <state id="S6" />
            <probabilities>0.4798 0.34822 0.13421 0.03101 0.00594 0.00077 5e-05</probabilities>
        </cpt>
        <cpt id="RatingLeftAtt_AT">
            <state id="S0to4_75" />
            <state id="S10_5to10_75" />
            <state id="S10to10_25" />
            <state id="S11_5to11_75" />
            <state id="S11to11_25" />
            <state id="S12_5to12_75" />
            <state id="S12to12_25" />
            <state id="S13_5to13_75" />
            <state id="S13to13_25" />
            <state id="S14_5to14_75" />
            <state id="S14to14_25" />
            <state id="S15_5to15_75" />
            <state id="S15to15_25" />
            <state id="S16_5to16_75" />
            <state id="S16to16_25" />
            <state id="S17_5to17_75" />
            <state id="S17to17_25" />
            <state id="S18_5to18_75" />
            <state id="S18to18_25" />
            <state id="S19_75to20_25" />
            <state id="S19to19_5" />
            <state id="S20_5to21" />
            <state id="S21_25_" />
            <state id="S5_5to5_75" />
            <state id="S5to5_25" />
            <state id="S6_5to6_75" />
            <state id="S6to6_25" />
            <state id="S7_5to7_75" />
            <state id="S7to7_25" />
            <state id="S8_5to8_75" />
            <state id="S8to8_25" />
            <state id="S9_5to9_75" />
            <state id="S9to9_25" />
            <probabilities>0.0535 0.031 0.02404 0.04772 0.03928 0.06327 0.05596 0.07173 0.07033 0.06682 0.07043 0.05118 0.05945 0.035 0.04269 0.02256 0.02899 0.01318 0.01707 0.00952 0.01496 0.0061 0.00869 0.00308 0.00265 0.00572 0.00449 0.00981 0.00773 0.01372 0.01225 0.02046 0.01662</probabilities>
        </cpt>
        <cpt id="TacticType_AT">
            <state id="S0" />
            <state id="S1" />
            <state id="S2" />
            <state id="S3" />
            <state id="S4" />
            <state id="S7" />
            <state id="S8" />
            <probabilities>0.68423 0.04577 0.12814 0.01855 0.03814 0.02847 0.0567</probabilities>
        </cpt>
        <cpt id="RatingMidDef_AT">
            <state id="S0to6_75" />
            <state id="S10_5to10_75" />
            <state id="S10to10_25" />
            <state id="S11_5to11_75" />
            <state id="S11to11_25" />
            <state id="S12_5to12_75" />
            <state id="S12to12_25" />
            <state id="S13_5to13_75" />
            <state id="S13to13_25" />
            <state id="S14_5to14_75" />
            <state id="S14to14_25" />
            <state id="S15_5to15_75" />
            <state id="S15to15_25" />
            <state id="S16_5to16_75" />
            <state id="S16to16_25" />
            <state id="S17_5to17_75" />
            <state id="S17to17_25" />
            <state id="S18_5to18_75" />
            <state id="S18to18_25" />
            <state id="S19_75to20_25" />
            <state id="S19to19_5" />
            <state id="S20_5to21" />
            <state id="S21_25to21_75" />
            <state id="S22_75to23_25" />
            <state id="S22to22_5" />
            <state id="S23_5to24" />
            <state id="S24_25_" />
            <state id="S7_5to7_75" />
            <state id="S7to7_25" />
            <state id="S8_5to8_75" />
            <state id="S8to8_25" />
            <state id="S9_5to9_75" />
            <state id="S9to9_25" />
            <probabilities>0.00127 0.01633 0.01365 0.02587 0.02164 0.03948 0.03152 0.06028 0.04801 0.07483 0.06675 0.07019 0.07448 0.05467 0.06223 0.03513 0.04459 0.02539 0.03049 0.02793 0.03221 0.02225 0.01675 0.01319 0.0148 0.01156 0.03421 0.00228 0.00103 0.00516 0.00361 0.01054 0.00768</probabilities>
        </cpt>
        <cpt id="Corner_headers_offence_HT">
            <state id="S0" />
            <state id="S1" />
            <state id="S2" />
            <state id="S3" />
            <state id="S4" />
            <state id="S5_" />
            <probabilities>0.09199 0.19472 0.25084 0.22106 0.13924 0.10215</probabilities>
        </cpt>
        <cpt id="RatingISPAtt_HT">
            <state id="S0to4_75" />
            <state id="S10_5to10_75" />
            <state id="S10to10_25" />
            <state id="S11_5to11_75" />
            <state id="S11to11_25" />
            <state id="S12_5to12_75" />
            <state id="S12to12_25" />
            <state id="S13_5to13_75" />
            <state id="S13to13_25" />
            <state id="S14_5to14_75" />
            <state id="S14to14_25" />
            <state id="S15_" />
            <state id="S5_5to5_75" />
            <state id="S5to5_25" />
            <state id="S6_5to6_75" />
            <state id="S6to6_25" />
            <state id="S7_5to7_75" />
            <state id="S7to7_25" />
            <state id="S8_5to8_75" />
            <state id="S8to8_25" />
            <state id="S9_5to9_75" />
            <state id="S9to9_25" />
            <probabilities>0.00016 0.07403 0.0917 0.03265 0.05343 0.01155 0.01822 0.01282 0.01022 0.01113 0.01347 0.00856 0.00972 0.00218 0.04727 0.02609 0.09274 0.07336 0.10232 0.10161 0.10184 0.10493</probabilities>
        </cpt>
        <cpt id="RatingLeftDef_AT">
            <state id="S0to6_75" />
            <state id="S10_5to10_75" />
            <state id="S10to10_25" />
            <state id="S11_5to11_75" />
            <state id="S11to11_25" />
            <state id="S12_5to12_75" />
            <state id="S12to12_25" />
            <state id="S13_5to13_75" />
            <state id="S13to13_25" />
            <state id="S14_5to14_75" />
            <state id="S14to14_25" />
            <state id="S15_5to15_75" />
            <state id="S15to15_25" />
            <state id="S16_5to16_75" />
            <state id="S16to16_25" />
            <state id="S17_5to17_75" />
            <state id="S17to17_25" />
            <state id="S18_5to18_75" />
            <state id="S18to18_25" />
            <state id="S19_75to20_25" />
            <state id="S19to19_5" />
            <state id="S20_5to21" />
            <state id="S21_25to21_75" />
            <state id="S22_75to23_25" />
            <state id="S22to22_5" />
            <state id="S23_5to24" />
            <state id="S24_25_" />
            <state id="S7_5to7_75" />
            <state id="S7to7_25" />
            <state id="S8_5to8_75" />
            <state id="S8to8_25" />
            <state id="S9_5to9_75" />
            <state id="S9to9_25" />
            <probabilities>0.01151 0.01489 0.01353 0.02205 0.01829 0.0362 0.02842 0.05666 0.04554 0.07686 0.06747 0.07456 0.07687 0.0575 0.06657 0.03766 0.0476 0.02634 0.03077 0.02874 0.03321 0.02176 0.01698 0.00819 0.01238 0.00526 0.00863 0.00766 0.00635 0.00964 0.00836 0.01246 0.01109</probabilities>
        </cpt>
        <cpt id="Unpredictable_special_action_players_HT">
            <state id="S0" />
            <state id="S1" />
            <state id="S2" />
            <state id="S3" />
            <state id="S4_" />
            <probabilities>0.2717 0.32152 0.22599 0.11462 0.06617</probabilities>
        </cpt>
        <cpt id="Forwards_AT">
            <state id="S0" />
            <state id="S1" />
            <state id="S2" />
            <state id="S3" />
            <probabilities>0.04682 0.06857 0.67808 0.20653</probabilities>
        </cpt>
        <cpt id="CDs_and_WBs_HT">
            <state id="S0to2" />
            <state id="S3" />
            <state id="S4" />
            <state id="S5" />
            <probabilities>0.18389 0.61401 0.11792 0.08418</probabilities>
        </cpt>
        <cpt id="PDIMs_HT">
            <state id="S0" />
            <state id="S1" />
            <state id="S2_" />
            <probabilities>0.87332 0.12491 0.00177</probabilities>
        </cpt>
        <cpt id="RatingMidfield_AT">
            <state id="S0to4_75" />
            <state id="S10_5to10_75" />
            <state id="S10to10_25" />
            <state id="S11_5to11_75" />
            <state id="S11to11_25" />
            <state id="S12_5to12_75" />
            <state id="S12to12_25" />
            <state id="S13_5to13_75" />
            <state id="S13to13_25" />
            <state id="S14_5to14_75" />
            <state id="S14to14_25" />
            <state id="S15_5to15_75" />
            <state id="S15to15_25" />
            <state id="S16_5to16_75" />
            <state id="S16to16_25" />
            <state id="S17_75to18_25" />
            <state id="S17to17_5" />
            <state id="S18_5to19" />
            <state id="S19_25_" />
            <state id="S5_5to5_75" />
            <state id="S5to5_25" />
            <state id="S6_5to6_75" />
            <state id="S6to6_25" />
            <state id="S7_5to7_75" />
            <state id="S7to7_25" />
            <state id="S8_5to8_75" />
            <state id="S8to8_25" />
            <state id="S9_5to9_75" />
            <state id="S9to9_25" />
            <probabilities>0.00317 0.02375 0.01906 0.04375 0.03182 0.07128 0.05542 0.08902 0.08119 0.08691 0.09195 0.06272 0.07473 0.03759 0.05105 0.01904 0.03617 0.00934 0.00687 0.00354 0.00197 0.00763 0.00562 0.01205 0.01029 0.01561 0.01369 0.01799 0.01678</probabilities>
        </cpt>
        <cpt id="RatingMidfield_HT">
            <state id="S0to4_75" />
            <state id="S10_5to10_75" />
            <state id="S10to10_25" />
            <state id="S11_5to11_75" />
            <state id="S11to11_25" />
            <state id="S12_5to12_75" />
            <state id="S12to12_25" />
            <state id="S13_5to13_75" />
            <state id="S13to13_25" />
            <state id="S14_5to14_75" />
            <state id="S14to14_25" />
            <state id="S15_5to15_75" />
            <state id="S15to15_25" />
            <state id="S16_5to16_75" />
            <state id="S16to16_25" />
            <state id="S17_75to18_25" />
            <state id="S17to17_5" />
            <state id="S18_5to19" />
            <state id="S19_25_" />
            <state id="S5_5to5_75" />
            <state id="S5to5_25" />
            <state id="S6_5to6_75" />
            <state id="S6to6_25" />
            <state id="S7_5to7_75" />
            <state id="S7to7_25" />
            <state id="S8_5to8_75" />
            <state id="S8to8_25" />
            <state id="S9_5to9_75" />
            <state id="S9to9_25" />
            <probabilities>0.00218 0.0192 0.01501 0.03665 0.02621 0.06694 0.0517 0.09393 0.08076 0.09158 0.09446 0.07076 0.08372 0.0437 0.05562 0.02339 0.0439 0.01187 0.00898 0.00253 0.00156 0.0056 0.00408 0.00912 0.00772 0.0118 0.01071 0.01348 0.01284</probabilities>
        </cpt>
        <cpt id="RatingRightAtt_HT">
            <state id="S0to4_75" />
            <state id="S10_5to10_75" />
            <state id="S10to10_25" />
            <state id="S11_5to11_75" />
            <state id="S11to11_25" />
            <state id="S12_5to12_75" />
            <state id="S12to12_25" />
            <state id="S13_5to13_75" />
            <state id="S13to13_25" />
            <state id="S14_5to14_75" />
            <state id="S14to14_25" />
            <state id="S15_5to15_75" />
            <state id="S15to15_25" />
            <state id="S16_5to16_75" />
            <state id="S16to16_25" />
            <state id="S17_5to17_75" />
            <state id="S17to17_25" />
            <state id="S18_5to18_75" />
            <state id="S18to18_25" />
            <state id="S19_75to20_25" />
            <state id="S19to19_5" />
            <state id="S20_5to21" />
            <state id="S21_25_" />
            <state id="S5_5to5_75" />
            <state id="S5to5_25" />
            <state id="S6_5to6_75" />
            <state id="S6to6_25" />
            <state id="S7_5to7_75" />
            <state id="S7to7_25" />
            <state id="S8_5to8_75" />
            <state id="S8to8_25" />
            <state id="S9_5to9_75" />
            <state id="S9to9_25" />
            <probabilities>0.05487 0.03123 0.02576 0.04749 0.04003 0.06543 0.05634 0.07107 0.06962 0.06598 0.07 0.05118 0.0576 0.03607 0.04306 0.02275 0.02811 0.01378 0.01754 0.00967 0.01409 0.00633 0.00836 0.00314 0.00252 0.0055 0.00386 0.00927 0.00729 0.01421 0.01167 0.01981 0.01637</probabilities>
        </cpt>
        <cpt id="Quick_defenders_HT">
            <state id="S0" />
            <state id="S1" />
            <state id="S2" />
            <state id="S3_" />
            <probabilities>0.55746 0.34867 0.08409 0.00978</probabilities>
        </cpt>
        <cpt id="Wingers_AT">
            <state id="S0" />
            <state id="S1" />
            <state id="S2" />
            <probabilities>0.00114 0.02927 0.96959</probabilities>
        </cpt>
        <cpt id="CDs_HT">
            <state id="S0" />
            <state id="S1" />
            <state id="S2" />
            <state id="S3" />
            <probabilities>0.06616 0.6561 0.18944 0.0883</probabilities>
        </cpt>
        <cpt id="Unpredictable_mistake_players_AT">
            <state id="S0" />
            <state id="S1" />
            <state id="S2" />
            <state id="S3_" />
            <probabilities>0.48521 0.329 0.1332 0.05259</probabilities>
        </cpt>
        <cpt id="Unpredictable_offensives_AT">
            <state id="S0" />
            <state id="S1" />
            <state id="S2" />
            <state id="S3" />
            <state id="S4" />
            <state id="S5" />
            <state id="S6" />
            <state id="S7" />
            <state id="S8" />
            <probabilities>0.34059 0.35457 0.20327 0.07653 0.01939 0.00445 0.00075 0.0004 5e-05</probabilities>
        </cpt>
        <cpt id="RatingISPDef_HT">
            <state id="S0to6_25" />
            <state id="S10_5to10_75" />
            <state id="S10to10_25" />
            <state id="S11_5to11_75" />
            <state id="S11to11_25" />
            <state id="S12_5to12_75" />
            <state id="S12to12_25" />
            <state id="S13_5to13_75" />
            <state id="S13to13_25" />
            <state id="S14_5to14_75" />
            <state id="S14to14_25" />
            <state id="S15_5to15_75" />
            <state id="S15to15_25" />
            <state id="S16_5_" />
            <state id="S16to16_25" />
            <state id="S6_5to6_75" />
            <state id="S7_5to7_75" />
            <state id="S7to7_25" />
            <state id="S8_5to8_75" />
            <state id="S8to8_25" />
            <state id="S9_5to9_75" />
            <state id="S9to9_25" />
            <probabilities>0.00017 0.10315 0.09721 0.10125 0.10297 0.08851 0.0963 0.04834 0.07014 0.01672 0.02832 0.01379 0.01372 0.0129 0.01314 0.00063 0.00617 0.00236 0.03213 0.01554 0.07983 0.05671</probabilities>
        </cpt>
        <cpt id="Unpredictable_own_goal_players_HT">
            <state id="S0" />
            <state id="S1" />
            <state id="S2" />
            <state id="S3_" />
            <probabilities>0.50179 0.35473 0.1186 0.02488</probabilities>
        </cpt>
        <cpt id="Corner_headers_defence_AT">
            <state id="S0" />
            <state id="S1" />
            <state id="S2" />
            <state id="S3" />
            <state id="S4" />
            <state id="S5_" />
            <probabilities>0.07806 0.17412 0.24601 0.2244 0.15152 0.12589</probabilities>
        </cpt>
        <cpt id="Head_offensives_AT">
            <state id="S0" />
            <state id="S1" />
            <state id="S2" />
            <state id="S3" />
            <state id="S4" />
            <state id="S5" />
            <state id="S6" />
            <state id="S7" />
            <state id="S8" />
            <probabilities>0.15458 0.2907 0.28818 0.1765 0.0693 0.01712 0.00322 0.00038 2e-05</probabilities>
        </cpt>
        <cpt id="CDs_and_WBs_AT">
            <state id="S0to2" />
            <state id="S3" />
            <state id="S4" />
            <state id="S5" />
            <probabilities>0.17169 0.59686 0.13956 0.09189</probabilities>
        </cpt>
        <cpt id="Quick_defenders_AT">
            <state id="S0" />
            <state id="S1" />
            <state id="S2" />
            <state id="S3_" />
            <probabilities>0.55052 0.35099 0.08818 0.01031</probabilities>
        </cpt>
        <cpt id="RatingMidAtt_HT">
            <state id="S0to4_75" />
            <state id="S10_5to10_75" />
            <state id="S10to10_25" />
            <state id="S11_5to11_75" />
            <state id="S11to11_25" />
            <state id="S12_5to12_75" />
            <state id="S12to12_25" />
            <state id="S13_5to13_75" />
            <state id="S13to13_25" />
            <state id="S14_5to14_75" />
            <state id="S14to14_25" />
            <state id="S15_5to15_75" />
            <state id="S15to15_25" />
            <state id="S16_5to16_75" />
            <state id="S16to16_25" />
            <state id="S17_5to17_75" />
            <state id="S17to17_25" />
            <state id="S18_5to18_75" />
            <state id="S18to18_25" />
            <state id="S19_75to20_25" />
            <state id="S19to19_5" />
            <state id="S20_5to21" />
            <state id="S21_25_" />
            <state id="S5_5to5_75" />
            <state id="S5to5_25" />
            <state id="S6_5to6_75" />
            <state id="S6to6_25" />
            <state id="S7_5to7_75" />
            <state id="S7to7_25" />
            <state id="S8_5to8_75" />
            <state id="S8to8_25" />
            <state id="S9_5to9_75" />
            <state id="S9to9_25" />
            <probabilities>0.05247 0.02998 0.02446 0.04063 0.03506 0.0548 0.04718 0.06252 0.05802 0.05858 0.06247 0.04886 0.05515 0.03654 0.04267 0.02551 0.03146 0.01864 0.02096 0.01563 0.02098 0.01075 0.01946 0.0068 0.00458 0.01029 0.00859 0.01273 0.01193 0.01714 0.01515 0.02078 0.01923</probabilities>
        </cpt>
        <cpt id="Event_PSE_QuickStop_HT">
            <state id="S0" />
            <state id="S1_" />
            <parents>Quick_defenders_HT Quick_offensives_AT</parents>
            <probabilities>0.9621181262729124 0.037881873727087574 0.9667752442996743 0.03322475570032573 0.9733770101250745 0.026622989874925552 0.9848057836049504 0.015194216395049627 0.9870689655172413 0.01293103448275862 0.9921052631578947 0.007894736842105263 1.0 0.0 1.0 0.0 1.0 0.0 0.9587665198237886 0.04123348017621145 0.964516129032258 0.035483870967741936 0.9742345033607169 0.025765496639283045 0.9849926793557833 0.015007320644216691 0.9854689564068693 0.01453104359313078 0.9963768115942029 0.0036231884057971015 0.96 0.04 1.0 0.0 1.0 0.0 0.9517405063291139 0.048259493670886076 0.9655705996131528 0.03442940038684719 0.9740061162079511 0.02599388379204893 0.9829666430092264 0.017033356990773598 0.9878048780487805 0.012195121951219513 0.9642857142857143 0.03571428571428571 1.0 0.0 1.0 0.0 1.0 0.0 0.9473684210526315 0.05263157894736842 0.9739776951672863 0.026022304832713755 0.9726027397260274 0.0273972602739726 0.9829545454545454 0.017045454545454544 1.0 0.0 1.0 0.0 1.0 0.0 1.0 0.0 0.97127 0.02873</probabilities>
        </cpt>
        <cpt id="Event_SEZ_PDIM_HT">
            <state id="S0" />
            <state id="S1_" />
            <parents>PDIMs_HT</parents>
            <probabilities>0.9989465488022717 0.0010534511977282096 0.7465375070050436 0.2534624929949564 0.615819209039548 0.384180790960452</probabilities>
        </cpt>
        <cpt id="Score_right_HT">
            <state id="S0_025to_0_05" />
            <state id="S0_05to_0_075" />
            <state id="S0_075to_0_1" />
            <state id="S0_125to_0_15" />
            <state id="S0_15to_0_175" />
            <state id="S0_175to_0_2" />
            <state id="S0_1to_0_125" />
            <state id="S0_225to_0_25" />
            <state id="S0_25to_0_275" />
            <state id="S0_275to_0_3" />
            <state id="S0_2to_0_225" />
            <state id="S0_325to_0_35" />
            <state id="S0_35to_0_375" />
            <state id="S0_375to_0_4" />
            <state id="S0_3to_0_325" />
            <state id="S0_425to_0_45" />
            <state id="S0_45to_0_475" />
            <state id="S0_475to_0_5" />
            <state id="S0_4to_0_425" />
            <state id="S0_525to_0_55" />
            <state id="S0_55to_0_575" />
            <state id="S0_575to_0_6" />
            <state id="S0_5to_0_525" />
            <state id="S0_625to_0_65" />
            <state id="S0_65to_0_675" />
            <state id="S0_675to_0_725" />
            <state id="S0_6to_0_625" />
            <state id="S0_725to_0_775" />
            <state id="S0_775to_0_85" />
            <state id="S0_85to_1" />
            <state id="S0to_0_025" />
            <parents>RatingLeftDef_AT RatingRightAtt_HT</parents>
            <probabilities>0.13013698630136986 0.0410958904109589 0.03424657534246575 0.00684931506849315 0.00684931506849315 0.0 0.04794520547945205 0.0136986301369863 0.0 0.0 0.00684931506849315 0.0 0.0 0.0 0.0 0.0 0.0 0.0 0.0 0.0 0.0 0.0 0.0 0.0 0.00684931506849315 0.0 0.0 0.0 0.0 0.0 0.7054794520547946 0.0 0.0 0.0 0.0 0.0 0.0 0.0 0.0 0.0 0.0 0.0 0.0 0.0 0.0 0.0 0.0 0.0 0.0 0.0 0.0 0.0 0.0 0.0 0.0 0.0 0.0 0.0 0.0 0.6285714285714286 0.37142857142857144 0.0 0.0 0.0 0.0 0.0 0.0 0.0 0.0 0.0 0.0 0.0 0.0 0.0 0.0 0.0 0.0 0.0 0.0 0.0 0.0 0.0 0.0 0.0 0.0 0.0 0.0 0.0 0.0 0.14285714285714285 0.6785714285714286 0.17857142857142858 0.0 0.0 0.0 0.0 0.0 0.0 0.0 0.0 0.0 0.0 0.0 0.0 0.0 0.0 0.0 0.0 0.0 0.0 0.0 0.0 0.0 0.0 0.0 0.0 0.0 0.0 0.0 0.0 0.0 0.5645161290322581 0.43548387096774194 0.0 0.0 0.0 0.0 0.0 0.0 0.0 0.0 0.0 0.0 0.0 0.0 0.0 0.0 0.0 0.0 0.0 0.0 0.0 0.0 0.0 0.0 0.0 0.0 0.0 0.0 0.0 0.0 0.0 0.6111111111111112 0.3888888888888889 0.0 0.0 0.0 0.0 0.0 0.0 0.0 0.0 0.0 0.0 0.0 0.0 0.0 0.0 0.0 0.0 0.0 0.0 0.0 0.0 0.0 0.0 0.0 0.0 0.0 0.0 0.0 0.0 0.0 0.22988505747126436 0.7701149425287356 0.0 0.0 0.0 0.0 0.0 0.0 0.0 0.0 0.0 0.0 0.0 0.0 0.0 0.0 0.0 0.0 0.0 0.0 0.0 0.0 0.0 0.0 0.0 0.0 0.0 0.0 0.0 0.0 0.0 0.31343283582089554 0.6865671641791045 0.0 0.0 0.0 0.0 0.0 0.0 0.0 0.0 0.0 0.0 0.0 0.0 0.0 0.0 0.0 0.0 0.0 0.0 0.0 0.0 0.0 0.0 0.0 0.0 0.0 0.0 0.0 0.0 0.0 0.0 1.0 0.0 0.0 0.0 0.0 0.0 0.0 0.0 0.0 0.0 0.0 0.0 0.0 0.0 0.0 0.0 0.0 0.0 0.0 0.0 0.0 0.0 0.0 0.0 0.0 0.0 0.0 0.0 0.0 0.0 0.0 1.0 0.0 0.0 0.0 0.0 0.0 0.0 0.0 0.0 0.0 0.0 0.0 0.0 0.0 0.0 0.0 0.0 0.0 0.0 0.0 0.0 0.0 0.0 0.0 0.0 0.0 0.0 0.0 0.0 0.0 0.0 1.0 0.0 0.0 0.0 0.0 0.0 0.0 0.0 0.0 0.0 0.0 0.0 0.0 0.0 0.0 0.0 0.0 0.0 0.0 0.0 0.0 0.0 0.0 0.0 0.0 0.0 0.0 0.0 0.0 0.0 0.0 1.0 0.0 0.0 0.0 0.0 0.0 0.0 0.0 0.0 0.0 0.0 0.0 0.0 0.0 0.0 0.0 0.0 0.0 0.0 0.0 0.0 0.0 0.0 0.0 0.0 0.0 0.0 0.0 0.0 0.0 0.0 1.0 0.0 0.0 0.0 0.0 0.0 0.0 0.0 0.0 0.0 0.0 0.0 0.0 0.0 0.0 0.0 0.0 0.0 0.0 0.0 0.0 0.0 0.0 0.0 0.0 0.0 0.0 0.0 0.0 0.0 0.0 1.0 0.0 0.0 0.0 0.0 0.0 0.0 0.0 0.0 0.0 0.0 0.0 0.0 0.0 0.0 0.0 0.0 0.0 0.0 0.0 0.0 0.0 0.0 0.0 0.0 0.0 0.0 0.0 0.0 0.0 0.0 1.0 0.0 0.0 0.0 0.0 0.0 0.0 0.0 0.0 0.0 0.0 0.0 0.0 0.0 0.0 0.0 0.0 0.0 0.0 0.0 0.0 0.0 0.0 0.0 0.0 0.0 0.0 0.0 0.0 0.0 0.0 1.0 0.0 0.0 0.0 0.0 0.0 0.0 0.0 0.0 0.0 0.0 0.0 0.0 0.0 0.0 0.0 0.0 0.0 0.0 0.0 0.0 0.0 0.0 0.0 0.0 0.0 0.0 0.0 0.0 0.0 0.0 1.0 0.0 0.0 0.0 0.0 0.0 0.0 0.0 0.0 0.0 0.0 0.0 0.0 0.0 0.0 0.0 0.0 0.0 0.0 0.0 0.0 0.0 0.0 0.0 0.0 0.0 0.0 0.0 0.0 0.0 0.0 1.0 0.0 0.0 0.0 0.0 0.0 0.0 0.0 0.0 0.0 0.0 0.0 0.0 0.0 0.0 0.0 0.0 0.0 0.0 0.0 0.0 0.0 0.0 0.0 0.0 0.0 0.0 0.0 0.0 0.0 0.0 1.0 0.0 0.0 0.0 0.0 0.0 0.0 0.0 0.0 0.0 0.0 0.0 0.0 0.0 0.0 0.0 0.0 0.0 0.0 0.0 0.0 0.0 0.0 0.0 0.0 0.0 0.0 0.0 0.0 0.0 0.0 1.0 0.0 0.0 0.0 0.0 0.0 0.0 0.0 0.0 0.0 0.0 0.0 0.0 0.0 0.0 0.0 0.0 0.0 0.0 0.0 0.0 0.0 0.0 0.0 0.0 0.0 0.0 0.0 0.0 0.0 0.0 1.0 0.0 0.0 0.0 0.0 0.0 0.0 0.0 0.0 0.0 0.0 0.0 0.0 0.0 0.0 0.0 0.0 0.0 0.0 0.0 0.0 0.0 0.0 0.0 0.0 0.0 0.0 0.0 0.0 0.0 0.0 1.0 0.0 0.0 0.0 0.0 0.0 0.0 0.0 0.0 0.0 0.0 0.0 0.0 0.0 0.0 0.0 0.0 0.0 0.0 0.0 0.0 0.0 0.0 0.0 0.0 0.0 0.0 0.0 0.0 0.0 0.0 1.0 0.0 0.0 0.0 0.0 0.0 0.0 0.0 0.0 0.0 0.0 0.0 0.0 0.0 0.0 0.0 0.0 0.0 0.0 0.0 0.0 0.0 0.0 0.0 0.0 0.0 0.0 0.0 0.0 0.0 0.0 1.0 0.0 0.0 0.0 0.0 0.0 0.0 0.0 0.0 0.0 0.0 0.5 0.0 0.0 0.0 0.0 0.0 0.0 0.0 0.0 0.0 0.0 0.0 0.0 0.5 0.0 0.0 0.0 0.0 0.0 0.0 0.0 0.0 0.0 0.0 0.0 0.0 0.0 0.0 0.0 0.5 0.0 0.0 0.5 0.0 0.0 0.0 0.0 0.0 0.0 0.0 0.0 0.0 0.0 0.0 0.0 0.0 0.0 0.0 0.0 0.0 0.0 0.0 0.0 0.0 0.0 0.0 0.0 0.0 0.0 0.0 0.0 0.0 0.0 0.0 0.0 0.0 0.0 0.0 0.16666666666666666 0.0 0.3333333333333333 0.0 0.16666666666666666 0.16666666666666666 0.0 0.0 0.0 0.0 0.0 0.16666666666666666 0.0 0.0 0.0 0.0 0.0 0.0 0.0 0.0 0.0 0.0 0.0 0.0 0.0 0.0 0.0 0.0 0.0 0.3333333333333333 0.0 0.0 0.16666666666666666 0.16666666666666666 0.0 0.0 0.0 0.0 0.0 0.0 0.0 0.0 0.16666666666666666 0.0 0.0 0.16666666666666666 0.0 0.0 0.0 0.0 0.0 0.0 0.0 0.0 0.0 0.0 0.0 0.0 0.0 0.0 0.0 0.0 0.0 0.0 0.0 0.0 0.0 0.1 0.3 0.0 0.1 0.2 0.0 0.2 0.1 0.0 0.0 0.0 0.0 0.0 0.0 0.0 0.0 0.0 0.0 0.0 0.0 0.0 0.0 0.0 0.0 0.0 0.0 0.0 0.0 0.07142857142857142 0.0 0.07142857142857142 0.35714285714285715 0.0 0.21428571428571427 0.0 0.07142857142857142 0.0 0.0 0.14285714285714285 0.07142857142857142 0.0 0.0 0.0 0.0 0.0 0.0 0.0 0.0 0.0 0.0 0.0 0.0 0.0 0.0 0.0 0.0 0.0 0.0 0.0 0.0 0.0 0.0 0.0 0.0 0.0 0.0 0.1 0.3 0.0 0.2 0.25 0.15 0.0 0.0 0.0 0.0 0.0 0.0 0.0 0.0 0.0 0.0 0.0 0.0 0.0 0.0 0.0 0.0 0.0 0.0 0.0 0.0 0.0 0.0 0.0 0.0 0.05555555555555555 0.2777777777777778 0.05555555555555555 0.0 0.2777777777777778 0.2777777777777778 0.05555555555555555 0.0 0.0 0.0 0.0 0.0 0.0 0.0 0.0 0.0 0.0 0.0 0.0 0.0 0.0 0.0 0.0 0.0 0.0 0.0 0.0 0.0 0.0 0.0 0.0 0.0 0.0 0.0 0.0 0.37142857142857144 0.5142857142857142 0.11428571428571428 0.0 0.0 0.0 0.0 0.0 0.0 0.0 0.0 0.0 0.0 0.0 0.0 0.0 0.0 0.0 0.0 0.0 0.0 0.0 0.0 0.0 0.0 0.0 0.0 0.0 0.0 0.3076923076923077 0.0 0.23076923076923078 0.38461538461538464 0.07692307692307693 0.0 0.0431266846361186 0.0 0.0 0.0 0.0 0.0 0.0 0.0 0.0 0.0 0.0 0.0 0.0 0.0 0.0 0.0 0.0 0.0 0.0 0.0 0.0 0.0 0.0 0.0 0.0 0.0 0.0 0.0 0.0 0.0 0.9568733153638814 0.0 0.0 0.0 0.0 0.0 0.0 0.0 0.0 0.0 0.0 0.0 0.0 0.0 0.0 0.0 0.22641509433962265 0.5471698113207547 0.22641509433962265 0.0 0.0 0.0 0.0 0.0 0.0 0.0 0.0 0.0 0.0 0.0 0.0 0.0 0.0 0.0 0.0 0.0 0.0 0.0 0.0 0.0 0.0 0.0 0.0 0.0 0.0 0.25806451612903225 0.0 0.2903225806451613 0.0 0.0 0.45161290322580644 0.0 0.0 0.0 0.0 0.0 0.0 0.0 0.0 0.0 0.0 0.0 0.0 0.0 0.0 0.0 0.0 0.0 0.0 0.0 0.0 0.0 0.0 0.0 0.0 0.0 0.0 0.0 0.0 0.0 0.0 0.0 0.44776119402985076 0.26865671641791045 0.0 0.2835820895522388 0.0 0.0 0.0 0.0 0.0 0.0 0.0 0.0 0.0 0.0 0.0 0.0 0.0 0.0 0.0 0.0 0.0 0.0 0.0 0.0 0.0 0.0 0.0 0.0 0.0 0.5813953488372093 0.0 0.0 0.0 0.0 0.4186046511627907 0.0 0.0 0.0 0.0 0.0 0.0 0.0 0.0 0.0 0.0 0.0 0.0 0.0 0.0 0.0 0.0 0.0 0.0 0.0 0.0 0.0 0.0 0.0 0.0 0.0 0.0 0.0 0.0 0.0 0.25 0.0 0.0 0.0 0.0 0.75 0.0 0.0 0.0 0.0 0.0 0.0 0.0 0.0 0.0 0.0 0.0 0.0 0.0 0.0 0.0 0.0 0.0 0.0 0.0 0.0 0.0 0.0 0.0 0.0 0.8157894736842105 0.18421052631578946 0.0 0.0 0.0 0.0 0.0 0.0 0.0 0.0 0.0 0.0 0.0 0.0 0.0 0.0 0.0 0.0 0.0 0.0 0.0 0.0 0.0 0.0 0.0 0.0 0.0 0.0 0.0 0.0 0.0 0.0 0.0 0.0 0.26666666666666666 0.7333333333333333 0.0 0.0 0.0 0.0 0.0 0.0 0.0 0.0 0.0 0.0 0.0 0.0 0.0 0.0 0.0 0.0 0.0 0.0 0.0 0.0 0.0 0.0 0.0 0.0 0.0 0.0 0.0 0.0 0.0 0.7 0.0 0.0 0.3 0.0 0.0 0.0 0.0 0.0 0.0 0.0 0.0 0.0 0.0 0.0 0.0 0.0 0.0 0.0 0.0 0.0 0.0 0.0 0.0 0.0 0.0 0.0 0.0 0.0 0.0 0.0 0.0 0.0 1.0 0.0 0.0 0.0 0.0 0.0 0.0 0.0 0.0 0.0 0.0 0.0 0.0 0.0 0.0 0.0 0.0 0.0 0.0 0.0 0.0 0.0 0.0 0.0 0.0 0.0 0.0 0.0 0.0 0.0 0.24444444444444444 0.7555555555555555 0.0 0.0 0.0 0.0 0.0 0.0 0.0 0.0 0.0 0.0 0.0 0.0 0.0 0.0 0.0 0.0 0.0 0.0 0.0 0.0 0.0 0.0 0.0 0.0 0.0 0.0 0.0 0.0 0.0 0.0 0.0 0.0 1.0 0.0 0.0 0.0 0.0 0.0 0.0 0.0 0.0 0.0 0.0 0.0 0.0 0.0 0.0 0.0 0.0 0.0 0.0 0.0 0.0 0.0 0.0 0.0 0.0 0.0 0.0 0.0 0.0 0.5789473684210527 0.0 0.42105263157894735 0.0 0.0 0.0 0.0 0.0 0.0 0.0 0.0 0.0 0.0 0.0 0.0 0.0 0.0 0.0 0.0 0.0 0.0 0.0 0.0 0.0 0.0 0.0 0.0 0.0 0.0 0.0 0.0 0.0 0.0 0.6 0.4 0.0 0.0 0.0 0.0 0.0 0.0 0.0 0.0 0.0 0.0 0.0 0.0 0.0 0.0 0.0 0.0 0.0 0.0 0.0 0.0 0.0 0.0 0.0 0.0 0.0 0.0 0.0 0.0 0.0 1.0 0.0 0.0 0.0 0.0 0.0 0.0 0.0 0.0 0.0 0.0 0.0 0.0 0.0 0.0 0.0 0.0 0.0 0.0 0.0 0.0 0.0 0.0 0.0 0.0 0.0 0.0 0.0 0.0 0.0 0.0 0.0 1.0 0.0 0.0 0.0 0.0 0.0 0.0 0.0 0.0 0.0 0.0 0.0 0.0 0.0 0.0 0.0 0.0 0.0 0.0 0.0 0.0 0.0 0.0 0.0 0.0 0.0 0.0 0.0 0.0 0.0 0.0 1.0 0.0 0.0 0.0 0.0 0.0 0.0 0.0 0.0 0.0 0.0 0.0 0.0 0.0 0.0 0.0 0.0 0.0 0.0 0.0 0.0 0.0 0.0 0.0 0.0 0.0 0.0 0.0 0.0 0.0 0.0 1.0 0.0 0.0 0.0 0.0 0.0 0.0 0.0 0.0 0.0 0.0 0.0 0.0 0.0 0.0 0.0 0.0 0.0 0.0 0.0 0.0 0.0 0.0 0.0 0.0 0.0 0.0 0.0 0.0 0.0 0.0 1.0 0.0 0.0 0.0 0.0 0.0 0.0 0.0 0.0 0.0 0.0 0.0 0.0 0.0 0.0 0.0 0.0 0.0 0.0 0.0 0.0 0.0 0.0 0.0 0.0 0.0 0.0 0.0 0.0 0.0 0.0 1.0 0.0 0.0 0.0 0.0 0.0 0.0 0.0 0.0 0.0 0.0 0.0 0.0 0.0 0.0 0.0 0.0 0.0 0.0 0.0 0.0 0.0 0.0 0.0 0.0 0.0 0.0 0.0 0.0 0.0 0.0 1.0 0.0 0.0 0.0 0.0 0.0 0.0 0.0 0.0 0.0 0.0 0.0 0.0 0.0 0.0 0.0 0.0 0.0 0.0 0.0 0.0 0.0 0.0 0.0 0.0 0.0 0.0 0.0 0.0 0.0 0.0 1.0 0.0 0.0 0.0 0.0 0.0 0.0 0.0 0.0 0.0 0.0 0.0 0.0 0.0 0.0 0.0 0.0 0.0 0.0 0.0 0.0 0.0 0.0 0.0 0.0 0.0 0.0 0.0 0.0 0.0 0.0 0.0 1.0 0.0 0.0 0.7142857142857143 0.2857142857142857 0.0 0.0 0.0 0.0 0.0 0.0 0.0 0.0 0.0 0.0 0.0 0.0 0.0 0.0 0.0 0.0 0.0 0.0 0.0 0.0 0.0 0.0 0.0 0.0 0.0 0.0 0.0 0.0 0.5714285714285714 0.42857142857142855 0.0 0.0 0.0 0.0 0.0 0.0 0.0 0.0 0.0 0.0 0.0 0.0 0.0 0.0 0.0 0.0 0.0 0.0 0.0 0.0 0.0 0.0 0.0 0.0 0.0 0.0 0.0 0.0 0.0 0.0 0.0 0.0 0.5 0.0 0.0 0.5 0.0 0.0 0.0 0.0 0.0 0.0 0.0 0.0 0.0 0.0 0.0 0.0 0.0 0.0 0.0 0.0 0.0 0.0 0.0 0.0 0.0 0.0 0.0 0.0 0.0 0.0 0.25 0.0 0.0 0.0 0.75 0.0 0.0 0.0 0.0 0.0 0.0 0.0 0.0 0.0 0.0 0.0 0.0 0.0 0.0 0.0 0.0 0.0 0.0 0.0 0.0 0.0 0.0 0.0 0.0 0.0 0.0 0.0 0.0 0.0 0.75 0.0 0.0 0.0 0.0 0.25 0.0 0.0 0.0 0.0 0.0 0.0 0.0 0.0 0.0 0.0 0.0 0.0 0.0 0.0 0.0 0.0 0.0 0.0 0.0 0.0 0.0 0.0 0.0 0.36363636363636365 0.36363636363636365 0.2727272727272727 0.0 0.0 0.0 0.0 0.0 0.0 0.0 0.0 0.0 0.0 0.0 0.0 0.0 0.0 0.0 0.0 0.0 0.0 0.0 0.0 0.0 0.0 0.0 0.0 0.0 0.0 0.0 0.0 0.0 0.0 0.0 0.0 0.0 0.2962962962962963 0.48148148148148145 0.0 0.0 0.0 0.0 0.2222222222222222 0.0 0.0 0.0 0.0 0.0 0.0 0.0 0.0 0.0 0.0 0.0 0.0 0.0 0.0 0.0 0.0 0.0 0.0 0.0 0.0 0.0 0.0 0.0 0.7894736842105263 0.21052631578947367 0.0 0.0 0.0 0.0 0.0 0.0 0.0 0.0 0.0 0.0 0.0 0.0 0.0 0.0 0.0 0.0 0.0 0.0 0.0 0.0 0.0 0.0 0.0 0.0 0.0 0.0 0.0 0.0 0.0 0.0 0.0 0.0 0.0 0.0 0.5 0.5 0.0 0.0 0.0 0.0 0.0 0.0 0.0 0.0 0.0 0.0 0.0 0.0 0.0 0.0 0.0 0.0 0.0 0.0 0.0 0.0 0.0 0.0 0.0 0.0 0.0 0.0 0.0 0.0 0.37037037037037035 0.37037037037037035 0.0 0.25925925925925924 0.0 0.0 0.0 0.0 0.0 0.0 0.0 0.0 0.0 0.0 0.0 0.0 0.0 0.0 0.0 0.0 0.053763440860215055 0.0 0.0 0.0 0.0 0.0 0.0 0.0 0.0 0.0 0.0 0.0 0.0 0.0 0.0 0.0 0.0 0.0 0.0 0.0 0.0 0.0 0.0 0.0 0.0 0.0 0.0 0.0 0.0 0.0 0.946236559139785 0.0 0.0 0.0 0.0 0.0 0.0 0.0 0.0 0.0 0.0 0.0 0.0 0.0 0.0 0.0 0.0 0.0 0.23684210526315788 0.0 0.0 0.0 0.0 0.7631578947368421 0.0 0.0 0.0 0.0 0.0 0.0 0.0 0.0 0.0 0.0 0.0 0.0 0.0 0.0 0.0 0.0 0.0 0.0 0.0 0.0 0.0 0.0 0.0 0.21428571428571427 0.5952380952380952 0.19047619047619047 0.0 0.0 0.0 0.0 0.0 0.0 0.0 0.0 0.0 0.0 0.0 0.0 0.0 0.0 0.0 0.0 0.0 0.0 0.0 0.0 0.0 0.0 0.0 0.0 0.0 0.0 0.0 0.0 0.0 0.0 0.0 0.0 0.0 0.3333333333333333 0.6666666666666666 0.0 0.0 0.0 0.0 0.0 0.0 0.0 0.0 0.0 0.0 0.0 0.0 0.0 0.0 0.0 0.0 0.0 0.0 0.0 0.0 0.0 0.0 0.0 0.0 0.0 0.0 0.0 0.0 0.5185185185185185 0.2777777777777778 0.0 0.2037037037037037 0.0 0.0 0.0 0.0 0.0 0.0 0.0 0.0 0.0 0.0 0.0 0.0 0.0 0.0 0.0 0.0 0.0 0.0 0.0 0.0 0.0 0.0 0.0 0.0 0.0 0.0 0.0 0.0 0.0 0.0 0.0 0.6 0.22666666666666666 0.0 0.17333333333333334 0.0 0.0 0.0 0.0 0.0 0.0 0.0 0.0 0.0 0.0 0.0 0.0 0.0 0.0 0.0 0.0 0.0 0.0 0.0 0.0 0.0 0.0 0.0 0.0 0.0 0.24242424242424243 0.0 0.22727272727272727 0.0 0.0 0.5303030303030303 0.0 0.0 0.0 0.0 0.0 0.0 0.0 0.0 0.0 0.0 0.0 0.0 0.0 0.0 0.0 0.0 0.0 0.0 0.0 0.0 0.0 0.0 0.0 0.0 0.0 0.0 0.0 0.0 0.0 1.0 0.0 0.0 0.0 0.0 0.0 0.0 0.0 0.0 0.0 0.0 0.0 0.0 0.0 0.0 0.0 0.0 0.0 0.0 0.0 0.0 0.0 0.0 0.0 0.0 0.0 0.0 0.0 0.0 0.0 0.7971014492753623 0.2028985507246377 0.0 0.0 0.0 0.0 0.0 0.0 0.0 0.0 0.0 0.0 0.0 0.0 0.0 0.0 0.0 0.0 0.0 0.0 0.0 0.0 0.0 0.0 0.0 0.0 0.0 0.0 0.0 0.0 0.0 0.0 0.26666666666666666 0.0 0.7333333333333333 0.0 0.0 0.0 0.0 0.0 0.0 0.0 0.0 0.0 0.0 0.0 0.0 0.0 0.0 0.0 0.0 0.0 0.0 0.0 0.0 0.0 0.0 0.0 0.0 0.0 0.0 0.0 0.0 0.72 0.0 0.28 0.0 0.0 0.0 0.0 0.0 0.0 0.0 0.0 0.0 0.0 0.0 0.0 0.0 0.0 0.0 0.0 0.0 0.0 0.0 0.0 0.0 0.0 0.0 0.0 0.0 0.0 0.0 0.0 0.0 0.0 0.8727272727272727 0.12727272727272726 0.0 0.0 0.0 0.0 0.0 0.0 0.0 0.0 0.0 0.0 0.0 0.0 0.0 0.0 0.0 0.0 0.0 0.0 0.0 0.0 0.0 0.0 0.0 0.0 0.0 0.0 0.0 0.0 0.0 1.0 0.0 0.0 0.0 0.0 0.0 0.0 0.0 0.0 0.0 0.0 0.0 0.0 0.0 0.0 0.0 0.0 0.0 0.0 0.0 0.0 0.0 0.0 0.0 0.0 0.0 0.0 0.0 0.0 0.0 0.0 0.0 1.0 0.0 0.0 0.0 0.0 0.0 0.0 0.0 0.0 0.0 0.0 0.0 0.0 0.0 0.0 0.0 0.0 0.0 0.0 0.0 0.0 0.0 0.0 0.0 0.0 0.0 0.0 0.0 0.0 0.0 0.23684210526315788 0.7631578947368421 0.0 0.0 0.0 0.0 0.0 0.0 0.0 0.0 0.0 0.0 0.0 0.0 0.0 0.0 0.0 0.0 0.0 0.0 0.0 0.0 0.0 0.0 0.0 0.0 0.0 0.0 0.0 0.0 0.0 0.0 1.0 0.0 0.0 0.0 0.0 0.0 0.0 0.0 0.0 0.0 0.0 0.0 0.0 0.0 0.0 0.0 0.0 0.0 0.0 0.0 0.0 0.0 0.0 0.0 0.0 0.0 0.0 0.0 0.0 0.0 0.0 1.0 0.0 0.0 0.0 0.0 0.0 0.0 0.0 0.0 0.0 0.0 0.0 0.0 0.0 0.0 0.0 0.0 0.0 0.0 0.0 0.0 0.0 0.0 0.0 0.0 0.0 0.0 0.0 0.0 0.0 0.0 1.0 0.0 0.0 0.0 0.0 0.0 0.0 0.0 0.0 0.0 0.0 0.0 0.0 0.0 0.0 0.0 0.0 0.0 0.0 0.0 0.0 0.0 0.0 0.0 0.0 0.0 0.0 0.0 0.0 0.0 0.0 1.0 0.0 0.0 0.0 0.0 0.0 0.0 0.0 0.0 0.0 0.0 0.0 0.0 0.0 0.0 0.0 0.0 0.0 0.0 0.0 0.0 0.0 0.0 0.0 0.0 0.0 0.0 0.0 0.0 0.0 0.0 0.6 0.4 0.0 0.0 0.0 0.0 0.0 0.0 0.0 0.0 0.0 0.0 0.0 0.0 0.0 0.0 0.0 0.0 0.0 0.0 0.0 0.0 0.0 0.0 0.0 0.0 0.0 0.0 0.0 0.0 0.0 1.0 0.0 0.0 0.0 0.0 0.0 0.0 0.0 0.0 0.0 0.0 0.0 0.0 0.0 0.0 0.0 0.0 0.0 0.0 0.0 0.0 0.0 0.0 0.0 0.0 0.0 0.0 0.0 0.0 0.0 0.0 0.0 1.0 0.0 0.0 0.0 0.0 0.0 0.0 0.0 0.0 0.0 0.0 0.0 0.0 0.0 0.0 0.0 0.0 0.0 0.0 0.0 0.0 0.0 0.0 0.0 0.0 0.0 0.0 0.0 0.0 0.0 0.0 1.0 0.0 0.0 0.5 0.5 0.0 0.0 0.0 0.0 0.0 0.0 0.0 0.0 0.0 0.0 0.0 0.0 0.0 0.0 0.0 0.0 0.0 0.0 0.0 0.0 0.0 0.0 0.0 0.0 0.0 0.0 0.0 0.0 0.0 1.0 0.0 0.0 0.0 0.0 0.0 0.0 0.0 0.0 0.0 0.0 0.0 0.0 0.0 0.0 0.0 0.0 0.0 0.0 0.0 0.0 0.0 0.0 0.0 0.0 0.0 0.0 0.0 0.0 0.0 0.0 0.0 0.0 0.2 0.8 0.0 0.0 0.0 0.0 0.0 0.0 0.0 0.0 0.0 0.0 0.0 0.0 0.0 0.0 0.0 0.0 0.0 0.0 0.0 0.0 0.0 0.0 0.0 0.0 0.0 0.0 0.0 0.0 0.0 0.09090909090909091 0.0 0.0 0.9090909090909091 0.0 0.0 0.0 0.0 0.0 0.0 0.0 0.0 0.0 0.0 0.0 0.0 0.0 0.0 0.0 0.0 0.0 0.0 0.0 0.0 0.0 0.0 0.0 0.0 0.0 0.0 0.0 0.0 0.0 0.0 0.0 0.5454545454545454 0.18181818181818182 0.0 0.2727272727272727 0.0 0.0 0.0 0.0 0.0 0.0 0.0 0.0 0.0 0.0 0.0 0.0 0.0 0.0 0.0 0.0 0.0 0.0 0.0 0.0 0.0 0.0 0.0 0.0 0.2727272727272727 0.5454545454545454 0.0 0.0 0.0 0.0 0.18181818181818182 0.0 0.0 0.0 0.0 0.0 0.0 0.0 0.0 0.0 0.0 0.0 0.0 0.0 0.0 0.0 0.0 0.0 0.0 0.0 0.0 0.0 0.0 0.0 0.0 0.0 0.0 0.0 0.0 0.0 0.0 0.0 0.5238095238095238 0.0 0.0 0.47619047619047616 0.0 0.0 0.0 0.0 0.0 0.0 0.0 0.0 0.0 0.0 0.0 0.0 0.0 0.0 0.0 0.0 0.0 0.0 0.0 0.0 0.0 0.0 0.0 0.0 0.4166666666666667 0.5833333333333334 0.0 0.0 0.0 0.0 0.0 0.0 0.0 0.0 0.0 0.0 0.0 0.0 0.0 0.0 0.0 0.0 0.0 0.0 0.0 0.0 0.0 0.0 0.0 0.0 0.0 0.0 0.0 0.0 0.0 0.0 0.0 0.0 0.0 0.0 0.2962962962962963 0.0 0.2962962962962963 0.0 0.0 0.4074074074074074 0.0 0.0 0.0 0.0 0.0 0.0 0.0 0.0 0.0 0.0 0.0 0.0 0.0 0.0 0.0 0.0 0.0 0.0 0.0 0.0 0.0 0.0 0.0 0.3333333333333333 0.5 0.16666666666666666 0.0 0.0 0.0 0.0 0.0 0.0 0.0 0.0 0.0 0.0 0.0 0.0 0.0 0.0 0.0 0.0 0.0 0.012254901960784314 0.0 0.0 0.0 0.0 0.0 0.0 0.0 0.0 0.0 0.0 0.0 0.0 0.0 0.0 0.0 0.0 0.0 0.0 0.0 0.0 0.0 0.0 0.0 0.0 0.0 0.0 0.0 0.0 0.0 0.9877450980392157 0.0 0.0 0.0 0.0 0.0 0.0 0.0 0.0 0.0 0.0 0.0 0.0 0.2054794520547945 0.589041095890411 0.0 0.0 0.0 0.0 0.2054794520547945 0.0 0.0 0.0 0.0 0.0 0.0 0.0 0.0 0.0 0.0 0.0 0.0 0.0 0.0 0.0 0.0 0.0 0.0 0.0 0.0 0.0 0.0 0.0 0.49019607843137253 0.23529411764705882 0.0 0.27450980392156865 0.0 0.0 0.0 0.0 0.0 0.0 0.0 0.0 0.0 0.0 0.0 0.0 0.0 0.0 0.0 0.0 0.0 0.0 0.0 0.0 0.0 0.0 0.0 0.0 0.0 0.0 0.0 0.0 0.0 0.0 0.0 0.2727272727272727 0.45454545454545453 0.2727272727272727 0.0 0.0 0.0 0.0 0.0 0.0 0.0 0.0 0.0 0.0 0.0 0.0 0.0 0.0 0.0 0.0 0.0 0.0 0.0 0.0 0.0 0.0 0.0 0.0 0.0 0.0 0.0 0.0 0.25882352941176473 0.0 0.0 0.7411764705882353 0.0 0.0 0.0 0.0 0.0 0.0 0.0 0.0 0.0 0.0 0.0 0.0 0.0 0.0 0.0 0.0 0.0 0.0 0.0 0.0 0.0 0.0 0.0 0.0 0.0 0.0 0.0 0.0 0.0 0.0 0.0 0.8156028368794326 0.0 0.0 0.18439716312056736 0.0 0.0 0.0 0.0 0.0 0.0 0.0 0.0 0.0 0.0 0.0 0.0 0.0 0.0 0.0 0.0 0.0 0.0 0.0 0.0 0.0 0.0 0.0 0.0 0.0 0.8116883116883117 0.0 0.0 0.0 0.0 0.18831168831168832 0.0 0.0 0.0 0.0 0.0 0.0 0.0 0.0 0.0 0.0 0.0 0.0 0.0 0.0 0.0 0.0 0.0 0.0 0.0 0.0 0.0 0.0 0.0 0.0 0.0 0.0 0.0 0.0 0.0 0.7101449275362319 0.0 0.0 0.0 0.0 0.2898550724637681 0.0 0.0 0.0 0.0 0.0 0.0 0.0 0.0 0.0 0.0 0.0 0.0 0.0 0.0 0.0 0.0 0.0 0.0 0.0 0.0 0.0 0.0 0.0 0.2517985611510791 0.48201438848920863 0.26618705035971224 0.0 0.0 0.0 0.0 0.0 0.0 0.0 0.0 0.0 0.0 0.0 0.0 0.0 0.0 0.0 0.0 0.0 0.0 0.0 0.0 0.0 0.0 0.0 0.0 0.0 0.0 0.0 0.0 0.0 0.0 0.0 0.0 0.7481481481481481 0.2518518518518518 0.0 0.0 0.0 0.0 0.0 0.0 0.0 0.0 0.0 0.0 0.0 0.0 0.0 0.0 0.0 0.0 0.0 0.0 0.0 0.0 0.0 0.0 0.0 0.0 0.0 0.0 0.0 0.0 0.0 0.24603174603174602 0.0 0.0 0.753968253968254 0.0 0.0 0.0 0.0 0.0 0.0 0.0 0.0 0.0 0.0 0.0 0.0 0.0 0.0 0.0 0.0 0.0 0.0 0.0 0.0 0.0 0.0 0.0 0.0 0.0 0.0 0.0 0.0 0.0 1.0 0.0 0.0 0.0 0.0 0.0 0.0 0.0 0.0 0.0 0.0 0.0 0.0 0.0 0.0 0.0 0.0 0.0 0.0 0.0 0.0 0.0 0.0 0.0 0.0 0.0 0.0 0.0 0.0 0.0 0.7522935779816514 0.24770642201834864 0.0 0.0 0.0 0.0 0.0 0.0 0.0 0.0 0.0 0.0 0.0 0.0 0.0 0.0 0.0 0.0 0.0 0.0 0.0 0.0 0.0 0.0 0.0 0.0 0.0 0.0 0.0 0.0 0.0 0.0 0.54 0.0 0.46 0.0 0.0 0.0 0.0 0.0 0.0 0.0 0.0 0.0 0.0 0.0 0.0 0.0 0.0 0.0 0.0 0.0 0.0 0.0 0.0 0.0 0.0 0.0 0.0 0.0 0.0 0.0 0.0 1.0 0.0 0.0 0.0 0.0 0.0 0.0 0.0 0.0 0.0 0.0 0.0 0.0 0.0 0.0 0.0 0.0 0.0 0.0 0.0 0.0 0.0 0.0 0.0 0.0 0.0 0.0 0.0 0.0 0.0 0.0 0.0 0.0 1.0 0.0 0.0 0.0 0.0 0.0 0.0 0.0 0.0 0.0 0.0 0.0 0.0 0.0 0.0 0.0 0.0 0.0 0.0 0.0 0.0 0.0 0.0 0.0 0.0 0.0 0.0 0.0 0.0 0.0 0.0 1.0 0.0 0.0 0.0 0.0 0.0 0.0 0.0 0.0 0.0 0.0 0.0 0.0 0.0 0.0 0.0 0.0 0.0 0.0 0.0 0.0 0.0 0.0 0.0 0.0 0.0 0.0 0.0 0.0 0.0 0.0 0.09090909090909091 0.9090909090909091 0.0 0.0 0.0 0.0 0.0 0.0 0.0 0.0 0.0 0.0 0.0 0.0 0.0 0.0 0.0 0.0 0.0 0.0 0.0 0.0 0.0 0.0 0.0 0.0 0.0 0.0 0.0 0.0 0.0 0.8235294117647058 0.17647058823529413 0.0 0.0 0.0 0.0 0.0 0.0 0.0 0.0 0.0 0.0 0.0 0.0 0.0 0.0 0.0 0.0 0.0 0.0 0.0 0.0 0.0 0.0 0.0 0.0 0.0 0.0 0.0 0.0 0.0 0.0 1.0 0.0 0.0 0.0 0.0 0.0 0.0 0.0 0.0 0.0 0.0 0.0 0.0 0.0 0.0 0.0 0.0 0.0 0.0 0.0 0.0 0.0 0.0 0.0 0.0 0.0 0.0 0.0 0.0 0.0 0.0 1.0 0.0 0.0 0.0 0.0 0.0 0.0 0.0 0.0 0.0 0.0 0.0 0.0 0.0 0.0 0.0 0.0 0.0 0.0 0.0 0.0 0.0 0.0 0.0 0.0 0.0 0.0 0.0 0.0 0.0 0.0 1.0 0.0 0.0 0.0 0.0 0.0 0.0 0.0 0.0 0.0 0.0 0.0 0.0 0.0 0.0 0.0 0.0 0.0 0.0 0.0 0.0 0.0 0.0 0.0 0.0 0.0 0.0 0.0 0.0 0.0 0.0 1.0 0.0 0.0 0.35714285714285715 0.6428571428571429 0.0 0.0 0.0 0.0 0.0 0.0 0.0 0.0 0.0 0.0 0.0 0.0 0.0 0.0 0.0 0.0 0.0 0.0 0.0 0.0 0.0 0.0 0.0 0.0 0.0 0.0 0.0 0.0 0.0 1.0 0.0 0.0 0.0 0.0 0.0 0.0 0.0 0.0 0.0 0.0 0.0 0.0 0.0 0.0 0.0 0.0 0.0 0.0 0.0 0.0 0.0 0.0 0.0 0.0 0.0 0.0 0.0 0.0 0.0 0.0 0.0 0.0 0.5714285714285714 0.0 0.0 0.0 0.42857142857142855 0.0 0.0 0.0 0.0 0.0 0.0 0.0 0.0 0.0 0.0 0.0 0.0 0.0 0.0 0.0 0.0 0.0 0.0 0.0 0.0 0.0 0.0 0.0 0.0 0.0 0.8888888888888888 0.1111111111111111 0.0 0.0 0.0 0.0 0.0 0.0 0.0 0.0 0.0 0.0 0.0 0.0 0.0 0.0 0.0 0.0 0.0 0.0 0.0 0.0 0.0 0.0 0.0 0.0 0.0 0.0 0.0 0.0 0.0 0.0 0.0 0.391304347826087 0.6086956521739131 0.0 0.0 0.0 0.0 0.0 0.0 0.0 0.0 0.0 0.0 0.0 0.0 0.0 0.0 0.0 0.0 0.0 0.0 0.0 0.0 0.0 0.0 0.0 0.0 0.0 0.0 0.0 0.0 0.0 0.4666666666666667 0.0 0.0 0.5333333333333333 0.0 0.0 0.0 0.0 0.0 0.0 0.0 0.0 0.0 0.0 0.0 0.0 0.0 0.0 0.0 0.0 0.0 0.0 0.0 0.0 0.0 0.0 0.0 0.0 0.0 0.0 0.0 0.0 0.0 0.0 0.0 0.375 0.0 0.0 0.625 0.0 0.0 0.0 0.0 0.0 0.0 0.0 0.0 0.0 0.0 0.0 0.0 0.0 0.0 0.0 0.0 0.0 0.0 0.0 0.0 0.0 0.0 0.0 0.0 0.4583333333333333 0.2916666666666667 0.0 0.0 0.0 0.0 0.25 0.0 0.0 0.0 0.0 0.0 0.0 0.0 0.0 0.0 0.0 0.0 0.0 0.0 0.0 0.0 0.0 0.0 0.0 0.0 0.0 0.0 0.0 0.0 0.0 0.0 0.0 0.0 0.0 0.0 0.2558139534883721 0.0 0.0 0.0 0.0 0.7441860465116279 0.0 0.0 0.0 0.0 0.0 0.0 0.0 0.0 0.0 0.0 0.0 0.0 0.0 0.0 0.0 0.0 0.0 0.0 0.0 0.0 0.0 0.0 0.0 0.38636363636363635 0.3181818181818182 0.29545454545454547 0.0 0.0 0.0 0.0 0.0 0.0 0.0 0.0 0.0 0.0 0.0 0.0 0.0 0.0 0.0 0.0 0.0 0.0 0.0 0.0 0.0 0.0410958904109589 0.0 0.0 0.0 0.0 0.0 0.0 0.0 0.0 0.0 0.0 0.0 0.0 0.0 0.0 0.0 0.0 0.0 0.0 0.0 0.0 0.0 0.0 0.0 0.0 0.0 0.0 0.0 0.0 0.0 0.958904109589041 0.0 0.0 0.0 0.0 0.0 0.0 0.0 0.0 0.0 0.0 0.0 0.0 0.0 0.0 0.0 0.28125 0.0 0.0 0.71875 0.0 0.0 0.0 0.0 0.0 0.0 0.0 0.0 0.0 0.0 0.0 0.0 0.0 0.0 0.0 0.0 0.0 0.0 0.0 0.0 0.0 0.0 0.0 0.0 0.2972972972972973 0.7027027027027027 0.0 0.0 0.0 0.0 0.0 0.0 0.0 0.0 0.0 0.0 0.0 0.0 0.0 0.0 0.0 0.0 0.0 0.0 0.0 0.0 0.0 0.0 0.0 0.0 0.0 0.0 0.0 0.0 0.0 0.0 0.0 0.0 0.0 0.0 0.8217821782178217 0.0 0.0 0.0 0.0 0.1782178217821782 0.0 0.0 0.0 0.0 0.0 0.0 0.0 0.0 0.0 0.0 0.0 0.0 0.0 0.0 0.0 0.0 0.0 0.0 0.0 0.0 0.0 0.0 0.0 0.2875 0.4375 0.275 0.0 0.0 0.0 0.0 0.0 0.0 0.0 0.0 0.0 0.0 0.0 0.0 0.0 0.0 0.0 0.0 0.0 0.0 0.0 0.0 0.0 0.0 0.0 0.0 0.0 0.0 0.0 0.0 0.0 0.0 0.0 0.0 0.2682926829268293 0.5040650406504065 0.22764227642276422 0.0 0.0 0.0 0.0 0.0 0.0 0.0 0.0 0.0 0.0 0.0 0.0 0.0 0.0 0.0 0.0 0.0 0.0 0.0 0.0 0.0 0.0 0.0 0.0 0.0 0.0 0.0 0.0 0.47191011235955055 0.21348314606741572 0.0 0.3146067415730337 0.0 0.0 0.0 0.0 0.0 0.0 0.0 0.0 0.0 0.0 0.0 0.0 0.0 0.0 0.0 0.0 0.0 0.0 0.0 0.0 0.0 0.0 0.0 0.0 0.0 0.0 0.0 0.0 0.0 0.0 0.0 0.43478260869565216 0.0 0.0 0.5652173913043478 0.0 0.0 0.0 0.0 0.0 0.0 0.0 0.0 0.0 0.0 0.0 0.0 0.0 0.0 0.0 0.0 0.0 0.0 0.0 0.0 0.0 0.0 0.0 0.0 0.0 0.7596899224806202 0.0 0.0 0.0 0.0 0.24031007751937986 0.0 0.0 0.0 0.0 0.0 0.0 0.0 0.0 0.0 0.0 0.0 0.0 0.0 0.0 0.0 0.0 0.0 0.0 0.0 0.0 0.0 0.0 0.0 0.0 0.0 0.0 0.0 0.0 0.52 0.48 0.0 0.0 0.0 0.0 0.0 0.0 0.0 0.0 0.0 0.0 0.0 0.0 0.0 0.0 0.0 0.0 0.0 0.0 0.0 0.0 0.0 0.0 0.0 0.0 0.0 0.0 0.0 0.0 0.33980582524271846 0.6601941747572816 0.0 0.0 0.0 0.0 0.0 0.0 0.0 0.0 0.0 0.0 0.0 0.0 0.0 0.0 0.0 0.0 0.0 0.0 0.0 0.0 0.0 0.0 0.0 0.0 0.0 0.0 0.0 0.0 0.0 0.0 0.0 0.75 0.0 0.25 0.0 0.0 0.0 0.0 0.0 0.0 0.0 0.0 0.0 0.0 0.0 0.0 0.0 0.0 0.0 0.0 0.0 0.0 0.0 0.0 0.0 0.0 0.0 0.0 0.0 0.0 0.0 0.0 1.0 0.0 0.0 0.0 0.0 0.0 0.0 0.0 0.0 0.0 0.0 0.0 0.0 0.0 0.0 0.0 0.0 0.0 0.0 0.0 0.0 0.0 0.0 0.0 0.0 0.0 0.0 0.0 0.0 0.0 0.0 0.0 0.0 1.0 0.0 0.0 0.0 0.0 0.0 0.0 0.0 0.0 0.0 0.0 0.0 0.0 0.0 0.0 0.0 0.0 0.0 0.0 0.0 0.0 0.0 0.0 0.0 0.0 0.0 0.0 0.0 0.0 0.28846153846153844 0.0 0.7115384615384616 0.0 0.0 0.0 0.0 0.0 0.0 0.0 0.0 0.0 0.0 0.0 0.0 0.0 0.0 0.0 0.0 0.0 0.0 0.0 0.0 0.0 0.0 0.0 0.0 0.0 0.0 0.0 0.0 0.0 0.0 0.5 0.5 0.0 0.0 0.0 0.0 0.0 0.0 0.0 0.0 0.0 0.0 0.0 0.0 0.0 0.0 0.0 0.0 0.0 0.0 0.0 0.0 0.0 0.0 0.0 0.0 0.0 0.0 0.0 0.0 0.0 1.0 0.0 0.0 0.0 0.0 0.0 0.0 0.0 0.0 0.0 0.0 0.0 0.0 0.0 0.0 0.0 0.0 0.0 0.0 0.0 0.0 0.0 0.0 0.0 0.0 0.0 0.0 0.0 0.0 0.0 0.0 0.0 1.0 0.0 0.0 0.0 0.0 0.0 0.0 0.0 0.0 0.0 0.0 0.0 0.0 0.0 0.0 0.0 0.0 0.0 0.0 0.0 0.0 0.0 0.0 0.0 0.0 0.0 0.0 0.0 0.0 0.0 0.0 1.0 0.0 0.0 0.0 0.0 0.0 0.0 0.0 0.0 0.0 0.0 0.0 0.0 0.0 0.0 0.0 0.0 0.0 0.0 0.0 0.0 0.0 0.0 0.0 0.0 0.0 0.0 0.0 0.0 0.0 0.0 1.0 0.0 0.0 0.0 0.0 0.0 0.0 0.0 0.0 0.0 0.0 0.0 0.0 0.0 0.0 0.0 0.0 0.0 0.0 0.0 0.0 0.0 0.0 0.0 0.0 0.0 0.0 0.0 0.0 0.0 0.0 1.0 0.0 0.0 0.0 0.0 0.0 0.0 0.0 0.0 0.0 0.0 0.0 0.0 0.0 0.0 0.0 0.0 0.0 0.0 0.0 0.0 0.0 0.0 0.0 0.0 0.0 0.0 0.0 0.0 0.0 0.0 1.0 0.0 0.0 0.0 0.0 0.0 0.0 0.0 0.0 0.0 0.0 0.0 0.0 0.0 0.0 0.0 0.0 0.0 0.0 0.0 0.0 0.0 0.0 0.0 0.0 0.0 0.0 0.0 0.0 0.0 0.0 1.0 0.0 0.0 0.0 1.0 0.0 0.0 0.0 0.0 0.0 0.0 0.0 0.0 0.0 0.0 0.0 0.0 0.0 0.0 0.0 0.0 0.0 0.0 0.0 0.0 0.0 0.0 0.0 0.0 0.0 0.0 0.0 0.0 0.0 1.0 0.0 0.0 0.0 0.0 0.0 0.0 0.0 0.0 0.0 0.0 0.0 0.0 0.0 0.0 0.0 0.0 0.0 0.0 0.0 0.0 0.0 0.0 0.0 0.0 0.0 0.0 0.0 0.0 0.0 0.0 0.0 0.0 0.3 0.0 0.0 0.0 0.7 0.0 0.0 0.0 0.0 0.0 0.0 0.0 0.0 0.0 0.0 0.0 0.0 0.0 0.0 0.0 0.0 0.0 0.0 0.0 0.0 0.0 0.0 0.0 0.0 0.0 0.2 0.8 0.0 0.0 0.0 0.0 0.0 0.0 0.0 0.0 0.0 0.0 0.0 0.0 0.0 0.0 0.0 0.0 0.0 0.0 0.0 0.0 0.0 0.0 0.0 0.0 0.0 0.0 0.0 0.0 0.0 0.0 0.0 0.0 0.2777777777777778 0.7222222222222222 0.0 0.0 0.0 0.0 0.0 0.0 0.0 0.0 0.0 0.0 0.0 0.0 0.0 0.0 0.0 0.0 0.0 0.0 0.0 0.0 0.0 0.0 0.0 0.0 0.0 0.0 0.0 0.0 0.9230769230769231 0.07692307692307693 0.0 0.0 0.0 0.0 0.0 0.0 0.0 0.0 0.0 0.0 0.0 0.0 0.0 0.0 0.0 0.0 0.0 0.0 0.0 0.0 0.0 0.0 0.0 0.0 0.0 0.0 0.0 0.0 0.0 0.0 0.0 0.0 0.0 0.43478260869565216 0.5652173913043478 0.0 0.0 0.0 0.0 0.0 0.0 0.0 0.0 0.0 0.0 0.0 0.0 0.0 0.0 0.0 0.0 0.0 0.0 0.0 0.0 0.0 0.0 0.0 0.0 0.0 0.0 0.0 0.3076923076923077 0.0 0.3076923076923077 0.0 0.0 0.38461538461538464 0.0 0.0 0.0 0.0 0.0 0.0 0.0 0.0 0.0 0.0 0.0 0.0 0.0 0.0 0.0 0.0 0.0 0.0 0.0 0.0 0.0 0.0 0.0 0.0 0.0 0.0 0.0 0.0 0.0 0.0 0.0 0.45454545454545453 0.23636363636363636 0.0 0.3090909090909091 0.0 0.0 0.0 0.0 0.0 0.0 0.0 0.0 0.0 0.0 0.0 0.0 0.0 0.0 0.0 0.0 0.0 0.0 0.0 0.0 0.0 0.0 0.0 0.0 0.0 0.7941176470588235 0.0 0.0 0.0 0.0 0.20588235294117646 0.0 0.0 0.0 0.0 0.0 0.0 0.0 0.0 0.0 0.0 0.0 0.0 0.0 0.0 0.0 0.0 0.0 0.0 0.0 0.0 0.0 0.0 0.0 0.0 0.0 0.0 0.0 0.0 0.0 0.0 0.0 0.0 0.0 0.0 0.0 0.0 0.0 0.0 0.0 0.0 0.0 0.0 0.0 0.0 0.0 0.0 1.0 0.0 0.0 0.0 0.0 0.0 0.0 0.0 0.0 0.0 0.24427480916030533 0.0 0.21374045801526717 0.0 0.0 0.5419847328244275 0.0 0.0 0.0 0.0 0.0 0.0 0.0 0.0 0.0 0.0 0.0 0.0 0.0 0.0 0.0 0.0 0.0 0.0 0.0 0.0 0.0 0.0 0.0 0.0 0.21818181818181817 0.7818181818181819 0.0 0.0 0.0 0.0 0.0 0.0 0.0 0.0 0.0 0.0 0.0 0.0 0.0 0.0 0.0 0.0 0.0 0.0 0.0 0.0 0.0 0.0 0.0 0.0 0.0 0.0 0.0 0.0 0.0 0.0 0.0 0.0 0.0 0.2524271844660194 0.529126213592233 0.0 0.0 0.0 0.0 0.21844660194174756 0.0 0.0 0.0 0.0 0.0 0.0 0.0 0.0 0.0 0.0 0.0 0.0 0.0 0.0 0.0 0.0 0.0 0.0 0.0 0.0 0.0 0.0 0.0 0.2571428571428571 0.7428571428571429 0.0 0.0 0.0 0.0 0.0 0.0 0.0 0.0 0.0 0.0 0.0 0.0 0.0 0.0 0.0 0.0 0.0 0.0 0.0 0.0 0.0 0.0 0.0 0.0 0.0 0.0 0.0 0.0 0.0 0.0 0.0 0.0 0.0 0.29571984435797666 0.4980544747081712 0.20622568093385213 0.0 0.0 0.0 0.0 0.0 0.0 0.0 0.0 0.0 0.0 0.0 0.0 0.0 0.0 0.0 0.0 0.0 0.0 0.0 0.0 0.0 0.0 0.0 0.0 0.0 0.0 0.0 0.0 0.7120622568093385 0.0 0.0 0.28793774319066145 0.0 0.0 0.0 0.0 0.0 0.0 0.0 0.0 0.0 0.0 0.0 0.0 0.0 0.0 0.0 0.0 0.0 0.0 0.0 0.0 0.0 0.0 0.0 0.0 0.0 0.0 0.0 0.0 0.0 0.0 0.0 0.4948453608247423 0.0 0.0 0.5051546391752577 0.0 0.0 0.0 0.0 0.0 0.0 0.0 0.0 0.0 0.0 0.0 0.0 0.0 0.0 0.0 0.0 0.0 0.0 0.0 0.0 0.0 0.0 0.0 0.0 0.0 0.7915194346289752 0.0 0.0 0.0 0.0 0.20848056537102475 0.0 0.0 0.0 0.0 0.0 0.0 0.0 0.0 0.0 0.0 0.0 0.0 0.0 0.0 0.0 0.0 0.0 0.0 0.0 0.0 0.0 0.0 0.0 0.0 0.0 0.0 0.0 0.0 0.3090909090909091 0.6909090909090909 0.0 0.0 0.0 0.0 0.0 0.0 0.0 0.0 0.0 0.0 0.0 0.0 0.0 0.0 0.0 0.0 0.0 0.0 0.0 0.0 0.0 0.0 0.0 0.0 0.0 0.0 0.0 0.0 0.3381294964028777 0.6618705035971223 0.0 0.0 0.0 0.0 0.0 0.0 0.0 0.0 0.0 0.0 0.0 0.0 0.0 0.0 0.0 0.0 0.0 0.0 0.0 0.0 0.0 0.0 0.0 0.0 0.0 0.0 0.0 0.0 0.0 0.0 0.0 0.0 0.0 0.743421052631579 0.0 0.0 0.2565789473684211 0.0 0.0 0.0 0.0 0.0 0.0 0.0 0.0 0.0 0.0 0.0 0.0 0.0 0.0 0.0 0.0 0.0 0.0 0.0 0.0 0.0 0.0 0.0 0.0 0.0 0.23214285714285715 0.0 0.0 0.0 0.0 0.7678571428571429 0.0 0.0 0.0 0.0 0.0 0.0 0.0 0.0 0.0 0.0 0.0 0.0 0.0 0.0 0.0 0.0 0.0 0.0 0.0 0.0 0.0 0.0 0.0 0.0 0.0 0.0 0.0 0.0 0.5204081632653061 0.47959183673469385 0.0 0.0 0.0 0.0 0.0 0.0 0.0 0.0 0.0 0.0 0.0 0.0 0.0 0.0 0.0 0.0 0.0 0.0 0.0 0.0 0.0 0.0 0.0 0.0 0.0 0.0 0.0 0.0 0.25773195876288657 0.7422680412371134 0.0 0.0 0.0 0.0 0.0 0.0 0.0 0.0 0.0 0.0 0.0 0.0 0.0 0.0 0.0 0.0 0.0 0.0 0.0 0.0 0.0 0.0 0.0 0.0 0.0 0.0 0.0 0.0 0.0 0.0 0.0 1.0 0.0 0.0 0.0 0.0 0.0 0.0 0.0 0.0 0.0 0.0 0.0 0.0 0.0 0.0 0.0 0.0 0.0 0.0 0.0 0.0 0.0 0.0 0.0 0.0 0.0 0.0 0.0 0.0 0.0 0.0 1.0 0.0 0.0 0.0 0.0 0.0 0.0 0.0 0.0 0.0 0.0 0.0 0.0 0.0 0.0 0.0 0.0 0.0 0.0 0.0 0.0 0.0 0.0 0.0 0.0 0.0 0.0 0.0 0.0 0.0 0.0 0.0 0.0 1.0 0.0 0.0 0.0 0.0 0.0 0.0 0.0 0.0 0.0 0.0 0.0 0.0 0.0 0.0 0.0 0.0 0.0 0.0 0.0 0.0 0.0 0.0 0.0 0.0 0.0 0.0 0.0 0.0 0.20689655172413793 0.0 0.7931034482758621 0.0 0.0 0.0 0.0 0.0 0.0 0.0 0.0 0.0 0.0 0.0 0.0 0.0 0.0 0.0 0.0 0.0 0.0 0.0 0.0 0.0 0.0 0.0 0.0 0.0 0.0 0.0 0.0 0.0 0.0 0.5833333333333334 0.4166666666666667 0.0 0.0 0.0 0.0 0.0 0.0 0.0 0.0 0.0 0.0 0.0 0.0 0.0 0.0 0.0 0.0 0.0 0.0 0.0 0.0 0.0 0.0 0.0 0.0 0.0 0.0 0.0 0.0 0.0 1.0 0.0 0.0 0.0 0.0 0.0 0.0 0.0 0.0 0.0 0.0 0.0 0.0 0.0 0.0 0.0 0.0 0.0 0.0 0.0 0.0 0.0 0.0 0.0 0.0 0.0 0.0 0.0 0.0 0.0 0.0 0.0 1.0 0.0 0.0 0.0 0.0 0.0 0.0 0.0 0.0 0.0 0.0 0.0 0.0 0.0 0.0 0.0 0.0 0.0 0.0 0.0 0.0 0.0 0.0 0.0 0.0 0.0 0.0 0.0 0.0 0.0 0.0 1.0 0.0 0.0 1.0 0.0 0.0 0.0 0.0 0.0 0.0 0.0 0.0 0.0 0.0 0.0 0.0 0.0 0.0 0.0 0.0 0.0 0.0 0.0 0.0 0.0 0.0 0.0 0.0 0.0 0.0 0.0 0.0 0.0 0.0 0.7692307692307693 0.0 0.0 0.0 0.0 0.0 0.0 0.0 0.0 0.0 0.0 0.0 0.0 0.0 0.0 0.0 0.0 0.0 0.0 0.0 0.0 0.0 0.0 0.0 0.0 0.0 0.0 0.0 0.0 0.0 0.23076923076923078 0.0 0.72 0.28 0.0 0.0 0.0 0.0 0.0 0.0 0.0 0.0 0.0 0.0 0.0 0.0 0.0 0.0 0.0 0.0 0.0 0.0 0.0 0.0 0.0 0.0 0.0 0.0 0.0 0.0 0.0 0.0 0.21052631578947367 0.7894736842105263 0.0 0.0 0.0 0.0 0.0 0.0 0.0 0.0 0.0 0.0 0.0 0.0 0.0 0.0 0.0 0.0 0.0 0.0 0.0 0.0 0.0 0.0 0.0 0.0 0.0 0.0 0.0 0.0 0.0 0.0 0.0 0.0 0.2692307692307692 0.0 0.0 0.7307692307692307 0.0 0.0 0.0 0.0 0.0 0.0 0.0 0.0 0.0 0.0 0.0 0.0 0.0 0.0 0.0 0.0 0.0 0.0 0.0 0.0 0.0 0.0 0.0 0.0 0.0 0.0 0.6571428571428571 0.0 0.0 0.0 0.34285714285714286 0.0 0.0 0.0 0.0 0.0 0.0 0.0 0.0 0.0 0.0 0.0 0.0 0.0 0.0 0.0 0.0 0.0 0.0 0.0 0.0 0.0 0.0 0.0 0.0 0.0 0.0 0.0 0.0 0.45098039215686275 0.5490196078431373 0.0 0.0 0.0 0.0 0.0 0.0 0.0 0.0 0.0 0.0 0.0 0.0 0.0 0.0 0.0 0.0 0.0 0.0 0.0 0.0 0.0 0.0 0.0 0.0 0.0 0.0 0.0 0.0 0.8536585365853658 0.14634146341463414 0.0 0.0 0.0 0.0 0.0 0.0 0.0 0.0 0.0 0.0 0.0 0.0 0.0 0.0 0.0 0.0 0.0 0.0 0.0 0.0 0.0 0.0 0.0 0.0 0.0 0.0 0.0 0.0 0.0 0.0 0.0 0.0 0.0 0.8108108108108109 0.1891891891891892 0.0 0.0 0.0 0.0 0.0 0.0 0.0 0.0 0.0 0.0 0.0 0.0 0.0 0.0 0.0 0.0 0.0 0.0 0.0 0.0 0.0 0.0 0.0 0.0 0.0 0.0 0.0 0.2 0.0 0.0 0.0 0.0 0.8 0.0 0.0 0.0 0.0 0.0 0.0 0.0 0.0 0.0 0.0 0.0 0.0 0.0 0.0 0.0 0.0 0.0 0.0 0.0 0.0 0.0 0.0 0.0 0.0 0.0 0.0 0.0 0.0 0.0 0.0 0.0 0.0 0.0 0.0 0.0 0.0 0.0 0.0 0.0 0.0 0.0 0.0 0.0 0.0 0.0 0.0 0.0 0.0 0.0 0.0 1.0 0.0 0.0 0.0 0.0 0.0 0.0 0.0 0.0 0.0 0.0 0.0 0.7368421052631579 0.2631578947368421 0.0 0.0 0.0 0.0 0.0 0.0 0.0 0.0 0.0 0.0 0.0 0.0 0.0 0.0 0.0 0.0 0.0 0.0 0.0 0.0 0.0 0.0 0.0 0.0 0.0 0.0 0.0 0.24 0.0 0.17333333333333334 0.0 0.0 0.5866666666666667 0.0 0.0 0.0 0.0 0.0 0.0 0.0 0.0 0.0 0.0 0.0 0.0 0.0 0.0 0.0 0.0 0.0 0.0 0.0 0.0 0.0 0.0 0.0 0.0 0.0 0.0 0.0 0.0 0.0 0.0 0.0 0.2733333333333333 0.0 0.0 0.7266666666666667 0.0 0.0 0.0 0.0 0.0 0.0 0.0 0.0 0.0 0.0 0.0 0.0 0.0 0.0 0.0 0.0 0.0 0.0 0.0 0.0 0.0 0.0 0.0 0.0 0.22950819672131148 0.5163934426229508 0.0 0.0 0.0 0.0 0.2540983606557377 0.0 0.0 0.0 0.0 0.0 0.0 0.0 0.0 0.0 0.0 0.0 0.0 0.0 0.0 0.0 0.0 0.0 0.0 0.0 0.0 0.0 0.0 0.0 0.0 0.0 0.0 0.0 0.0 0.0 0.7421052631578947 0.0 0.0 0.0 0.0 0.2578947368421053 0.0 0.0 0.0 0.0 0.0 0.0 0.0 0.0 0.0 0.0 0.0 0.0 0.0 0.0 0.0 0.0 0.0 0.0 0.0 0.0 0.0 0.0 0.0 0.23780487804878048 0.5 0.2621951219512195 0.0 0.0 0.0 0.0 0.0 0.0 0.0 0.0 0.0 0.0 0.0 0.0 0.0 0.0 0.0 0.0 0.0 0.0 0.0 0.0 0.0 0.0 0.0 0.0 0.0 0.0 0.0 0.0 0.0 0.0 0.0 0.0 0.24873096446700507 0.751269035532995 0.0 0.0 0.0 0.0 0.0 0.0 0.0 0.0 0.0 0.0 0.0 0.0 0.0 0.0 0.0 0.0 0.0 0.0 0.0 0.0 0.0 0.0 0.0 0.0 0.0 0.0 0.0 0.0 0.0 0.7047619047619048 0.0 0.0 0.29523809523809524 0.0 0.0 0.0 0.0 0.0 0.0 0.0 0.0 0.0 0.0 0.0 0.0 0.0 0.0 0.0 0.0 0.0 0.0 0.0 0.0 0.0 0.0 0.0 0.0 0.0 0.0 0.0 0.0 0.0 0.22981366459627328 0.0 0.2919254658385093 0.0 0.0 0.4782608695652174 0.0 0.0 0.0 0.0 0.0 0.0 0.0 0.0 0.0 0.0 0.0 0.0 0.0 0.0 0.0 0.0 0.0 0.0 0.0 0.0 0.0 0.0 0.0 0.0 0.3054187192118227 0.5221674876847291 0.0 0.0 0.0 0.0 0.1724137931034483 0.0 0.0 0.0 0.0 0.0 0.0 0.0 0.0 0.0 0.0 0.0 0.0 0.0 0.0 0.0 0.0 0.0 0.0 0.0 0.0 0.0 0.0 0.0 0.0 0.0 0.0 0.0 0.2807017543859649 0.7192982456140351 0.0 0.0 0.0 0.0 0.0 0.0 0.0 0.0 0.0 0.0 0.0 0.0 0.0 0.0 0.0 0.0 0.0 0.0 0.0 0.0 0.0 0.0 0.0 0.0 0.0 0.0 0.0 0.0 0.0 0.5121951219512195 0.22764227642276422 0.0 0.2601626016260163 0.0 0.0 0.0 0.0 0.0 0.0 0.0 0.0 0.0 0.0 0.0 0.0 0.0 0.0 0.0 0.0 0.0 0.0 0.0 0.0 0.0 0.0 0.0 0.0 0.0 0.0 0.0 0.0 0.0 1.0 0.0 0.0 0.0 0.0 0.0 0.0 0.0 0.0 0.0 0.0 0.0 0.0 0.0 0.0 0.0 0.0 0.0 0.0 0.0 0.0 0.0 0.0 0.0 0.0 0.0 0.0 0.0 0.0 0.0 0.24489795918367346 0.7551020408163265 0.0 0.0 0.0 0.0 0.0 0.0 0.0 0.0 0.0 0.0 0.0 0.0 0.0 0.0 0.0 0.0 0.0 0.0 0.0 0.0 0.0 0.0 0.0 0.0 0.0 0.0 0.0 0.0 0.0 0.0 0.0 0.0 1.0 0.0 0.0 0.0 0.0 0.0 0.0 0.0 0.0 0.0 0.0 0.0 0.0 0.0 0.0 0.0 0.0 0.0 0.0 0.0 0.0 0.0 0.0 0.0 0.0 0.0 0.0 0.0 0.0 0.6842105263157895 0.0 0.3157894736842105 0.0 0.0 0.0 0.0 0.0 0.0 0.0 0.0 0.0 0.0 0.0 0.0 0.0 0.0 0.0 0.0 0.0 0.0 0.0 0.0 0.0 0.0 0.0 0.0 0.0 0.0 0.0 0.0 0.0 0.0 1.0 0.0 0.0 0.0 0.0 0.0 0.0 0.0 0.0 0.0 0.0 0.0 0.0 0.0 0.0 0.0 0.0 0.0 0.0 0.0 0.0 0.0 0.0 0.0 0.0 0.0 0.0 0.0 0.0 0.0 0.0 1.0 0.0 0.0 0.0 0.0 0.0 0.0 0.0 0.0 0.0 0.0 0.0 0.0 0.0 0.0 0.0 0.0 0.0 0.0 0.0 0.0 0.0 0.0 0.0 0.0 0.0 0.0 0.0 0.0 0.0 0.0 0.0 1.0 0.0 0.0 0.0 0.0 0.0 0.0 0.0 0.0 0.0 0.0 0.0 0.0 0.0 0.0 0.0 0.0 0.0 0.0 0.0 0.0 0.0 0.0 0.0 0.0 0.0 0.0 0.0 0.0 0.0 0.4444444444444444 0.5555555555555556 0.0 0.0 0.0 0.0 0.0 0.0 0.0 0.0 0.0 0.0 0.0 0.0 0.0 0.0 0.0 0.0 0.0 0.0 0.0 0.0 0.0 0.0 0.0 0.0 0.0 0.0 0.0 0.0 0.0 0.0 1.0 0.0 0.0 0.0 0.0 0.0 0.0 0.0 0.0 0.0 0.0 0.0 0.0 0.0 0.0 0.0 0.0 0.0 0.0 0.0 0.0 0.0 0.0 0.0 0.0 0.0 0.0 0.0 0.0 0.0 0.0 1.0 0.0 0.0 0.6190476190476191 0.38095238095238093 0.0 0.0 0.0 0.0 0.0 0.0 0.0 0.0 0.0 0.0 0.0 0.0 0.0 0.0 0.0 0.0 0.0 0.0 0.0 0.0 0.0 0.0 0.0 0.0 0.0 0.0 0.0 0.0 0.0 1.0 0.0 0.0 0.0 0.0 0.0 0.0 0.0 0.0 0.0 0.0 0.0 0.0 0.0 0.0 0.0 0.0 0.0 0.0 0.0 0.0 0.0 0.0 0.0 0.0 0.0 0.0 0.0 0.0 0.0 0.0 0.0 0.2857142857142857 0.7142857142857143 0.0 0.0 0.0 0.0 0.0 0.0 0.0 0.0 0.0 0.0 0.0 0.0 0.0 0.0 0.0 0.0 0.0 0.0 0.0 0.0 0.0 0.0 0.0 0.0 0.0 0.0 0.0 0.0 0.0 1.0 0.0 0.0 0.0 0.0 0.0 0.0 0.0 0.0 0.0 0.0 0.0 0.0 0.0 0.0 0.0 0.0 0.0 0.0 0.0 0.0 0.0 0.0 0.0 0.0 0.0 0.0 0.0 0.0 0.0 0.0 0.0 0.0 0.7441860465116279 0.0 0.0 0.2558139534883721 0.0 0.0 0.0 0.0 0.0 0.0 0.0 0.0 0.0 0.0 0.0 0.0 0.0 0.0 0.0 0.0 0.0 0.0 0.0 0.0 0.0 0.0 0.0 0.0 0.0 0.0 0.25 0.0 0.0 0.0 0.75 0.0 0.0 0.0 0.0 0.0 0.0 0.0 0.0 0.0 0.0 0.0 0.0 0.0 0.0 0.0 0.0 0.0 0.0 0.0 0.0 0.0 0.0 0.0 0.0 0.0 0.0 0.0 0.0 0.0 0.5813953488372093 0.0 0.0 0.0 0.0 0.4186046511627907 0.0 0.0 0.0 0.0 0.0 0.0 0.0 0.0 0.0 0.0 0.0 0.0 0.0 0.0 0.0 0.0 0.0 0.0 0.0 0.0 0.0 0.0 0.0 0.0 0.9117647058823529 0.08823529411764706 0.0 0.0 0.0 0.0 0.0 0.0 0.0 0.0 0.0 0.0 0.0 0.0 0.0 0.0 0.0 0.0 0.0 0.0 0.0 0.0 0.0 0.0 0.0 0.0 0.0 0.0 0.0 0.0 0.0 0.0 0.0 0.0 0.0 0.6818181818181818 0.3181818181818182 0.0 0.0 0.0 0.0 0.0 0.0 0.0 0.0 0.0 0.0 0.0 0.0 0.0 0.0 0.0 0.0 0.0 0.0 0.0 0.0 0.0 0.0 0.0 0.0 0.0 0.0 0.0 0.0 0.5853658536585366 0.1951219512195122 0.0 0.21951219512195122 0.0 0.0 0.0 0.0 0.0 0.0 0.0 0.0 0.0 0.0 0.0 0.0 0.0 0.0 0.0 0.0 0.0 0.0 0.0 0.0 0.0 0.0 0.0 0.0 0.0 0.0 0.0 0.0 0.0 0.0 0.0 0.0 0.0 0.0 0.0 0.0 0.0 0.0 0.0 0.0 0.0 0.0 0.0 0.0 0.0 0.0 0.0 0.0 0.0 0.0 1.0 0.0 0.0 0.0 0.0 0.0 0.0 0.0 0.23931623931623933 0.5085470085470085 0.25213675213675213 0.0 0.0 0.0 0.0 0.0 0.0 0.0 0.0 0.0 0.0 0.0 0.0 0.0 0.0 0.0 0.0 0.0 0.0 0.0 0.0 0.0 0.0 0.0 0.0 0.0 0.0 0.0 0.0 0.7251461988304093 0.0 0.0 0.27485380116959063 0.0 0.0 0.0 0.0 0.0 0.0 0.0 0.0 0.0 0.0 0.0 0.0 0.0 0.0 0.0 0.0 0.0 0.0 0.0 0.0 0.0 0.0 0.0 0.0 0.0 0.0 0.0 0.0 0.0 0.0 0.0 0.736986301369863 0.0 0.0 0.26301369863013696 0.0 0.0 0.0 0.0 0.0 0.0 0.0 0.0 0.0 0.0 0.0 0.0 0.0 0.0 0.0 0.0 0.0 0.0 0.0 0.0 0.0 0.0 0.0 0.0 0.0 0.7480916030534351 0.0 0.0 0.0 0.0 0.25190839694656486 0.0 0.0 0.0 0.0 0.0 0.0 0.0 0.0 0.0 0.0 0.0 0.0 0.0 0.0 0.0 0.0 0.0 0.0 0.0 0.0 0.0 0.0 0.0 0.0 0.0 0.0 0.0 0.0 0.0 0.7623529411764706 0.0 0.0 0.0 0.0 0.2376470588235294 0.0 0.0 0.0 0.0 0.0 0.0 0.0 0.0 0.0 0.0 0.0 0.0 0.0 0.0 0.0 0.0 0.0 0.0 0.0 0.0 0.0 0.0 0.0 0.22714681440443213 0.481994459833795 0.29085872576177285 0.0 0.0 0.0 0.0 0.0 0.0 0.0 0.0 0.0 0.0 0.0 0.0 0.0 0.0 0.0 0.0 0.0 0.0 0.0 0.0 0.0 0.0 0.0 0.0 0.0 0.0 0.0 0.0 0.0 0.0 0.0 0.0 0.29398663697104677 0.4766146993318486 0.22939866369710468 0.0 0.0 0.0 0.0 0.0 0.0 0.0 0.0 0.0 0.0 0.0 0.0 0.0 0.0 0.0 0.0 0.0 0.0 0.0 0.0 0.0 0.0 0.0 0.0 0.0 0.0 0.0 0.0 0.7494456762749445 0.0 0.0 0.25055432372505543 0.0 0.0 0.0 0.0 0.0 0.0 0.0 0.0 0.0 0.0 0.0 0.0 0.0 0.0 0.0 0.0 0.0 0.0 0.0 0.0 0.0 0.0 0.0 0.0 0.0 0.0 0.0 0.0 0.0 0.0 0.0 0.2569060773480663 0.0 0.0 0.7430939226519337 0.0 0.0 0.0 0.0 0.0 0.0 0.0 0.0 0.0 0.0 0.0 0.0 0.0 0.0 0.0 0.0 0.0 0.0 0.0 0.0 0.0 0.0 0.0 0.0 0.0 0.7911832946635731 0.0 0.0 0.0 0.0 0.2088167053364269 0.0 0.0 0.0 0.0 0.0 0.0 0.0 0.0 0.0 0.0 0.0 0.0 0.0 0.0 0.0 0.0 0.0 0.0 0.0 0.0 0.0 0.0 0.0 0.0 0.0 0.0 0.0 0.0 0.7580645161290323 0.24193548387096775 0.0 0.0 0.0 0.0 0.0 0.0 0.0 0.0 0.0 0.0 0.0 0.0 0.0 0.0 0.0 0.0 0.0 0.0 0.0 0.0 0.0 0.0 0.0 0.0 0.0 0.0 0.0 0.0 0.7808641975308642 0.2191358024691358 0.0 0.0 0.0 0.0 0.0 0.0 0.0 0.0 0.0 0.0 0.0 0.0 0.0 0.0 0.0 0.0 0.0 0.0 0.0 0.0 0.0 0.0 0.0 0.0 0.0 0.0 0.0 0.0 0.0 0.0 0.0 0.0 0.0 0.28313253012048195 0.0 0.0 0.7168674698795181 0.0 0.0 0.0 0.0 0.0 0.0 0.0 0.0 0.0 0.0 0.0 0.0 0.0 0.0 0.0 0.0 0.0 0.0 0.0 0.0 0.0 0.0 0.0 0.0 0.0 0.8623853211009175 0.0 0.0 0.0 0.0 0.13761467889908258 0.0 0.0 0.0 0.0 0.0 0.0 0.0 0.0 0.0 0.0 0.0 0.0 0.0 0.0 0.0 0.0 0.0 0.0 0.0 0.0 0.0 0.0 0.0 0.0 0.0 0.0 0.0 0.0 1.0 0.0 0.0 0.0 0.0 0.0 0.0 0.0 0.0 0.0 0.0 0.0 0.0 0.0 0.0 0.0 0.0 0.0 0.0 0.0 0.0 0.0 0.0 0.0 0.0 0.0 0.0 0.0 0.0 0.0 0.8118811881188119 0.18811881188118812 0.0 0.0 0.0 0.0 0.0 0.0 0.0 0.0 0.0 0.0 0.0 0.0 0.0 0.0 0.0 0.0 0.0 0.0 0.0 0.0 0.0 0.0 0.0 0.0 0.0 0.0 0.0 0.0 0.0 0.0 0.0 1.0 0.0 0.0 0.0 0.0 0.0 0.0 0.0 0.0 0.0 0.0 0.0 0.0 0.0 0.0 0.0 0.0 0.0 0.0 0.0 0.0 0.0 0.0 0.0 0.0 0.0 0.0 0.0 0.0 0.0 0.29850746268656714 0.7014925373134329 0.0 0.0 0.0 0.0 0.0 0.0 0.0 0.0 0.0 0.0 0.0 0.0 0.0 0.0 0.0 0.0 0.0 0.0 0.0 0.0 0.0 0.0 0.0 0.0 0.0 0.0 0.0 0.0 0.0 0.0 0.0 0.0 1.0 0.0 0.0 0.0 0.0 0.0 0.0 0.0 0.0 0.0 0.0 0.0 0.0 0.0 0.0 0.0 0.0 0.0 0.0 0.0 0.0 0.0 0.0 0.0 0.0 0.0 0.0 0.0 0.0 0.8181818181818182 0.0 0.18181818181818182 0.0 0.0 0.0 0.0 0.0 0.0 0.0 0.0 0.0 0.0 0.0 0.0 0.0 0.0 0.0 0.0 0.0 0.0 0.0 0.0 0.0 0.0 0.0 0.0 0.0 0.0 0.0 0.0 0.0 0.0 1.0 0.0 0.0 0.0 0.0 0.0 0.0 0.0 0.0 0.0 0.0 0.0 0.0 0.0 0.0 0.0 0.0 0.0 0.0 0.0 0.0 0.0 0.0 0.0 0.0 0.0 0.0 0.0 0.0 0.0 0.0 0.25 0.75 0.0 0.0 1.0 0.0 0.0 0.0 0.0 0.0 0.0 0.0 0.0 0.0 0.0 0.0 0.0 0.0 0.0 0.0 0.0 0.0 0.0 0.0 0.0 0.0 0.0 0.0 0.0 0.0 0.0 0.0 0.0 0.0 0.0 0.0 0.0 0.0 0.0 0.0 0.0 0.0 0.0 0.0 0.0 0.0 0.0 0.0 0.0 0.0 0.0 0.0 0.0 0.0 0.0 0.0 0.0 0.0 0.0 0.0 0.0 0.0 0.0 0.0 0.0 1.0 0.0 1.0 0.0 0.0 0.0 0.0 0.0 0.0 0.0 0.0 0.0 0.0 0.0 0.0 0.0 0.0 0.0 0.0 0.0 0.0 0.0 0.0 0.0 0.0 0.0 0.0 0.0 0.0 0.0 0.0 0.0 1.0 0.0 0.0 0.0 0.0 0.0 0.0 0.0 0.0 0.0 0.0 0.0 0.0 0.0 0.0 0.0 0.0 0.0 0.0 0.0 0.0 0.0 0.0 0.0 0.0 0.0 0.0 0.0 0.0 0.0 0.0 0.0 0.0 0.6428571428571429 0.0 0.0 0.0 0.35714285714285715 0.0 0.0 0.0 0.0 0.0 0.0 0.0 0.0 0.0 0.0 0.0 0.0 0.0 0.0 0.0 0.0 0.0 0.0 0.0 0.0 0.0 0.0 0.0 0.0 0.0 0.7115384615384616 0.28846153846153844 0.0 0.0 0.0 0.0 0.0 0.0 0.0 0.0 0.0 0.0 0.0 0.0 0.0 0.0 0.0 0.0 0.0 0.0 0.0 0.0 0.0 0.0 0.0 0.0 0.0 0.0 0.0 0.0 0.0 0.0 0.0 0.7391304347826086 0.2608695652173913 0.0 0.0 0.0 0.0 0.0 0.0 0.0 0.0 0.0 0.0 0.0 0.0 0.0 0.0 0.0 0.0 0.0 0.0 0.0 0.0 0.0 0.0 0.0 0.0 0.0 0.0 0.0 0.0 0.0 0.0 0.0 0.0 1.0 0.0 0.0 0.0 0.0 0.0 0.0 0.0 0.0 0.0 0.0 0.0 0.0 0.0 0.0 0.0 0.0 0.0 0.0 0.0 0.0 0.0 0.0 0.0 0.0 0.0 0.0 0.0 0.0 0.0 0.7398373983739838 0.0 0.0 0.0 0.0 0.2601626016260163 0.0 0.0 0.0 0.0 0.0 0.0 0.0 0.0 0.0 0.0 0.0 0.0 0.0 0.0 0.0 0.0 0.0 0.0 0.0 0.0 0.0 0.0 0.0 0.0 0.7407407407407407 0.25925925925925924 0.0 0.0 0.0 0.0 0.0 0.0 0.0 0.0 0.0 0.0 0.0 0.0 0.0 0.0 0.0 0.0 0.0 0.0 0.0 0.0 0.0 0.0 0.0 0.0 0.0 0.0 0.0 0.0 0.0 0.0 0.0 0.0 0.0 0.0 0.0 0.0 0.0 0.0 0.0 0.0 0.0 0.0 0.0 0.0 0.0 0.0 0.0 0.0 0.0 0.0 0.0 0.0 0.0 0.0 0.0 1.0 0.0 0.0 0.0 0.0 0.0 0.0 0.0 0.0 0.2754491017964072 0.47305389221556887 0.0 0.0 0.0 0.0 0.25149700598802394 0.0 0.0 0.0 0.0 0.0 0.0 0.0 0.0 0.0 0.0 0.0 0.0 0.0 0.0 0.0 0.0 0.0 0.0 0.0 0.0 0.0 0.0 0.0 0.19285714285714287 0.8071428571428572 0.0 0.0 0.0 0.0 0.0 0.0 0.0 0.0 0.0 0.0 0.0 0.0 0.0 0.0 0.0 0.0 0.0 0.0 0.0 0.0 0.0 0.0 0.0 0.0 0.0 0.0 0.0 0.0 0.0 0.0 0.0 0.0 0.0 0.2664233576642336 0.7335766423357665 0.0 0.0 0.0 0.0 0.0 0.0 0.0 0.0 0.0 0.0 0.0 0.0 0.0 0.0 0.0 0.0 0.0 0.0 0.0 0.0 0.0 0.0 0.0 0.0 0.0 0.0 0.0 0.0 0.0 0.22077922077922077 0.0 0.0 0.7792207792207793 0.0 0.0 0.0 0.0 0.0 0.0 0.0 0.0 0.0 0.0 0.0 0.0 0.0 0.0 0.0 0.0 0.0 0.0 0.0 0.0 0.0 0.0 0.0 0.0 0.0 0.0 0.0 0.0 0.0 0.0 0.0 0.7208672086720868 0.0 0.0 0.2791327913279133 0.0 0.0 0.0 0.0 0.0 0.0 0.0 0.0 0.0 0.0 0.0 0.0 0.0 0.0 0.0 0.0 0.0 0.0 0.0 0.0 0.0 0.0 0.0 0.0 0.0 0.7372013651877133 0.0 0.0 0.0 0.0 0.2627986348122867 0.0 0.0 0.0 0.0 0.0 0.0 0.0 0.0 0.0 0.0 0.0 0.0 0.0 0.0 0.0 0.0 0.0 0.0 0.0 0.0 0.0 0.0 0.0 0.0 0.0 0.0 0.0 0.0 0.0 0.7947976878612717 0.0 0.0 0.0 0.0 0.20520231213872833 0.0 0.0 0.0 0.0 0.0 0.0 0.0 0.0 0.0 0.0 0.0 0.0 0.0 0.0 0.0 0.0 0.0 0.0 0.0 0.0 0.0 0.0 0.0 0.26506024096385544 0.5210843373493976 0.21385542168674698 0.0 0.0 0.0 0.0 0.0 0.0 0.0 0.0 0.0 0.0 0.0 0.0 0.0 0.0 0.0 0.0 0.0 0.0 0.0 0.0 0.0 0.0 0.0 0.0 0.0 0.0 0.0 0.0 0.0 0.0 0.0 0.0 0.23741007194244604 0.762589928057554 0.0 0.0 0.0 0.0 0.0 0.0 0.0 0.0 0.0 0.0 0.0 0.0 0.0 0.0 0.0 0.0 0.0 0.0 0.0 0.0 0.0 0.0 0.0 0.0 0.0 0.0 0.0 0.0 0.0 0.24242424242424243 0.0 0.0 0.7575757575757576 0.0 0.0 0.0 0.0 0.0 0.0 0.0 0.0 0.0 0.0 0.0 0.0 0.0 0.0 0.0 0.0 0.0 0.0 0.0 0.0 0.0 0.0 0.0 0.0 0.0 0.0 0.0 0.0 0.0 0.2885572139303483 0.0 0.0 0.0 0.0 0.7114427860696517 0.0 0.0 0.0 0.0 0.0 0.0 0.0 0.0 0.0 0.0 0.0 0.0 0.0 0.0 0.0 0.0 0.0 0.0 0.0 0.0 0.0 0.0 0.0 0.0 0.270042194092827 0.729957805907173 0.0 0.0 0.0 0.0 0.0 0.0 0.0 0.0 0.0 0.0 0.0 0.0 0.0 0.0 0.0 0.0 0.0 0.0 0.0 0.0 0.0 0.0 0.0 0.0 0.0 0.0 0.0 0.0 0.0 0.0 0.0 0.0 0.5545454545454546 0.44545454545454544 0.0 0.0 0.0 0.0 0.0 0.0 0.0 0.0 0.0 0.0 0.0 0.0 0.0 0.0 0.0 0.0 0.0 0.0 0.0 0.0 0.0 0.0 0.0 0.0 0.0 0.0 0.0 0.0 0.0 0.6688741721854304 0.0 0.0 0.33112582781456956 0.0 0.0 0.0 0.0 0.0 0.0 0.0 0.0 0.0 0.0 0.0 0.0 0.0 0.0 0.0 0.0 0.0 0.0 0.0 0.0 0.0 0.0 0.0 0.0 0.0 0.0 0.0 0.0 0.0 1.0 0.0 0.0 0.0 0.0 0.0 0.0 0.0 0.0 0.0 0.0 0.0 0.0 0.0 0.0 0.0 0.0 0.0 0.0 0.0 0.0 0.0 0.0 0.0 0.0 0.0 0.0 0.0 0.0 0.0 0.7341772151898734 0.26582278481012656 0.0 0.0 0.0 0.0 0.0 0.0 0.0 0.0 0.0 0.0 0.0 0.0 0.0 0.0 0.0 0.0 0.0 0.0 0.0 0.0 0.0 0.0 0.0 0.0 0.0 0.0 0.0 0.0 0.0 0.0 0.7419354838709677 0.0 0.25806451612903225 0.0 0.0 0.0 0.0 0.0 0.0 0.0 0.0 0.0 0.0 0.0 0.0 0.0 0.0 0.0 0.0 0.0 0.0 0.0 0.0 0.0 0.0 0.0 0.0 0.0 0.0 0.0 0.0 1.0 0.0 0.0 0.0 0.0 0.0 0.0 0.0 0.0 0.0 0.0 0.0 0.0 0.0 0.0 0.0 0.0 0.0 0.0 0.0 0.0 0.0 0.0 0.0 0.0 0.0 0.0 0.0 0.0 0.0 0.0 0.0 0.0 1.0 0.0 0.0 0.0 0.0 0.0 0.0 0.0 0.0 0.0 0.0 0.0 0.0 0.0 0.0 0.0 0.0 0.0 0.0 0.0 0.0 0.0 0.0 0.0 0.0 0.0 0.0 0.0 0.0 0.0 0.0 1.0 0.0 0.0 0.0 0.0 0.0 0.0 0.0 0.0 0.0 0.0 0.0 0.0 0.0 0.0 0.0 0.0 0.0 0.0 0.0 0.0 0.0 0.0 0.0 0.0 0.0 0.0 0.0 0.0 0.0 0.0 0.625 0.375 0.0 0.0 0.0 0.0 0.0 0.0 0.0 0.0 0.0 0.0 0.0 0.0 0.0 0.0 0.0 0.0 0.0 0.0 0.0 0.0 0.0 0.0 0.0 0.0 0.0 0.0 0.0 0.0 0.0 0.0 1.0 0.0 0.0 1.0 0.0 0.0 0.0 0.0 0.0 0.0 0.0 0.0 0.0 0.0 0.0 0.0 0.0 0.0 0.0 0.0 0.0 0.0 0.0 0.0 0.0 0.0 0.0 0.0 0.0 0.0 0.0 0.0 0.0 0.0 0.3684210526315789 0.0 0.0 0.0 0.0 0.0 0.0 0.0 0.0 0.0 0.0 0.0 0.0 0.0 0.0 0.0 0.0 0.0 0.0 0.0 0.0 0.0 0.0 0.0 0.0 0.0 0.0 0.0 0.0 0.0 0.631578947368421 0.0 1.0 0.0 0.0 0.0 0.0 0.0 0.0 0.0 0.0 0.0 0.0 0.0 0.0 0.0 0.0 0.0 0.0 0.0 0.0 0.0 0.0 0.0 0.0 0.0 0.0 0.0 0.0 0.0 0.0 0.0 0.75 0.25 0.0 0.0 0.0 0.0 0.0 0.0 0.0 0.0 0.0 0.0 0.0 0.0 0.0 0.0 0.0 0.0 0.0 0.0 0.0 0.0 0.0 0.0 0.0 0.0 0.0 0.0 0.0 0.0 0.0 0.0 0.0 0.19230769230769232 0.0 0.0 0.0 0.8076923076923077 0.0 0.0 0.0 0.0 0.0 0.0 0.0 0.0 0.0 0.0 0.0 0.0 0.0 0.0 0.0 0.0 0.0 0.0 0.0 0.0 0.0 0.0 0.0 0.0 0.0 0.22448979591836735 0.7755102040816326 0.0 0.0 0.0 0.0 0.0 0.0 0.0 0.0 0.0 0.0 0.0 0.0 0.0 0.0 0.0 0.0 0.0 0.0 0.0 0.0 0.0 0.0 0.0 0.0 0.0 0.0 0.0 0.0 0.0 0.0 0.0 0.22077922077922077 0.7792207792207793 0.0 0.0 0.0 0.0 0.0 0.0 0.0 0.0 0.0 0.0 0.0 0.0 0.0 0.0 0.0 0.0 0.0 0.0 0.0 0.0 0.0 0.0 0.0 0.0 0.0 0.0 0.0 0.0 0.0 0.7321428571428571 0.0 0.0 0.26785714285714285 0.0 0.0 0.0 0.0 0.0 0.0 0.0 0.0 0.0 0.0 0.0 0.0 0.0 0.0 0.0 0.0 0.0 0.0 0.0 0.0 0.0 0.0 0.0 0.0 0.0 0.0 0.0 0.0 0.0 0.0 0.0 0.25806451612903225 0.0 0.0 0.7419354838709677 0.0 0.0 0.0 0.0 0.0 0.0 0.0 0.0 0.0 0.0 0.0 0.0 0.0 0.0 0.0 0.0 0.0 0.0 0.0 0.0 0.0 0.0 0.0 0.0 0.24175824175824176 0.5054945054945055 0.0 0.0 0.0 0.0 0.25274725274725274 0.0 0.0 0.0 0.0 0.0 0.0 0.0 0.0 0.0 0.0 0.0 0.0 0.0 0.0 0.0 0.0 0.0 0.0 0.0 0.0 0.0 0.0 0.0 0.0 0.0 0.0 0.0 0.0 0.0 0.0 0.0 0.0 0.0 0.0 0.0 0.0 0.0 0.0 0.0 0.0 0.0 0.0 0.0 0.0 0.0 0.0 0.0 0.0 0.0 0.0 1.0 0.0 0.0 0.0 0.0 0.0 0.0 0.0 0.2644927536231884 0.0 0.0 0.7355072463768116 0.0 0.0 0.0 0.0 0.0 0.0 0.0 0.0 0.0 0.0 0.0 0.0 0.0 0.0 0.0 0.0 0.0 0.0 0.0 0.0 0.0 0.0 0.0 0.0 0.22596153846153846 0.7740384615384616 0.0 0.0 0.0 0.0 0.0 0.0 0.0 0.0 0.0 0.0 0.0 0.0 0.0 0.0 0.0 0.0 0.0 0.0 0.0 0.0 0.0 0.0 0.0 0.0 0.0 0.0 0.0 0.0 0.0 0.0 0.0 0.0 0.0 0.46973365617433416 0.5302663438256658 0.0 0.0 0.0 0.0 0.0 0.0 0.0 0.0 0.0 0.0 0.0 0.0 0.0 0.0 0.0 0.0 0.0 0.0 0.0 0.0 0.0 0.0 0.0 0.0 0.0 0.0 0.0 0.0 0.75 0.25 0.0 0.0 0.0 0.0 0.0 0.0 0.0 0.0 0.0 0.0 0.0 0.0 0.0 0.0 0.0 0.0 0.0 0.0 0.0 0.0 0.0 0.0 0.0 0.0 0.0 0.0 0.0 0.0 0.0 0.0 0.0 0.0 0.0 0.4738675958188153 0.25609756097560976 0.0 0.2700348432055749 0.0 0.0 0.0 0.0 0.0 0.0 0.0 0.0 0.0 0.0 0.0 0.0 0.0 0.0 0.0 0.0 0.0 0.0 0.0 0.0 0.0 0.0 0.0 0.0 0.0 0.2231578947368421 0.0 0.0 0.0 0.0 0.7768421052631579 0.0 0.0 0.0 0.0 0.0 0.0 0.0 0.0 0.0 0.0 0.0 0.0 0.0 0.0 0.0 0.0 0.0 0.0 0.0 0.0 0.0 0.0 0.0 0.0 0.0 0.0 0.0 0.0 0.0 0.518348623853211 0.0 0.0 0.0 0.0 0.481651376146789 0.0 0.0 0.0 0.0 0.0 0.0 0.0 0.0 0.0 0.0 0.0 0.0 0.0 0.0 0.0 0.0 0.0 0.0 0.0 0.0 0.0 0.0 0.0 0.0 0.7727272727272727 0.22727272727272727 0.0 0.0 0.0 0.0 0.0 0.0 0.0 0.0 0.0 0.0 0.0 0.0 0.0 0.0 0.0 0.0 0.0 0.0 0.0 0.0 0.0 0.0 0.0 0.0 0.0 0.0 0.0 0.0 0.0 0.0 0.0 0.0 0.28695652173913044 0.7130434782608696 0.0 0.0 0.0 0.0 0.0 0.0 0.0 0.0 0.0 0.0 0.0 0.0 0.0 0.0 0.0 0.0 0.0 0.0 0.0 0.0 0.0 0.0 0.0 0.0 0.0 0.0 0.0 0.0 0.0 0.7321739130434782 0.0 0.0 0.2678260869565217 0.0 0.0 0.0 0.0 0.0 0.0 0.0 0.0 0.0 0.0 0.0 0.0 0.0 0.0 0.0 0.0 0.0 0.0 0.0 0.0 0.0 0.0 0.0 0.0 0.0 0.0 0.0 0.0 0.0 0.0 0.0 0.20812182741116753 0.0 0.0 0.7918781725888325 0.0 0.0 0.0 0.0 0.0 0.0 0.0 0.0 0.0 0.0 0.0 0.0 0.0 0.0 0.0 0.0 0.0 0.0 0.0 0.0 0.0 0.0 0.0 0.0 0.2536997885835095 0.47568710359408034 0.0 0.0 0.0 0.0 0.27061310782241016 0.0 0.0 0.0 0.0 0.0 0.0 0.0 0.0 0.0 0.0 0.0 0.0 0.0 0.0 0.0 0.0 0.0 0.0 0.0 0.0 0.0 0.0 0.0 0.0 0.0 0.0 0.0 0.0 0.766798418972332 0.233201581027668 0.0 0.0 0.0 0.0 0.0 0.0 0.0 0.0 0.0 0.0 0.0 0.0 0.0 0.0 0.0 0.0 0.0 0.0 0.0 0.0 0.0 0.0 0.0 0.0 0.0 0.0 0.0 0.0 0.7942122186495176 0.2057877813504823 0.0 0.0 0.0 0.0 0.0 0.0 0.0 0.0 0.0 0.0 0.0 0.0 0.0 0.0 0.0 0.0 0.0 0.0 0.0 0.0 0.0 0.0 0.0 0.0 0.0 0.0 0.0 0.0 0.0 0.0 0.0 0.27586206896551724 0.0 0.0 0.0 0.0 0.7241379310344828 0.0 0.0 0.0 0.0 0.0 0.0 0.0 0.0 0.0 0.0 0.0 0.0 0.0 0.0 0.0 0.0 0.0 0.0 0.0 0.0 0.0 0.0 0.0 0.0 0.0 0.8351648351648352 0.0 0.0 0.0 0.0 0.16483516483516483 0.0 0.0 0.0 0.0 0.0 0.0 0.0 0.0 0.0 0.0 0.0 0.0 0.0 0.0 0.0 0.0 0.0 0.0 0.0 0.0 0.0 0.0 0.0 0.0 0.0 0.0 0.0 0.27631578947368424 0.7236842105263158 0.0 0.0 0.0 0.0 0.0 0.0 0.0 0.0 0.0 0.0 0.0 0.0 0.0 0.0 0.0 0.0 0.0 0.0 0.0 0.0 0.0 0.0 0.0 0.0 0.0 0.0 0.0 0.0 0.0 0.7010309278350515 0.0 0.0 0.29896907216494845 0.0 0.0 0.0 0.0 0.0 0.0 0.0 0.0 0.0 0.0 0.0 0.0 0.0 0.0 0.0 0.0 0.0 0.0 0.0 0.0 0.0 0.0 0.0 0.0 0.0 0.0 0.0 0.0 0.0 1.0 0.0 0.0 0.0 0.0 0.0 0.0 0.0 0.0 0.0 0.0 0.0 0.0 0.0 0.0 0.0 0.0 0.0 0.0 0.0 0.0 0.0 0.0 0.0 0.0 0.0 0.0 0.0 0.0 0.0 0.6415094339622641 0.3584905660377358 0.0 0.0 0.0 0.0 0.0 0.0 0.0 0.0 0.0 0.0 0.0 0.0 0.0 0.0 0.0 0.0 0.0 0.0 0.0 0.0 0.0 0.0 0.0 0.0 0.0 0.0 0.0 0.0 0.0 0.0 0.9333333333333333 0.0 0.06666666666666667 0.0 0.0 0.0 0.0 0.0 0.0 0.0 0.0 0.0 0.0 0.0 0.0 0.0 0.0 0.0 0.0 0.0 0.0 0.0 0.0 0.0 0.0 0.0 0.0 0.0 0.0 0.0 0.0 0.0 0.0 0.9 0.1 0.0 0.0 0.2857142857142857 0.0 0.0 0.0 0.0 0.0 0.0 0.0 0.0 0.0 0.0 0.0 0.0 0.0 0.0 0.0 0.0 0.0 0.0 0.0 0.0 0.0 0.0 0.0 0.0 0.0 0.0 0.0 0.0 0.0 0.7142857142857143 0.0 0.0 0.0 0.0 0.0 0.0 0.0 0.0 0.0 0.0 0.0 0.0 0.0 0.0 0.0 0.0 0.0 0.0 0.0 0.0 0.0 0.0 0.0 0.0 0.0 0.0 0.0 0.0 0.0 0.0 1.0 1.0 0.0 0.0 0.0 0.0 0.0 0.0 0.0 0.0 0.0 0.0 0.0 0.0 0.0 0.0 0.0 0.0 0.0 0.0 0.0 0.0 0.0 0.0 0.0 0.0 0.0 0.0 0.0 0.0 0.0 0.0 1.0 0.0 0.0 0.0 0.0 0.0 0.0 0.0 0.0 0.0 0.0 0.0 0.0 0.0 0.0 0.0 0.0 0.0 0.0 0.0 0.0 0.0 0.0 0.0 0.0 0.0 0.0 0.0 0.0 0.0 0.0 0.0 0.8648648648648649 0.13513513513513514 0.0 0.0 0.0 0.0 0.0 0.0 0.0 0.0 0.0 0.0 0.0 0.0 0.0 0.0 0.0 0.0 0.0 0.0 0.0 0.0 0.0 0.0 0.0 0.0 0.0 0.0 0.0 0.0 0.0 1.0 0.0 0.0 0.0 0.0 0.0 0.0 0.0 0.0 0.0 0.0 0.0 0.0 0.0 0.0 0.0 0.0 0.0 0.0 0.0 0.0 0.0 0.0 0.0 0.0 0.0 0.0 0.0 0.0 0.0 0.0 0.0 0.0 0.0 0.0 0.0 1.0 0.0 0.0 0.0 0.0 0.0 0.0 0.0 0.0 0.0 0.0 0.0 0.0 0.0 0.0 0.0 0.0 0.0 0.0 0.0 0.0 0.0 0.0 0.0 0.0 0.0 0.0 1.0 0.0 0.0 0.0 0.0 0.0 0.0 0.0 0.0 0.0 0.0 0.0 0.0 0.0 0.0 0.0 0.0 0.0 0.0 0.0 0.0 0.0 0.0 0.0 0.0 0.0 0.0 0.0 0.0 0.0 0.0 0.0 0.23369565217391305 0.7663043478260869 0.0 0.0 0.0 0.0 0.0 0.0 0.0 0.0 0.0 0.0 0.0 0.0 0.0 0.0 0.0 0.0 0.0 0.0 0.0 0.0 0.0 0.0 0.0 0.0 0.0 0.0 0.0 0.0 0.0 0.7226277372262774 0.0 0.0 0.2773722627737226 0.0 0.0 0.0 0.0 0.0 0.0 0.0 0.0 0.0 0.0 0.0 0.0 0.0 0.0 0.0 0.0 0.0 0.0 0.0 0.0 0.0 0.0 0.0 0.0 0.0 0.0 0.0 0.0 0.0 0.0 0.0 0.0 0.0 0.0 0.0 0.0 0.0 0.0 0.0 0.0 0.0 0.0 0.0 0.0 0.0 0.0 0.0 0.0 0.0 0.0 0.0 0.0 0.0 0.0 1.0 0.0 0.0 0.0 0.0 0.0 0.0 0.0 0.5042016806722689 0.2647058823529412 0.0 0.23109243697478993 0.0 0.0 0.0 0.0 0.0 0.0 0.0 0.0 0.0 0.0 0.0 0.0 0.0 0.0 0.0 0.0 0.0 0.0 0.0 0.0 0.0 0.0 0.0 0.0 0.0 0.27014218009478674 0.0 0.0 0.0 0.0 0.7298578199052133 0.0 0.0 0.0 0.0 0.0 0.0 0.0 0.0 0.0 0.0 0.0 0.0 0.0 0.0 0.0 0.0 0.0 0.0 0.0 0.0 0.0 0.0 0.0 0.0 0.0 0.0 0.0 0.0 0.0 0.5064599483204134 0.0 0.0 0.0 0.0 0.4935400516795866 0.0 0.0 0.0 0.0 0.0 0.0 0.0 0.0 0.0 0.0 0.0 0.0 0.0 0.0 0.0 0.0 0.0 0.0 0.0 0.0 0.0 0.0 0.0 0.0 0.7376543209876543 0.2623456790123457 0.0 0.0 0.0 0.0 0.0 0.0 0.0 0.0 0.0 0.0 0.0 0.0 0.0 0.0 0.0 0.0 0.0 0.0 0.0 0.0 0.0 0.0 0.0 0.0 0.0 0.0 0.0 0.0 0.0 0.0 0.0 0.0 0.0 0.7569169960474308 0.24308300395256918 0.0 0.0 0.0 0.0 0.0 0.0 0.0 0.0 0.0 0.0 0.0 0.0 0.0 0.0 0.0 0.0 0.0 0.0 0.0 0.0 0.0 0.0 0.0 0.0 0.0 0.0 0.0 0.0 0.7631578947368421 0.0 0.0 0.23684210526315788 0.0 0.0 0.0 0.0 0.0 0.0 0.0 0.0 0.0 0.0 0.0 0.0 0.0 0.0 0.0 0.0 0.0 0.0 0.0 0.0 0.0 0.0 0.0 0.0 0.0 0.0 0.0 0.0 0.0 0.0 0.0 0.7653429602888087 0.0 0.0 0.23465703971119134 0.0 0.0 0.0 0.0 0.0 0.0 0.0 0.0 0.0 0.0 0.0 0.0 0.0 0.0 0.0 0.0 0.0 0.0 0.0 0.0 0.0 0.0 0.0 0.0 0.0 0.7534246575342466 0.0 0.0 0.0 0.0 0.2465753424657534 0.0 0.0 0.0 0.0 0.0 0.0 0.0 0.0 0.0 0.0 0.0 0.0 0.0 0.0 0.0 0.0 0.0 0.0 0.0 0.0 0.0 0.0 0.0 0.0 0.0 0.0 0.0 0.0 0.26865671641791045 0.5074626865671642 0.0 0.0 0.0 0.0 0.22388059701492538 0.0 0.0 0.0 0.0 0.0 0.0 0.0 0.0 0.0 0.0 0.0 0.0 0.0 0.0 0.0 0.0 0.0 0.0 0.0 0.0 0.0 0.0 0.0 0.25096525096525096 0.5135135135135135 0.23552123552123552 0.0 0.0 0.0 0.0 0.0 0.0 0.0 0.0 0.0 0.0 0.0 0.0 0.0 0.0 0.0 0.0 0.0 0.0 0.0 0.0 0.0 0.0 0.0 0.0 0.0 0.0 0.0 0.0 0.0 0.0 0.0 0.0 0.7560240963855421 0.24397590361445784 0.0 0.0 0.0 0.0 0.0 0.0 0.0 0.0 0.0 0.0 0.0 0.0 0.0 0.0 0.0 0.0 0.0 0.0 0.0 0.0 0.0 0.0 0.0 0.0 0.0 0.0 0.0 0.0 0.0 0.2302158273381295 0.0 0.0 0.7697841726618705 0.0 0.0 0.0 0.0 0.0 0.0 0.0 0.0 0.0 0.0 0.0 0.0 0.0 0.0 0.0 0.0 0.0 0.0 0.0 0.0 0.0 0.0 0.0 0.0 0.0 0.0 0.0 0.0 0.0 0.7875647668393783 0.0 0.0 0.0 0.0 0.21243523316062177 0.0 0.0 0.0 0.0 0.0 0.0 0.0 0.0 0.0 0.0 0.0 0.0 0.0 0.0 0.0 0.0 0.0 0.0 0.0 0.0 0.0 0.0 0.0 0.0 0.7674418604651163 0.23255813953488372 0.0 0.0 0.0 0.0 0.0 0.0 0.0 0.0 0.0 0.0 0.0 0.0 0.0 0.0 0.0 0.0 0.0 0.0 0.0 0.0 0.0 0.0 0.0 0.0 0.0 0.0 0.0 0.0 0.0 0.0 0.0 0.0 1.0 0.0 0.0 0.0 0.0 0.0 0.0 0.0 0.0 0.0 0.0 0.0 0.0 0.0 0.0 0.0 0.0 0.0 0.0 0.0 0.0 0.0 0.0 0.0 0.0 0.0 0.0 0.0 0.0 0.0 0.0 0.19736842105263158 0.0 0.0 0.8026315789473685 0.0 0.0 0.0 0.0 0.0 0.0 0.0 0.0 0.0 0.0 0.0 0.0 0.0 0.0 0.0 0.0 0.0 0.0 0.0 0.0 0.0 0.0 0.0 0.0 0.0 0.0 0.0 0.0 0.5 0.5 0.0 0.0 0.0 0.0 0.0 0.0 0.0 0.0 0.0 0.0 0.0 0.0 0.0 0.0 0.0 0.0 0.0 0.0 0.0 0.0 0.0 0.0 0.0 0.0 0.0 0.0 0.0 0.0 0.2682926829268293 0.7317073170731707 0.0 0.0 0.0 0.0 0.0 0.0 0.0 0.0 0.0 0.0 0.0 0.0 0.0 0.0 0.0 0.0 0.0 0.0 0.0 0.0 0.0 0.0 0.0 0.0 0.0 0.0 0.0 0.0 0.0 0.0 0.0 0.9285714285714286 0.0 0.07142857142857142 0.0 0.0 0.0 0.0 0.0 0.0 0.0 0.0 0.0 0.0 0.0 0.0 0.0 0.0 0.0 0.0 0.0 0.0 0.0 0.0 0.0 0.0 0.0 0.0 0.0 0.0 0.0 0.0 1.0 0.0 0.0 0.0 0.0 0.0 0.0 0.0 0.0 0.0 0.0 0.0 0.0 0.0 0.0 0.0 0.0 0.0 0.0 0.0 0.0 0.0 0.0 0.0 0.0 0.0 0.0 0.0 0.0 0.0 0.0 0.0 0.0 1.0 0.0 0.0 0.0 0.0 0.0 0.0 0.0 0.0 0.0 0.0 0.0 0.0 0.0 0.0 0.0 0.0 0.0 0.0 0.0 0.0 0.0 0.0 0.0 0.0 0.0 0.0 0.0 0.0 0.0 0.0 0.6666666666666666 0.3333333333333333 0.0 0.0 0.5625 0.0 0.0 0.0 0.0 0.0 0.0 0.0 0.0 0.0 0.0 0.0 0.0 0.0 0.0 0.0 0.0 0.0 0.0 0.0 0.0 0.0 0.0 0.0 0.0 0.0 0.0 0.0 0.0 0.0 0.4375 0.0 0.0 0.0 0.0 0.0 0.0 0.0 0.0 0.0 0.0 0.0 0.0 0.0 0.0 0.0 0.0 0.0 0.0 0.0 0.0 0.0 0.0 0.0 0.0 0.0 0.0 0.0 0.0 0.0 0.0 1.0 0.5 0.5 0.0 0.0 0.0 0.0 0.0 0.0 0.0 0.0 0.0 0.0 0.0 0.0 0.0 0.0 0.0 0.0 0.0 0.0 0.0 0.0 0.0 0.0 0.0 0.0 0.0 0.0 0.0 0.0 0.0 1.0 0.0 0.0 0.0 0.0 0.0 0.0 0.0 0.0 0.0 0.0 0.0 0.0 0.0 0.0 0.0 0.0 0.0 0.0 0.0 0.0 0.0 0.0 0.0 0.0 0.0 0.0 0.0 0.0 0.0 0.0 0.0 0.24675324675324675 0.7532467532467533 0.0 0.0 0.0 0.0 0.0 0.0 0.0 0.0 0.0 0.0 0.0 0.0 0.0 0.0 0.0 0.0 0.0 0.0 0.0 0.0 0.0 0.0 0.0 0.0 0.0 0.0 0.0 0.0 0.0 1.0 0.0 0.0 0.0 0.0 0.0 0.0 0.0 0.0 0.0 0.0 0.0 0.0 0.0 0.0 0.0 0.0 0.0 0.0 0.0 0.0 0.0 0.0 0.0 0.0 0.0 0.0 0.0 0.0 0.0 0.0 0.0 0.0 0.5393258426966292 0.0 0.0 0.4606741573033708 0.0 0.0 0.0 0.0 0.0 0.0 0.0 0.0 0.0 0.0 0.0 0.0 0.0 0.0 0.0 0.0 0.0 0.0 0.0 0.0 0.0 0.0 0.0 0.0 0.0 0.0 0.4411764705882353 0.0 0.0 0.0 0.5588235294117647 0.0 0.0 0.0 0.0 0.0 0.0 0.0 0.0 0.0 0.0 0.0 0.0 0.0 0.0 0.0 0.0 0.0 0.0 0.0 0.0 0.0 0.0 0.0 0.0 0.0 0.0 0.0 0.0 0.44370860927152317 0.5562913907284768 0.0 0.0 0.0 0.0 0.0 0.0 0.0 0.0 0.0 0.0 0.0 0.0 0.0 0.0 0.0 0.0 0.0 0.0 0.0 0.0 0.0 0.0 0.0 0.0 0.0 0.0 0.0 0.0 0.4251968503937008 0.5748031496062992 0.0 0.0 0.0 0.0 0.0 0.0 0.0 0.0 0.0 0.0 0.0 0.0 0.0 0.0 0.0 0.0 0.0 0.0 0.0 0.0 0.0 0.0 0.0 0.0 0.0 0.0 0.0 0.0 0.0 0.0 0.0 0.0 0.0 0.0 0.0 0.0 0.0 0.0 0.0 0.0 0.0 0.0 0.0 0.0 0.0 0.0 0.0 0.0 0.0 0.0 0.0 0.0 0.0 0.0 0.0 0.0 1.0 0.0 0.0 0.0 0.0 0.4722222222222222 0.5277777777777778 0.0 0.0 0.0 0.0 0.0 0.0 0.0 0.0 0.0 0.0 0.0 0.0 0.0 0.0 0.0 0.0 0.0 0.0 0.0 0.0 0.0 0.0 0.0 0.0 0.0 0.0 0.0 0.0 0.18867924528301888 0.8113207547169812 0.0 0.0 0.0 0.0 0.0 0.0 0.0 0.0 0.0 0.0 0.0 0.0 0.0 0.0 0.0 0.0 0.0 0.0 0.0 0.0 0.0 0.0 0.0 0.0 0.0 0.0 0.0 0.0 0.0 0.0 0.0 0.0 0.0 0.7769028871391076 0.0 0.0 0.2230971128608924 0.0 0.0 0.0 0.0 0.0 0.0 0.0 0.0 0.0 0.0 0.0 0.0 0.0 0.0 0.0 0.0 0.0 0.0 0.0 0.0 0.0 0.0 0.0 0.0 0.0 0.20481927710843373 0.0 0.0 0.0 0.0 0.7951807228915663 0.0 0.0 0.0 0.0 0.0 0.0 0.0 0.0 0.0 0.0 0.0 0.0 0.0 0.0 0.0 0.0 0.0 0.0 0.0 0.0 0.0 0.0 0.0 0.0 0.0 0.0 0.0 0.0 0.22030651340996169 0.5076628352490421 0.0 0.0 0.0 0.0 0.2720306513409962 0.0 0.0 0.0 0.0 0.0 0.0 0.0 0.0 0.0 0.0 0.0 0.0 0.0 0.0 0.0 0.0 0.0 0.0 0.0 0.0 0.0 0.0 0.0 0.23234624145785876 0.7676537585421412 0.0 0.0 0.0 0.0 0.0 0.0 0.0 0.0 0.0 0.0 0.0 0.0 0.0 0.0 0.0 0.0 0.0 0.0 0.0 0.0 0.0 0.0 0.0 0.0 0.0 0.0 0.0 0.0 0.0 0.0 0.0 0.0 0.0 0.7504215851602024 0.24957841483979765 0.0 0.0 0.0 0.0 0.0 0.0 0.0 0.0 0.0 0.0 0.0 0.0 0.0 0.0 0.0 0.0 0.0 0.0 0.0 0.0 0.0 0.0 0.0 0.0 0.0 0.0 0.0 0.0 0.0 0.2644927536231884 0.0 0.0 0.7355072463768116 0.0 0.0 0.0 0.0 0.0 0.0 0.0 0.0 0.0 0.0 0.0 0.0 0.0 0.0 0.0 0.0 0.0 0.0 0.0 0.0 0.0 0.0 0.0 0.0 0.0 0.0 0.0 0.0 0.0 0.2355848434925865 0.0 0.0 0.0 0.0 0.7644151565074135 0.0 0.0 0.0 0.0 0.0 0.0 0.0 0.0 0.0 0.0 0.0 0.0 0.0 0.0 0.0 0.0 0.0 0.0 0.0 0.0 0.0 0.0 0.0 0.0 0.5369003690036901 0.46309963099630996 0.0 0.0 0.0 0.0 0.0 0.0 0.0 0.0 0.0 0.0 0.0 0.0 0.0 0.0 0.0 0.0 0.0 0.0 0.0 0.0 0.0 0.0 0.0 0.0 0.0 0.0 0.0 0.0 0.0 0.0 0.0 0.0 0.29545454545454547 0.7045454545454546 0.0 0.0 0.0 0.0 0.0 0.0 0.0 0.0 0.0 0.0 0.0 0.0 0.0 0.0 0.0 0.0 0.0 0.0 0.0 0.0 0.0 0.0 0.0 0.0 0.0 0.0 0.0 0.0 0.0 0.7652370203160271 0.0 0.0 0.23476297968397292 0.0 0.0 0.0 0.0 0.0 0.0 0.0 0.0 0.0 0.0 0.0 0.0 0.0 0.0 0.0 0.0 0.0 0.0 0.0 0.0 0.0 0.0 0.0 0.0 0.0 0.0 0.0 0.0 0.0 0.1918819188191882 0.0 0.28413284132841327 0.0 0.0 0.5239852398523985 0.0 0.0 0.0 0.0 0.0 0.0 0.0 0.0 0.0 0.0 0.0 0.0 0.0 0.0 0.0 0.0 0.0 0.0 0.0 0.0 0.0 0.0 0.0 0.0 0.28205128205128205 0.717948717948718 0.0 0.0 0.0 0.0 0.0 0.0 0.0 0.0 0.0 0.0 0.0 0.0 0.0 0.0 0.0 0.0 0.0 0.0 0.0 0.0 0.0 0.0 0.0 0.0 0.0 0.0 0.0 0.0 0.0 0.0 0.0 0.0 0.2422360248447205 0.7577639751552795 0.0 0.0 0.0 0.0 0.0 0.0 0.0 0.0 0.0 0.0 0.0 0.0 0.0 0.0 0.0 0.0 0.0 0.0 0.0 0.0 0.0 0.0 0.0 0.0 0.0 0.0 0.0 0.0 0.0 0.7699115044247787 0.0 0.0 0.23008849557522124 0.0 0.0 0.0 0.0 0.0 0.0 0.0 0.0 0.0 0.0 0.0 0.0 0.0 0.0 0.0 0.0 0.0 0.0 0.0 0.0 0.0 0.0 0.0 0.0 0.0 0.0 0.0 0.0 0.0 0.25806451612903225 0.0 0.0 0.0 0.0 0.7419354838709677 0.0 0.0 0.0 0.0 0.0 0.0 0.0 0.0 0.0 0.0 0.0 0.0 0.0 0.0 0.0 0.0 0.0 0.0 0.0 0.0 0.0 0.0 0.0 0.0 0.2956521739130435 0.7043478260869566 0.0 0.0 0.0 0.0 0.0 0.0 0.0 0.0 0.0 0.0 0.0 0.0 0.0 0.0 0.0 0.0 0.0 0.0 0.0 0.0 0.0 0.0 0.0 0.0 0.0 0.0 0.0 0.0 0.0 0.0 0.0 0.0 0.2682926829268293 0.7317073170731707 0.0 0.0 0.0 0.0 0.0 0.0 0.0 0.0 0.0 0.0 0.0 0.0 0.0 0.0 0.0 0.0 0.0 0.0 0.0 0.0 0.0 0.0 0.0 0.0 0.0 0.0 0.0 0.0 0.0 0.4383561643835616 0.0 0.0 0.5616438356164384 0.0 0.0 0.0 0.0 0.0 0.0 0.0 0.0 0.0 0.0 0.0 0.0 0.0 0.0 0.0 0.0 0.0 0.0 0.0 0.0 0.0 0.0 0.0 0.0 0.0 0.0 0.0 0.0 0.4 0.6 0.0 0.0 0.0 0.0 0.0 0.0 0.0 0.0 0.0 0.0 0.0 0.0 0.0 0.0 0.0 0.0 0.0 0.0 0.0 0.0 0.0 0.0 0.0 0.0 0.0 0.0 0.0 0.0 0.0 0.0 0.7083333333333334 0.0 0.25 0.041666666666666664 0.0 0.0 0.0 0.0 0.0 0.0 0.0 0.0 0.0 0.0 0.0 0.0 0.0 0.0 0.0 0.0 0.0 0.0 0.0 0.0 0.0 0.0 0.0 0.0 0.0 0.0 0.0 0.0 0.0 0.0 0.0 0.0 1.0 0.0 0.0 0.0 0.0 0.0 0.0 0.0 0.0 0.0 0.0 0.0 0.0 0.0 0.0 0.0 0.0 0.0 0.0 0.0 0.0 0.0 0.0 0.0 0.0 0.0 0.0 0.0 0.0 0.0 0.0 1.0 1.0 0.0 0.0 0.0 0.0 0.0 0.0 0.0 0.0 0.0 0.0 0.0 0.0 0.0 0.0 0.0 0.0 0.0 0.0 0.0 0.0 0.0 0.0 0.0 0.0 0.0 0.0 0.0 0.0 0.0 0.0 0.35294117647058826 0.0 0.0 0.0 0.0 0.0 0.0 0.0 0.0 0.0 0.0 0.0 0.0 0.0 0.0 0.0 0.0 0.0 0.0 0.0 0.0 0.0 0.0 0.0 0.0 0.0 0.0 0.0 0.0 0.0 0.6470588235294118 0.0 1.0 0.0 0.0 0.0 0.0 0.0 0.0 0.0 0.0 0.0 0.0 0.0 0.0 0.0 0.0 0.0 0.0 0.0 0.0 0.0 0.0 0.0 0.0 0.0 0.0 0.0 0.0 0.0 0.0 0.0 1.0 0.0 0.0 0.0 0.0 0.0 0.0 0.0 0.0 0.0 0.0 0.0 0.0 0.0 0.0 0.0 0.0 0.0 0.0 0.0 0.0 0.0 0.0 0.0 0.0 0.0 0.0 0.0 0.0 0.0 0.0 0.0 0.0 1.0 