<?xml version="1.0" encoding="UTF-8"?>
<!-- This network was created in GeNIe Academic, which can be used for academic teaching and research purposes only -->
<smile version="1.0" id="bnbench" numsamples="100000" discsamples="100000">
	<nodes>
		<cpt id="Age_At_Start_of_Spell_SUS">
			<state id="S_1_12_9_" />
			<state id="S_108_1_120_" />
			<state id="S_12_9_24_8_" />
			<state id="S_24_8_36_7_" />
			<state id="S_36_7_48_6_" />
			<state id="S_48_6_60_5_" />
			<state id="S_60_5_72_4_" />
			<state id="S_72_4_84_3_" />
			<state id="S_84_3_96_2_" />
			<state id="S_96_2_108_1_" />
			<probabilities>0.08017299999999999 6.8e-05 0.07804899999999999 0.125691 0.104774 0.129997 0.153322 0.1964 0.124946 0.00658</probabilities>
		</cpt>
		<cpt id="Ethnic_Group">
			<state id="S1" />
			<state id="S2" />
			<state id="S3" />
			<state id="S4" />
			<state id="S5" />
			<state id="S6" />
			<state id="S7" />
			<state id="S8" />
			<probabilities>0.05864 0.028404 0.002798 0.013765 0.020516 0.090271 0.733673 0.051933</probabilities>
		</cpt>
		<cpt id="Sex">
			<state id="S1" />
			<state id="S2" />
			<state id="S3" />
			<state id="S4" />
			<probabilities>3.9e-05 0.476536 0.523365 6e-05</probabilities>
		</cpt>
		<cpt id="Diabetes">
			<state id="S0" />
			<state id="S1" />
			<parents>Age_At_Start_of_Spell_SUS Ethnic_Group</parents>
			<probabilities>0.9895822 0.0104178 0.98916744 0.01083256 0.9968253969999999 0.003174603 0.993872862 0.006127138 0.993398058 0.006601942 0.9880107299999999 0.01198927 0.98863405 0.01136595 0.992220782 0.007779218 1 0 0 1 0.5 0.5 0.5 0.5 1 0 1 0 1 0 1 0 0.97614827 0.02385173 0.96467236 0.03532764 0.996855346 0.003144654 0.98236332 0.01763668 0.9775985699999999 0.02240143 0.97821169 0.02178831 0.96214141 0.03785859 0.97906027 0.02093973 0.95742564 0.04257436 0.9494811 0.0505189 0.9921568630000001 0.007843137 0.97108541 0.02891459 0.97645212 0.02354788 0.97354333 0.02645667 0.96063208 0.03936792 0.98050247 0.01949753 0.8407938 0.1592062 0.90224174 0.09775826 0.95154185 0.04845815 0.92095165 0.07904835 0.9179016 0.0820984 0.93198465 0.06801535 0.91864099 0.08135901 0.93998945 0.06001055 0.6186203 0.3813797 0.7454132999999999 0.2545867 0.878453 0.121547 0.7775531 0.2224469 0.8087961 0.1912039 0.8673776 0.1326224 0.8360758 0.1639242 0.8533182 0.1466818 0.4398621 0.5601379 0.5610022 0.4389978 0.7382919999999999 0.261708 0.6211293 0.3788707 0.6757136 0.3242864 0.8023821 0.1976179 0.7670808 0.2329192 0.7586771 0.2413229 0.4218891 0.5781109 0.4709244 0.5290756 0.6480263000000001 0.3519737 0.55 0.45 0.6370143 0.3629857 0.7675325 0.2324675 0.7466361 0.2533639 0.7249139999999999 0.275086 0.5119492 0.4880508 0.4767003 0.5232997 0.6467066 0.3532934 0.6511628 0.3488372 0.7362319000000001 0.2637681 0.8214958 0.1785042 0.7970252 0.2029748 0.7854251 0.2145749 0.7222222 0.2777778 0.5666667 0.4333333 0.8 0.2 0.75 0.25 0.9245283 0.0754717 0.91382766 0.08617234 0.8875573 0.1124427 0.90243902 0.09756098000000001</probabilities>
		</cpt>
		<cpt id="Myelodysplastic">
			<state id="S0" />
			<state id="S1" />
			<parents>Age_At_Start_of_Spell_SUS</parents>
			<probabilities>0.9999376 6.236514e-05 1 0 0.9999103 8.968725e-05 0.9999284000000001 7.160417e-05 0.9998759234 0.0001240766 0.9994538336 0.0005461664 0.997919411 0.002080589 0.996115071 0.003884929 0.996030285 0.003969715 0.996048632 0.003951368</probabilities>
		</cpt>
		<cpt id="COPD">
			<state id="S0" />
			<state id="S1" />
			<parents>Age_At_Start_of_Spell_SUS Ethnic_Group</parents>
			<probabilities>0.9995659251 0.0004340749 0.9990714949 0.0009285051 1 0 1 0 0.998834951 0.001165049 0.9998422464 0.0001577536 0.999715343 0.000284657 0.9998147805000001 0.0001852195 0.25 0.75 1 0 0.5 0.5 0.5 0.5 1 0 1 0 1 0 1 0 0.9998388396 0.0001611604 0.9997150997000001 0.0002849003 1 0 0.9994960947 0.0005039053 0.9995519713 0.0004480287 0.9997618764 0.0002381236 0.9992929293 0.0007070707 1 0 0.9993036904 0.0006963096 0.9992167613 0.0007832387 0.998039216 0.001960784 1 0 0.997084548 0.002915452 0.998758631 0.001241369 0.997229018 0.002770982 0.9993209817000001 0.0006790183 0.992502756 0.007497244 0.992604576 0.007395424 0.995594714 0.004405286 0.990023024 0.009976976 0.994665086 0.005334914 0.9897977 0.0102023 0.9720965499999999 0.02790345 0.98667898 0.01332102 0.97518228 0.02481772 0.97670583 0.02329417 0.991712707 0.008287292999999999 0.9413549 0.0586451 0.95974655 0.04025345 0.95704416 0.04295584 0.90475233 0.09524767000000001 0.93688139 0.06311861000000001 0.93236971 0.06763029 0.93645606 0.06354393999999999 0.97796143 0.02203857 0.8816029 0.1183971 0.896584 0.103416 0.8923109 0.1076891 0.8094518000000001 0.1905482 0.841683 0.158317 0.8937031 0.1062969 0.9028571399999999 0.09714286 0.9375 0.0625 0.8807692 0.1192308 0.8686094 0.1313906 0.8639781 0.1360219 0.7930973 0.2069027 0.8030183 0.1969817 0.886109 0.113891 0.90050378 0.09949622 0.90419162 0.09580838 0.872093 0.127907 0.8898551 0.1101449 0.90357479 0.09642521 0.8628694 0.1371306 0.8672491 0.1327509 0.91666667 0.08333333 0.98333333 0.01666667 1 0 0.75 0.25 0.8490566000000001 0.1509434 0.96192385 0.03807615 0.92439196 0.07560804 0.95609756 0.04390244</probabilities>
		</cpt>
		<cpt id="UC">
			<state id="S0" />
			<state id="S1" />
			<parents>Age_At_Start_of_Spell_SUS Sex</parents>
			<probabilities>1 0 0.9997127389 0.0002872611 0.9997422311 0.0002577689 1 0 1 0 1 0 1 0 1 0 1 0 0.9991392776 0.0008607224 0.999078499 0.000921501 1 0 1 0 0.999246988 0.000753012 0.9990826542 0.0009173458 1 0 1 0 0.998064945 0.001935055 0.998549437 0.001450563 1 0 1 0 0.996208333 0.003791667 0.997904496 0.002095504 1 0 1 0 0.990299111 0.009700889000000001 0.997004032 0.002995968 1 0 1 0 0.98093577 0.01906423 0.996654132 0.003345868 1 0 1 0 0.9696826200000001 0.03031738 0.996255337 0.003744663 1 0 0.5 0.5 0.9744898 0.0255102 0.995639535 0.004360465 0.5 0.5</probabilities>
		</cpt>
		<cpt id="Alcohol">
			<state id="S0" />
			<state id="S1" />
			<parents>Age_At_Start_of_Spell_SUS Diabetes</parents>
			<probabilities>0.9998235064 0.0001764936 1 0 0.5223881 0.4776119 0 1 0.97968669 0.02031331 0.97985782 0.02014218 0.96453544 0.03546456 0.95566286 0.04433714 0.92078536 0.07921464 0.91628581 0.08371418999999999 0.90659546 0.09340453999999999 0.92792557 0.07207442999999999 0.94131899 0.05868101 0.95824586 0.04175414 0.9793514 0.0206486 0.98472201 0.01527799 0.994519071 0.005480929 0.995639917 0.004360083 0.998969957 0.001030043 0.997350993 0.002649007</probabilities>
		</cpt>
		<cpt id="Cystic_fibrosis">
			<state id="S0" />
			<state id="S1" />
			<parents>Age_At_Start_of_Spell_SUS Diabetes</parents>
			<probabilities>0.998323311 0.001676689 0.994117647 0.005882353 1 0 1 0 0.9985830999999999 0.0014169 0.97946288 0.02053712 0.9994881744 0.0005118256 0.98726953 0.01273047 0.9997390478 0.0002609522 0.997324713 0.002675287 0.9998879594 0.0001120406 0.9996505482 0.0003494518 0.9999913 8.715432e-06 0.9999222 7.775445000000001e-05 0.9999441999999999 5.576934e-05 0.9999433 5.665508e-05 0.999939 6.101219e-05 0.9999624 3.758692e-05 0.9998283262 0.0001716738 1 0</probabilities>
		</cpt>
		<cpt id="Der_Diagnosis_Count">
			<state id="S_0_2_4_" />
			<state id="S_12_14_4_" />
			<state id="S_14_4_16_8_" />
			<state id="S_16_8_19_2_" />
			<state id="S_19_2_21_6_" />
			<state id="S_2_4_4_8_" />
			<state id="S_21_6_24_" />
			<state id="S_4_8_7_2_" />
			<state id="S_7_2_9_6_" />
			<state id="S_9_6_12_" />
			<parents>Age_At_Start_of_Spell_SUS Alcohol COPD Diabetes</parents>
			<probabilities>0.5756341208 0.0047929569 0.0023712523 0.0013243697 0.0004792957 0.277474364 0.0007441696 0.1026575685 0.0210763972 0.0134455053 0.532941176 0.011764706 0.008235294000000001 0.002352941 0.001176471 0.269411765 0.005882353 0.111764706 0.032941176 0.023529412 0.07692308 0.11538462 0.03846154 0 0 0.30769231 0 0.19230769 0.15384615 0.11538462 0.1 0.1 0.1 0.1 0.1 0.1 0.1 0.1 0.1 0.1 0.57142857 0 0 0 0 0.28571429 0 0.07142857 0.07142857 0 0.1 0.1 0.1 0.1 0.1 0.1 0.1 0.1 0.1 0.1 0.1 0.1 0.1 0.1 0.1 0.1 0.1 0.1 0.1 0.1 0.1 0.1 0.1 0.1 0.1 0.1 0.1 0.1 0.1 0.1 0.1875 0 0.0625 0.03125 0 0.375 0.03125 0.1875 0.03125 0.09375 0.1 0.1 0.1 0.1 0.1 0.1 0.1 0.1 0.1 0.1 0 0.3333333 0 0 0 0 0 0.3333333 0.3333333 0 0.1 0.1 0.1 0.1 0.1 0.1 0.1 0.1 0.1 0.1 0.1875 0 0 0 0 0.4375 0 0.15625 0.1875 0.03125 0 0 0 0 0 0 0 0 1 0 0.1 0.1 0.1 0.1 0.1 0.1 0.1 0.1 0.1 0.1 0.1 0.1 0.1 0.1 0.1 0.1 0.1 0.1 0.1 0.1 0.4491926541 0.0077353745 0.0031239012 0.0020149839 0.0007302626 0.2955940822 0.0008519731 0.1711248749 0.0427474103 0.0268844833 0.267662495 0.0246265644 0.008881711699999999 0.0052482842 0.0004037142 0.3132821962 0.0016148567 0.2426322164 0.0779168349 0.0577311264 0.08108108 0 0.02702703 0.05405405 0 0.18918919 0 0.37837838 0.13513514 0.13513514 0 0 0 0.25 0 0 0 0.25 0 0.5 0.148727984 0.028049576 0.011089367 0.006523157 0.001304631 0.26679713 0.00456621 0.316373125 0.116764514 0.099804305 0.07843137 0.01960784 0 0 0 0.23529412 0.01960784 0.41176471 0.17647059 0.05882353 0 0 0 0 0 1 0 0 0 0 0.1 0.1 0.1 0.1 0.1 0.1 0.1 0.1 0.1 0.1 0.4899644189 0.0089681485 0.0035238136 0.002177734 0.0006944742 0.2601106014 0.0008830968 0.1633386205 0.0427144511 0.027624641 0.108076834 0.049525573 0.024531358 0.015968526 0.006017126 0.235593613 0.009951399999999999 0.306410553 0.127053923 0.116871095 0.06862745100000001 0.093137255 0.019607843 0.019607843 0.004901961 0.112745098 0.004901961 0.31372549 0.171568627 0.191176471 0 0.09090909 0.03030303 0.09090909 0.09090909 0.06060606 0 0.12121212 0.21212121 0.3030303 0.044783118 0.053223916 0.022274326 0.011957796 0.005392732 0.202344666 0.004923798 0.361547479 0.15123095 0.142321219 0.015 0.045 0.045 0.03 0 0.115 0.02 0.34 0.19 0.2 0 0.12903226 0.09677419 0.06451613 0 0.06451613 0.03225806 0.16129032 0.12903226 0.32258065 0 0 0.5 0 0 0 0 0 0.5 0 0.287695394 0.015977314 0.00640937 0.004034675 0.001498594 0.340618804 0.002294001 0.226149306 0.068635588 0.046686955 0.050841027 0.065511572 0.030732263 0.02314405 0.008852914999999999 0.186417099 0.016441128 0.319969647 0.147970153 0.150120147 0.031377899 0.071623465 0.032060027 0.017735334 0.006139154 0.154843111 0.01159618 0.325375171 0.173942701 0.175306958 0 0.1341853 0.08945686999999999 0.06709265 0.02555911 0.05111821 0.04472843 0.1884984 0.19808307 0.20127796 0.036032276 0.067195326 0.032554257 0.017946578 0.008625486999999999 0.15442404 0.011825264 0.328185865 0.178491931 0.164718976 0.00141844 0.11631206 0.05815603 0.04539007 0.0212766 0.05106383 0.01985816 0.24680851 0.18014184 0.25957447 0 0.137157107 0.06234414 0.072319202 0.007481297 0.019950125 0.024937656 0.221945137 0.189526185 0.264339152 0 0.19565217 0.13043478 0.17391304 0.04347826 0 0.08695652 0.06521739 0.08695652 0.2173913 0.201644362 0.029583052 0.01263109 0.008840658 0.003038976 0.265065034 0.004552939 0.294979611 0.101048723 0.078615553 0.0220954 0.09550238 0.04277711 0.03335253 0.01413687 0.1251898 0.02146709 0.29237133 0.17524478 0.17786272 0.032682705 0.081404146 0.036011499 0.02436072 0.009078529 0.136329248 0.013012559 0.315478892 0.178241791 0.173399909 0.001399254 0.174906716 0.07742537300000001 0.062033582 0.029850746 0.032182836 0.039179104 0.173973881 0.172108209 0.236940299 0.02315838 0.08972419 0.0386361 0.0310718 0.01349936 0.1181194 0.0164087 0.30606307 0.1763063 0.18701268 0.00143575 0.14357502 0.06891601 0.06317301 0.022972 0.03517588 0.04091888 0.18880115 0.18234027 0.25269203 0.0007087172000000001 0.137491141 0.06378455 0.0602409639 0.0163004961 0.0354358611 0.0396881644 0.1892274982 0.2026931254 0.2544294826 0 0.20233463 0.13618677 0.09338521 0.05447471 0 0.05836576 0.09338521 0.11673152 0.24513619 0.118034632 0.055391848 0.022757121 0.016433246 0.006235584 0.203699412 0.009601695 0.297807061 0.142778311 0.127261089 0.009025151 0.121972261 0.06145066 0.047912934 0.020041144 0.07581790400000001 0.029829451 0.241588692 0.176786781 0.215575022 0.02103811 0.10542047 0.04799678 0.03316664 0.01431281 0.1007645 0.01994597 0.27981836 0.18158303 0.19595333 0.0007316359 0.1769095698 0.0918934738 0.0774070822 0.0373134328 0.0207784606 0.0516534972 0.1420836992 0.1537898742 0.2474392742 0.01268834 0.12192704 0.05531324 0.04698652 0.01804124 0.08326725 0.02755749 0.24425059 0.18477399 0.20519429 0 0.15974441 0.09025559 0.08466454 0.02955272 0.01597444 0.06789137000000001 0.13178914 0.16054313 0.25958466 0 0.1687389 0.08111308 0.06453523 0.03848431 0.01657786 0.05506217 0.1651865 0.16637063 0.24393132 0 0.181058496 0.103064067 0.114206128 0.077994429 0.008356545999999999 0.105849582 0.058495822 0.105849582 0.245125348 0.0591056 0.09398054 0.04301623 0.03222265 0.0127784 0.12489461 0.01872409 0.26608059 0.16712042 0.18207686 0.00339931 0.15369223 0.07632778 0.06714241 0.02839991 0.0395863 0.04421515 0.17847586 0.16562598 0.24313508 0.01017955 0.14033506 0.06806400999999999 0.05465405 0.02186162 0.05390279 0.03264218 0.21324468 0.17782285 0.22729322 0.0001875469 0.1950487622 0.1032445611 0.0978057014 0.0443548387 0.0104088522 0.06789197299999999 0.1085896474 0.1356901725 0.2367779445 0.007342818 0.135842129 0.073887104 0.068379991 0.029830197 0.046351537 0.061955025 0.18540615 0.152363469 0.238641579 0 0.20373514 0.13412564 0.10186757 0.04923599 0.01358234 0.06791171 0.08998302 0.12224109 0.21731749 0 0.16730524 0.09323115999999999 0.09195402 0.05236271 0.01149425 0.08173691 0.11877395 0.13282248 0.25031928 0 0.15454545 0.11818182 0.13636364 0.08636364000000001 0 0.15 0.03636364 0.09090909 0.22727273 0.03115978 0.13157524 0.06285942 0.04985564 0.01976387 0.06968993 0.02934066 0.21185128 0.17220618 0.221698 0.001768659 0.173991864 0.088698267 0.082065794 0.035019455 0.021710294 0.051291121 0.137866997 0.15391758 0.253669968 0.003334392 0.167989838 0.088599555 0.080660527 0.029930137 0.027389648 0.048666243 0.150841537 0.157113369 0.245474754 0.0005163956 0.1954557191 0.1177381875 0.1130906274 0.0562871159 0.0059385489 0.0766847405 0.0802995094 0.1203201652 0.2336689904 0.002314815 0.18287037 0.081018519 0.101851852 0.041666667 0.020833333 0.064814815 0.164351852 0.136574074 0.203703704 0 0.20238095 0.13095238 0.08333333 0.11904762 0 0.17857143 0.03571429 0.11904762 0.13095238 0 0.177570093 0.102803738 0.102803738 0.08411215 0.009345793999999999 0.112149533 0.065420561 0.08411215 0.261682243 0 0.25 0.0625 0.1875 0.09375 0 0.15625 0 0.125 0.125 0.02535628 0.13603554 0.06607440000000001 0.0566352 0.02146955 0.05922636 0.0262817 0.20136961 0.17360726 0.23394411 0 0.21469741 0.09365994 0.06051873 0.0259366 0.02017291 0.04322767 0.13112392 0.15994236 0.25072046 0.007211538 0.192307692 0.108173077 0.096153846 0.016826923 0.021634615 0.036057692 0.129807692 0.153846154 0.237980769 0 0.23728814 0.13559322 0.08474576 0.03389831 0.01694915 0.08474576 0.08474576 0.10169492 0.22033898 0.1666667 0.3333333 0 0 0.1666667 0 0 0 0.1666667 0.1666667 0 0 0 0 0 0 0 0 0.5 0.5 0.1 0.1 0.1 0.1 0.1 0.1 0.1 0.1 0.1 0.1 0.1 0.1 0.1 0.1 0.1 0.1 0.1 0.1 0.1 0.1</probabilities>
		</cpt>
		<cpt id="Hypotension">
			<state id="S0" />
			<state id="S1" />
			<parents>Age_At_Start_of_Spell_SUS Der_Diagnosis_Count</parents>
			<probabilities>0.9999131999999999 8.676601e-05 0.96692112 0.03307888 0.9744898 0.0255102 0.96261682 0.03738318 0.92307692 0.07692308 0.9995503596999999 0.0004496403 0.875 0.125 0.997208738 0.002791262 0.99471831 0.00528169 0.990817264 0.009182736 1 0 0 1 1 0 1 0 0.5 0.5 1 0 1 0 0.91666667 0.08333333 1 0 0.75 0.25 0.9992085361 0.0007914639 0.95420975 0.04579025 0.92619926 0.07380074 0.92 0.08 0.8245614 0.1754386 0.995664051 0.004335949 0.7866667000000001 0.2133333 0.990055168 0.009944832000000001 0.9850578 0.0149422 0.96904969 0.03095031 0.9992736329 0.0007263671 0.94940867 0.05059133 0.9460317499999999 0.05396825 0.92030848 0.07969152 0.91791045 0.08208955 0.995754439 0.004245561 0.7687861 0.2312139 0.98993562 0.01006438 0.98259064 0.01740936 0.97360704 0.02639296 0.998792129 0.001207871 0.9514925400000001 0.04850746 0.94067797 0.05932203 0.92030848 0.07969152 0.8896321 0.1103679 0.996082544 0.003917456 0.820296 0.179704 0.98941088 0.01058912 0.98152503 0.01847497 0.97017045 0.02982955 0.99863803 0.00136197 0.93304177 0.06695822999999999 0.9293795 0.0706205 0.8874715 0.1125285 0.8430913 0.1569087 0.995080988 0.004919012 0.7819191 0.2180809 0.98855455 0.01144545 0.98095888 0.01904112 0.96294514 0.03705486 0.998333626 0.001666374 0.92614121 0.07385878999999999 0.91267037 0.08732963000000001 0.8876876 0.1123124 0.8505808 0.1494192 0.993638567 0.006361433 0.7985127 0.2014873 0.98327791 0.01672209 0.97112049 0.02887951 0.95629902 0.04370098 0.9958100560000001 0.004189944 0.91543475 0.08456524999999999 0.90712266 0.09287734 0.8853503 0.1146497 0.857366 0.142634 0.98870314 0.01129686 0.8103241 0.1896759 0.97425321 0.02574679 0.9602551499999999 0.03974485 0.93943456 0.06056544 0.993065693 0.006934307 0.90199537 0.09800463 0.8914711 0.1085289 0.8766062999999999 0.1233937 0.8357441 0.1642559 0.98031438 0.01968562 0.8181425 0.1818575 0.96304505 0.03695495 0.94826169 0.05173831 0.92634324 0.07365676 0.9858156 0.0141844 0.91326531 0.08673469 0.8863158 0.1136842 0.870229 0.129771 0.8541666999999999 0.1458333 0.97674419 0.02325581 0.8333333000000001 0.1666667 0.96122779 0.03877221 0.94915254 0.05084746 0.92074742 0.07925258</probabilities>
		</cpt>
		<cpt id="WB">
			<state id="S0" />
			<state id="S1" />
			<parents>Der_Diagnosis_Count Myelodysplastic</parents>
			<probabilities>0.9998530902 0.0001469098 1 0 0.997632132 0.002367868 1 0 0.997421221 0.002578779 0.992 0.008 0.996566151 0.003433849 1 0 0.994863346 0.005136654 1 0 0.9992211294 0.0007788706 1 0 0.992943157 0.007056843 0.98717949 0.01282051 0.9988288360000001 0.001171164 1 0 0.998499717 0.001500283 1 0 0.998114555 0.001885445 0.99713467 0.00286533</probabilities>
		</cpt>
		<cpt id="Antibiotics">
			<state id="S0" />
			<state id="S1" />
			<parents>Der_Diagnosis_Count</parents>
			<probabilities>0.9999853119 1.46881e-05 0.998916946 0.001083054 0.998903612 0.001096388 0.998232452 0.001767548 0.998457683 0.001542317 0.999785251 0.000214749 0.99626385 0.00373615 0.9995203443 0.0004796557 0.9992690058 0.0007309942 0.9992959324 0.0007040676</probabilities>
		</cpt>
		<cpt id="Gluco">
			<state id="S0" />
			<state id="S1" />
			<parents>Der_Diagnosis_Count Diabetes</parents>
			<probabilities>0.9999106 8.938991e-05 0.9996530187 0.0003469813 0.995569076 0.004430924 0.9999093 9.074821999999999e-05 0.996297187 0.003702813 0.9998202732 0.0001797268 0.995898277 0.004101723 0.9995838535 0.0004161465 0.997420187 0.002579813 0.9997603068000001 0.0002396932 0.9993273632 0.0006726367999999999 0.9999077 9.229349e-05 0.99598742 0.00401258 0.9998413454 0.0001586546 0.997986057 0.002013943 0.9999054000000001 9.460141e-05 0.996909069 0.003090931 0.999841866 0.000158134 0.996111579 0.003888421 0.9999136 8.640552999999999e-05</probabilities>
		</cpt>
		<cpt id="CKD">
			<state id="S0" />
			<state id="S1" />
			<parents>Age_At_Start_of_Spell_SUS Der_Diagnosis_Count Diabetes</parents>
			<probabilities>0.9999781 2.190676e-05 1 0 0.96605744 0.03394256 0.9 0.1 0.95238095 0.04761905 0.8571429 0.1428571 0.93333333 0.06666667 1 0 0.97368421 0.02631579 1 0 0.9999546 4.543183e-05 1 0 0.91525424 0.08474576 1 0 0.996562308 0.003437692 1 0 0.98806683 0.01193317 1 0 0.97848457 0.02151543 1 0 1 0 0.5 0.5 1 0 0.5 0.5 1 0 0.5 0.5 1 0 0.5 0.5 0.5 0.5 0.5 0.5 1 0 0.5 0.5 1 0 0.5 0.5 1 0 0.5 0.5 1 0 1 0 1 0 0.5 0.5 0.9999701 2.989805e-05 1 0 0.97886179 0.02113821 0.96774194 0.03225806 0.97188755 0.02811245 0.90909091 0.09090909 0.99378882 0.00621118 1 0 1 0 1 0 0.9995061728 0.0004938272 1 0 0.95714286 0.04285714 1 0 0.995970501 0.004029499 0.990369181 0.009630819000000001 0.98953662 0.01046338 0.98019802 0.01980198 0.98275862 0.01724138 0.97297297 0.02702703 0.9999128 8.718092e-05 1 0 0.96759259 0.03240741 0.8672566 0.1327434 0.95516569 0.04483431 0.6837607 0.3162393 0.95176849 0.04823151 0.7948718 0.2051282 1 0 0.7241379 0.2758621 0.997918401 0.002081599 0.990412272 0.009587728 0.91269841 0.08730159 0.7234043 0.2765957 0.993514665 0.006485335 0.9713467 0.0286533 0.98323332 0.01676668 0.9210083999999999 0.0789916 0.97601857 0.02398143 0.8810811 0.1189189 0.9996833188000001 0.0003166812 0.99751861 0.00248139 0.9655002499999999 0.03449975 0.8863287 0.1136713 0.94895592 0.05104408 0.8176101 0.1823899 0.95131086 0.04868914 0.795082 0.204918 0.91666667 0.08333333 0.7368421000000001 0.2631579 0.997637005 0.002362995 0.99344692 0.00655308 0.93890675 0.06109325 0.6851852 0.3148148 0.990817549 0.009182450999999999 0.9775849599999999 0.02241504 0.9791226200000001 0.02087738 0.9486426999999999 0.0513573 0.96676791 0.03323209 0.8988219 0.1011781 0.998767615 0.001232385 1 0 0.94593301 0.05406699 0.8543452 0.1456548 0.93732668 0.06267332 0.8303411000000001 0.1696589 0.93526276 0.06473724 0.7562358 0.2437642 0.93670886 0.06329114 0.7447368 0.2552632 0.995607275 0.004392725 0.996014348 0.003985652 0.90935252 0.09064748 0.6696113 0.3303887 0.98500395 0.01499605 0.97469571 0.02530429 0.9722016 0.0277984 0.9405 0.0595 0.9601016999999999 0.0398983 0.91111111 0.08888889 0.998292135 0.001707865 1 0 0.92596414 0.07403586 0.8394175 0.1605825 0.91457893 0.08542107 0.8136882 0.1863118 0.9150082899999999 0.08499171 0.7839623 0.2160377 0.91134021 0.08865979 0.737013 0.262987 0.992593668 0.007406332 0.98571429 0.01428571 0.8875086 0.1124914 0.7127273 0.2872727 0.9776399 0.0223601 0.95780991 0.04219009 0.96129181 0.03870819 0.92505289 0.07494711 0.9456276300000001 0.05437237 0.8911754 0.1088246 0.997862334 0.002137666 0.9930069929999999 0.006993007 0.8712325 0.1287675 0.7874318 0.2125682 0.8665035 0.1334965 0.7756176 0.2243824 0.8531338000000001 0.1468662 0.740684 0.259316 0.8254783 0.1745217 0.7216009 0.2783991 0.98496765 0.01503235 0.97614991 0.02385009 0.8159375 0.1840625 0.6947929 0.3052071 0.96095528 0.03904472 0.9345859399999999 0.06541406 0.92900533 0.07099467 0.8871447 0.1128553 0.90541474 0.09458526 0.8367219 0.1632781 0.99777613 0.00222387 1 0 0.8142272 0.1857728 0.746025 0.253975 0.8114452 0.1885548 0.7494949 0.2505051 0.7911262 0.2088738 0.7312527 0.2687473 0.7916666999999999 0.2083333 0.684262 0.315738 0.97489274 0.02510726 0.97081712 0.02918288 0.7732318 0.2267682 0.6770481 0.3229519 0.93649209 0.06350791 0.91229604 0.08770396 0.8961722 0.1038278 0.8669528 0.1330472 0.8605304 0.1394696 0.8102749 0.1897251 1 0 0.5 0.5 0.7735618 0.2264382 0.7239264 0.2760736 0.8333333000000001 0.1666667 0.7671233 0.2328767 0.783237 0.216763 0.4680851 0.5319149 0.7258065 0.2741935 0.7 0.3 0.97568389 0.02431611 1 0 0.7452229 0.2547771 0.7428571 0.2571429 0.91768827 0.08231173 0.9375 0.0625 0.887338 0.112662 0.90677966 0.09322034 0.8372434 0.1627566 0.8404255 0.1595745</probabilities>
		</cpt>
		<cpt id="Lactic">
			<state id="S0" />
			<state id="S1" />
			<parents>Der_Diagnosis_Count</parents>
			<probabilities>0.9999460999999999 5.385636e-05 0.9992285095 0.0007714905 0.998934937 0.001065063 0.99897875 0.00102125 0.997493734 0.002506266 0.9996564017 0.0003435983 0.997358928 0.002641072 0.9995249124 0.0004750876 0.9994952659 0.0005047341 0.9993359362000001 0.0006640637999999999</probabilities>
		</cpt>
		<cpt id="Albumin">
			<state id="S0" />
			<state id="S1" />
			<parents>Alcohol Der_Diagnosis_Count</parents>
			<probabilities>0.9999852408 1.47592e-05 0.9996687748999999 0.0003312251 0.999499583 0.000500417 0.9994969819 0.0005030181 0.9983447130000001 0.001655287 0.9999616 3.844696e-05 0.99812773 0.00187227 0.9999185 8.148201e-05 0.9998800616 0.0001199384 0.9997615459 0.0002384541 1 0 0.9992501875000001 0.0007498125 0.998459959 0.001540041 0.9993761697 0.0006238303 1 0 1 0 0.9990933816999999 0.0009066183 0.9999026 9.735202e-05 0.9996933926 0.0003066074 0.9996034369 0.0003965631</probabilities>
		</cpt>
		<cpt id="Cancer">
			<state id="S0" />
			<state id="S1" />
			<parents>Age_At_Start_of_Spell_SUS Alcohol Der_Diagnosis_Count Diabetes Sex</parents>
			<probabilities>0.5 0.5 0.993877551 0.006122449 0.994444169 0.005555831 1 0 0.5 0.5 0.995614035 0.004385965 1 0 0.5 0.5 0.5 0.5 0.9 0.1 0.8728324 0.1271676 0.5 0.5 0.5 0.5 1 0 0.3333333 0.6666666999999999 0.5 0.5 0.5 0.5 0.8761905 0.1238095 0.92857143 0.07142857 0.5 0.5 0.5 0.5 0.75 0.25 0.6666666999999999 0.3333333 0.5 0.5 0.5 0.5 0.94545455 0.05454545 0.92 0.08 0.5 0.5 0.5 0.5 0.5 0.5 1 0 0.5 0.5 0.5 0.5 0.875 0.125 0.92857143 0.07142857 0.5 0.5 0.5 0.5 1 0 0.5 0.5 0.5 0.5 1 0 0.97566948 0.02433052 0.9728255099999999 0.02717449 0.5 0.5 0.5 0.5 0.94262295 0.05737705 0.990654206 0.009345793999999999 0.5 0.5 0.5 0.5 0.8461538 0.1538462 0.9 0.1 0.5 0.5 0.5 0.5 0.6666666999999999 0.3333333 0.5 0.5 0.5 0.5 1 0 0.9391341600000001 0.06086584 0.92924935 0.07075065 0.5 0.5 0.5 0.5 0.93877551 0.06122449 0.9782608699999999 0.02173913 0.5 0.5 0.5 0.5 0.91821946 0.08178054 0.8801128 0.1198872 0.5 0.5 0.5 0.5 0.8666667 0.1333333 0.92307692 0.07692308 0.5 0.5 0.5 0.5 0.8830313 0.1169687 0.91991342 0.08008658 0.5 0.5 0.5 0.5 0.7777778 0.2222222 0.8181818 0.1818182 0.5 0.5 0.5 0.5 1 0 1 0 0.5 0.5 0.5 0.5 0.5 0.5 0.5 0.5 0.5 0.5 0.5 0.5 0.5 0.5 0.5 0.5 0.5 0.5 0.5 0.5 0.5 0.5 0.5 0.5 0.5 0.5 0.5 0.5 0.5 0.5 0.5 0.5 0.5 0.5 0.5 0.5 0.5 0.5 0.5 0.5 0.5 0.5 0.5 0.5 0.5 0.5 0.5 0.5 0.5 0.5 0.5 0.5 0.5 0.5 0.5 0.5 0.5 0.5 0.5 0.5 0.5 0.5 0.5 0.5 0.5 0.5 0.5 0.5 0.5 0.5 0.5 0.5 0.5 0.5 0.5 0.5 1 0 1 0 0.5 0.5 0.5 0.5 0.5 0.5 0.5 0.5 0.5 0.5 0.5 0.5 0.5 0.5 0.5 0.5 0.5 0.5 0.5 0.5 0.5 0.5 0.5 0.5 0.5 0.5 0.5 0.5 0.5 0.5 1 0 0.5 0.5 0.5 0.5 0.5 0.5 0.5 0.5 0.5 0.5 0.5 0.5 1 0 0.5 0.5 0.5 0.5 0.5 0.5 0.5 0.5 0.5 0.5 0.5 0.5 0.5 0.5 0.5 0.5 0.5 0.5 0.5 0.5 0.5 0.5 0.5 0.5 0.5 0.5 0.5 0.5 1 0 1 0 1 0 0.5 0.5 0.5 0.5 0.5 0.5 0.5 0.5 0.5 0.5 0.5 0.5 0.5 0.5 1 0 0.5 0.5 0.5 0.5 0.5 0.5 0.5 0.5 0.5 0.5 0.5 0.5 1 0 0.5 0.5 0.5 0.5 0.5 0.5 0.5 0.5 0.5 0.5 0.5 0.5 0.5 0.5 1 0 0.5 0.5 0.5 0.5 0.5 0.5 0.5 0.5 0.5 0.5 0.5 0.5 0.5 0.5 0.5 0.5 0.5 0.5 0.5 0.5 0.5 0.5 0.5 0.5 0.5 0.5 0.5 0.5 1 0 1 0 1 0 0.5 0.5 0.5 0.5 0.5 0.5 0.5 0.5 0.5 0.5 0.5 0.5 0.5 0.5 1 0 0.5 0.5 0.5 0.5 0.5 0.5 0.5 0.5 0.5 0.5 0.5 0.5 1 0 1 0 0.5 0.5 0.5 0.5 0.5 0.5 0.5 0.5 0.5 0.5 0.5 0.5 1 0 0.5 0.5 0.5 0.5 0.5 0.5 0.5 0.5 0.5 0.5 0.5 0.5 0.5 0.5 1 0 1 0 0.5 0.5 0.5 0.5 0.5 0.5 0.5 0.5 0.5 0.5 0.5 0.5 1 0 0.5 0.5 0.5 0.5 0.5 0.5 0.5 0.5 0.5 0.5 0.5 0.5 0.5 0.5 0.5 0.5 0.5 0.5 0.5 0.5 0.5 0.5 0.5 0.5 0.5 0.5 0.5 0.5 0.5 0.5 0.5 0.5 0.5 0.5 0.5 0.5 0.5 0.5 0.5 0.5 0.5 0.5 0.5 0.5 0.5 0.5 0.5 0.5 0.5 0.5 0.5 0.5 0.5 0.5 0.5 0.5 0.5 0.5 0.5 0.5 0.5 0.5 0.5 0.5 0.5 0.5 0.5 0.5 0.5 0.5 0.5 0.5 0.5 0.5 0.5 0.5 1 0 1 0 1 0 1 0 0.5 0.5 0.5 0.5 0.5 0.5 0.5 0.5 0.5 0.5 0.5 0.5 0.5 0.5 0.5 0.5 0.5 0.5 0.5 0.5 0.5 0.5 0.5 0.5 0.5 0.5 1 0 1 0 0.5 0.5 0.5 0.5 0.5 0.5 0.5 0.5 0.5 0.5 0.5 0.5 1 0 1 0 0.5 0.5 0.5 0.5 1 0 0.5 0.5 0.5 0.5 0.5 0.5 1 0 0.5 0.5 0.5 0.5 0.5 0.5 0.5 0.5 0.5 0.5 0.5 0.5 1 0 0.997055731 0.002944269 0.997519789 0.002480211 1 0 0.5 0.5 1 0 1 0 0.5 0.5 0.5 0.5 0.90232558 0.09767442 0.94957983 0.05042017 0.5 0.5 0.5 0.5 0.862069 0.137931 0.9375 0.0625 0.5 0.5 0.5 0.5 0.8857143 0.1142857 0.96850394 0.03149606 0.5 0.5 0.5 0.5 0.9 0.1 0.91666667 0.08333333 0.5 0.5 0.5 0.5 0.95945946 0.04054054 0.93506494 0.06493506 0.5 0.5 0.5 0.5 1 0 1 0 0.5 0.5 0.5 0.5 0.8387097 0.1612903 0.95652174 0.04347826 0.5 0.5 0.5 0.5 0.5 0.5 1 0 0.5 0.5 1 0 0.98946752 0.01053248 0.993692273 0.006307727 1 0 0.5 0.5 0.98820059 0.01179941 0.9977116700000001 0.00228833 0.5 0.5 0.5 0.5 0.90322581 0.09677419 0.75 0.25 0.5 0.5 0.5 0.5 1 0 1 0 0.5 0.5 0.5 0.5 0.96986427 0.03013573 0.986415 0.013585 1 0 0.5 0.5 0.9789916 0.0210084 0.9917355369999999 0.008264463 1 0 0.5 0.5 0.95918367 0.04081633 0.98174157 0.01825843 1 0 0.5 0.5 0.91666667 0.08333333 0.9669421499999999 0.03305785 0.5 0.5 1 0 0.95371669 0.04628331 0.97492163 0.02507837 1 0 0.5 0.5 0.94736842 0.05263158 0.97727273 0.02272727 0.5 0.5 0.5 0.5 1 0 1 0 0.5 0.5 0.5 0.5 1 0 1 0 0.5 0.5 0.5 0.5 1 0 1 0 0.5 0.5 0.5 0.5 1 0 0.5 0.5 0.5 0.5 0.5 0.5 0.91666667 0.08333333 1 0 0.5 0.5 0.5 0.5 0.5 0.5 0.5 0.5 0.5 0.5 0.5 0.5 1 0 1 0 0.5 0.5 0.5 0.5 0.5 0.5 0.5 0.5 0.5 0.5 0.5 0.5 1 0 0.5 0.5 0.5 0.5 0.5 0.5 0.5 0.5 0.5 0.5 0.5 0.5 0.5 0.5 1 0 1 0 0.5 0.5 0.5 0.5 1 0 1 0 0.5 0.5 0.5 0.5 1 0 1 0 0.5 0.5 0.5 0.5 0.5 0.5 1 0 0.5 0.5 0.5 0.5 1 0 1 0 0.5 0.5 0.5 0.5 1 0 1 0 0.5 0.5 0.5 0.5 1 0 0.98717949 0.01282051 0.5 0.5 0.5 0.5 1 0 1 0 0.5 0.5 0.5 0.5 1 0 0.98666667 0.01333333 1 0 0.5 0.5 1 0 1 0 0.5 0.5 1 0 0.998200283 0.001799717 0.998639858 0.001360142 1 0 0.5 0.5 1 0 0.995515695 0.004484305 0.5 0.5 0.5 0.5 0.94567901 0.05432099 0.94081942 0.05918058 1 0 0.5 0.5 0.94936709 0.05063291 0.97101449 0.02898551 0.5 0.5 0.5 0.5 0.93959732 0.06040268 0.9323308300000001 0.06766917 0.5 0.5 0.5 0.5 1 0 0.96103896 0.03896104 0.5 0.5 0.5 0.5 0.9 0.1 0.8988095 0.1011905 0.5 0.5 0.5 0.5 0.9655172400000001 0.03448276 0.97674419 0.02325581 0.5 0.5 0.5 0.5 0.84375 0.15625 0.82 0.18 0.5 0.5 0.5 0.5 1 0 1 0 0.5 0.5 1 0 0.990474526 0.009525474000000001 0.990537612 0.009462388 0.5 0.5 0.5 0.5 1 0 0.998144712 0.001855288 0.5 0.5 0.5 0.5 0.90909091 0.09090909 0.95 0.05 0.5 0.5 0.5 0.5 0.8823529 0.1176471 0.96153846 0.03846154 0.5 0.5 0.5 0.5 0.97366197 0.02633803 0.97777778 0.02222222 0.5 0.5 0.5 0.5 0.990636704 0.009363296 0.993702771 0.006297229 0.5 0.5 0.5 0.5 0.96292257 0.03707743 0.96292806 0.03707194 0.5 0.5 0.5 0.5 0.990697674 0.009302326 0.98240469 0.01759531 0.5 0.5 1 0 0.9514403299999999 0.04855967 0.94863014 0.05136986 1 0 0.5 0.5 0.9782608699999999 0.02173913 0.97583082 0.02416918 0.5 0.5 0.5 0.5 1 0 1 0 0.5 0.5 0.5 0.5 1 0 1 0 0.5 0.5 0.5 0.5 0.97478992 0.02521008 0.991071429 0.008928571 0.5 0.5 0.5 0.5 1 0 1 0 0.5 0.5 0.5 0.5 0.96491228 0.03508772 1 0 0.5 0.5 0.5 0.5 1 0 1 0 0.5 0.5 0.5 0.5 1 0 1 0 0.5 0.5 0.5 0.5 1 0 1 0 0.5 0.5 0.5 0.5 1 0 1 0 0.5 0.5 0.5 0.5 0.5 0.5 0.5 0.5 0.5 0.5 1 0 1 0 0.9959016389999999 0.004098361 0.5 0.5 0.5 0.5 1 0 1 0 0.5 0.5 0.5 0.5 1 0 0.90909091 0.09090909 0.5 0.5 0.5 0.5 1 0 1 0 0.5 0.5 1 0 0.998146432 0.001853568 1 0 0.5 0.5 0.5 0.5 1 0 1 0 0.5 0.5 0.5 0.5 0.9928571430000001 0.007142857 0.995633188 0.004366812 0.5 0.5 0.5 0.5 1 0 1 0 0.5 0.5 0.5 0.5 1 0 0.992307692 0.007692308 0.5 0.5 0.5 0.5 1 0 1 0 0.5 0.5 1 0 0.994114637 0.005885363 0.992693582 0.007306418 1 0 0.5 0.5 1 0 1 0 0.5 0.5 0.5 0.5 0.8990228 0.1009772 0.8358039 0.1641961 0.5 0.5 0.5 0.5 0.94715447 0.05284553 0.94267516 0.05732484 0.5 0.5 0.5 0.5 0.8571429 0.1428571 0.7956656 0.2043344 0.5 0.5 0.5 0.5 0.94262295 0.05737705 0.95973154 0.04026846 0.5 0.5 0.5 0.5 0.8562874 0.1437126 0.7990431 0.2009569 0.5 0.5 0.5 0.5 0.93877551 0.06122449 0.9245283 0.0754717 0.5 0.5 0.5 0.5 0.8730159 0.1269841 0.6842105000000001 0.3157895 0.5 0.5 0.5 0.5 1 0 0.9375 0.0625 0.5 0.5 1 0 0.98299879 0.01700121 0.97578293 0.02421707 1 0 0.5 0.5 0.98469388 0.01530612 0.98866856 0.01133144 0.5 0.5 0.5 0.5 0.8390805 0.1609195 0.6899225 0.3100775 0.5 0.5 0.5 0.5 0.94520548 0.05479452 0.8450704 0.1549296 0.5 0.5 1 0 0.95728962 0.04271038 0.93420247 0.06579753000000001 0.5 0.5 0.5 0.5 0.98361934 0.01638066 0.97398623 0.02601377 0.5 0.5 1 0 0.92467333 0.07532667 0.8960067 0.1039933 0.5 0.5 0.5 0.5 0.97074954 0.02925046 0.95912409 0.04087591 0.5 0.5 0.5 0.5 0.91773923 0.08226077 0.8701866 0.1298134 1 0 0.5 0.5 0.94727592 0.05272408 0.95741557 0.04258443 0.5 0.5 0.5 0.5 1 0 1 0 0.5 0.5 0.5 0.5 1 0 0.5 0.5 0.5 0.5 0.5 0.5 0.98697068 0.01302932 0.991341991 0.008658008999999999 0.5 0.5 0.5 0.5 0.96825397 0.03174603 0.96428571 0.03571429 0.5 0.5 0.5 0.5 0.97515528 0.02484472 0.97959184 0.02040816 0.5 0.5 0.5 0.5 0.97222222 0.02777778 1 0 0.5 0.5 0.5 0.5 0.96774194 0.03225806 1 0 0.5 0.5 0.5 0.5 0.96774194 0.03225806 1 0 0.5 0.5 0.5 0.5 0.95348837 0.04651163 0.90909091 0.09090909 0.5 0.5 0.5 0.5 1 0 1 0 0.5 0.5 0.5 0.5 0.995092025 0.004907975 0.99339934 0.00660066 0.5 0.5 0.5 0.5 1 0 1 0 0.5 0.5 0.5 0.5 1 0 0.975 0.025 0.5 0.5 0.5 0.5 1 0 1 0 0.5 0.5 0.5 0.5 0.996413628 0.003586372 0.992238034 0.007761966 1 0 0.5 0.5 1 0 1 0 0.5 0.5 0.5 0.5 0.992349727 0.007650273 0.98423423 0.01576577 0.5 0.5 0.5 0.5 1 0 1 0 0.5 0.5 0.5 0.5 0.98926014 0.01073986 0.97787611 0.02212389 0.5 0.5 0.5 0.5 0.992957746 0.007042254 1 0 0.5 0.5 1 0 0.98041094 0.01958906 0.97849581 0.02150419 1 0 0.5 0.5 0.98455598 0.01544402 1 0 0.5 0.5 0.5 0.5 0.8001346 0.1998654 0.7806713 0.2193287 1 0 0.5 0.5 0.91701593 0.08298406999999999 0.8836978 0.1163022 0.5 0.5 0.5 0.5 0.7619783999999999 0.2380216 0.7656676 0.2343324 0.5 0.5 0.5 0.5 0.8929254 0.1070746 0.9 0.1 0.5 0.5 0.5 0.5 0.7671233 0.2328767 0.7170172 0.2829828 0.5 0.5 0.5 0.5 0.90322581 0.09677419 0.8855586 0.1144414 0.5 0.5 0.5 0.5 0.7421384 0.2578616 0.6988636 0.3011364 0.5 0.5 0.5 0.5 0.91304348 0.08695652 0.90666667 0.09333333000000001 0.5 0.5 1 0 0.9503055 0.0496945 0.93908629 0.06091371 0.6666666999999999 0.3333333 0.5 0.5 0.9786931800000001 0.02130682 0.98003802 0.01996198 0.5 0.5 0.5 0.5 0.7829787 0.2170213 0.7452471000000001 0.2547529 0.5 0.5 0.5 0.5 0.93852459 0.06147541 0.908 0.092 0.5 0.5 1 0 0.90309683 0.09690317 0.8868691 0.1131309 1 0 0.5 0.5 0.94656716 0.05343284 0.9505178399999999 0.04948216 0.5 0.5 1 0 0.8576439 0.1423561 0.8342773999999999 0.1657226 0.5 0.5 0.5 0.5 0.92481928 0.07518072000000001 0.92748324 0.07251676 0.5 0.5 1 0 0.8228601 0.1771399 0.7986791 0.2013209 1 0 0.5 0.5 0.91110088 0.08889912 0.899654 0.100346 0.5 0.5 0.5 0.5 1 0 1 0 0.5 0.5 0.5 0.5 1 0 0.5 0.5 0.5 0.5 0.5 0.5 0.95098039 0.04901961 0.95467422 0.04532578 0.5 0.5 0.5 0.5 0.95408163 0.04591837 0.98214286 0.01785714 0.5 0.5 0.5 0.5 0.94927536 0.05072464 0.93835616 0.06164384 0.5 0.5 0.5 0.5 0.93258427 0.06741572999999999 0.97619048 0.02380952 0.5 0.5 0.5 0.5 0.90794979 0.09205020999999999 0.92035398 0.07964602 0.5 0.5 0.5 0.5 0.97647059 0.02352941 1 0 0.5 0.5 0.5 0.5 0.94623656 0.05376344 0.91304348 0.08695652 0.5 0.5 0.5 0.5 0.97368421 0.02631579 0.75 0.25 0.5 0.5 0.5 0.5 0.98955614 0.01044386 0.98327759 0.01672241 0.5 0.5 0.5 0.5 1 0 1 0 0.5 0.5 0.5 0.5 0.92248062 0.07751938 0.95588235 0.04411765 0.5 0.5 0.5 0.5 0.91836735 0.08163265 1 0 0.5 0.5 0.5 0.5 0.98119743 0.01880257 0.99086758 0.00913242 0.5 0.5 0.5 0.5 0.97757848 0.02242152 0.9375 0.0625 0.5 0.5 0.5 0.5 0.97632653 0.02367347 0.9756944400000001 0.02430556 0.5 0.5 0.5 0.5 0.97652582 0.02347418 1 0 0.5 0.5 1 0 0.95395242 0.04604758 0.95468278 0.04531722 0.5 0.5 0.5 0.5 0.9813664600000001 0.01863354 0.98924731 0.01075269 0.5 0.5 1 0 0.95459364 0.04540636 0.96258566 0.03741434 1 0 0.5 0.5 0.95906433 0.04093567 0.9716981099999999 0.02830189 0.5 0.5 0.5 0.5 0.7268375 0.2731625 0.7607511 0.2392489 0.5 0.5 0.5 0.5 0.8371841 0.1628159 0.8695035 0.1304965 0.5 0.5 1 0 0.7284857 0.2715143 0.7480315 0.2519685 0.5 0.5 0.5 0.5 0.8561254 0.1438746 0.8466543 0.1533457 0.5 0.5 0.5 0.5 0.7109304 0.2890696 0.6976017 0.3023983 0.5 0.5 0.5 0.5 0.847619 0.152381 0.8594132 0.1405868 0.5 0.5 0.5 0.5 0.6928747 0.3071253 0.7076167 0.2923833 0.5 0.5 0.5 0.5 0.8478261 0.1521739 0.8696884 0.1303116 0.5 0.5 0.5 0.5 0.8940501 0.1059499 0.91751333 0.08248667 0.5 0.5 0.5 0.5 0.95121951 0.04878049 0.96593407 0.03406593 0.5 0.5 0.5 0.5 0.683087 0.316913 0.7006578999999999 0.2993421 0.5 0.5 0 1 0.8289655 0.1710345 0.878327 0.121673 0.5 0.5 0.5 0.5 0.8359442 0.1640558 0.8539628 0.1460372 0.8 0.2 1 0 0.9010645 0.0989355 0.92830298 0.07169702 1 0 1 0 0.7908677 0.2091323 0.8105806 0.1894194 0 1 0.5 0.5 0.8758435 0.1241565 0.8964099 0.1035901 0.5 0.5 0.5 0.5 0.7577502 0.2422498 0.7764222 0.2235778 0.5 0.5 1 0 0.8559884 0.1440116 0.877381 0.122619 1 0 0.5 0.5 1 0 1 0 0.5 0.5 0.5 0.5 0.5 0.5 0.5 0.5 0.5 0.5 0.5 0.5 0.90015848 0.09984152 0.91449814 0.08550186 0.5 0.5 0.5 0.5 0.8990385 0.1009615 0.96491228 0.03508772 0.5 0.5 0.5 0.5 0.8892617 0.1107383 0.8898305 0.1101695 0.5 0.5 0.5 0.5 0.8596491000000001 0.1403509 0.9444444400000001 0.05555556 0.5 0.5 0.5 0.5 0.8508065 0.1491935 0.95918367 0.04081633 0.5 0.5 0.5 0.5 0.90566038 0.09433962 0.92682927 0.07317073 0.5 0.5 0.5 0.5 0.8807339 0.1192661 0.95744681 0.04255319 0.5 0.5 0.5 0.5 0.8846154000000001 0.1153846 1 0 0.5 0.5 0.5 0.5 0.9732937699999999 0.02670623 0.97297297 0.02702703 0.5 0.5 0.5 0.5 0.94736842 0.05263158 1 0 0.5 0.5 0.5 0.5 0.8493976 0.1506024 0.8636364 0.1363636 0.5 0.5 0.5 0.5 0.8969072 0.1030928 0.96153846 0.03846154 0.5 0.5 0.5 0.5 0.95408632 0.04591368 0.95971564 0.04028436 0.5 0.5 0.5 0.5 0.93617021 0.06382979 0.97777778 0.02222222 0.5 0.5 0.5 0.5 0.93236715 0.06763284999999999 0.96103896 0.03896104 0.5 0.5 0.5 0.5 0.9444444400000001 0.05555556 0.97560976 0.02439024 0.5 0.5 0.5 0.5 0.8961694 0.1038306 0.8989011 0.1010989 0.5 0.5 0.5 0.5 0.8885449 0.1114551 0.9 0.1 0.5 0.5 0.5 0.5 0.94213105 0.05786895 0.96680054 0.03319946 0.5 0.5 0.5 0.5 0.97560976 0.02439024 0.98360656 0.01639344 0.5 0.5 0.5 0.5 0.7558672 0.2441328 0.8568551 0.1431449 0.5 0.5 1 0 0.8215358 0.1784642 0.9026642 0.0973358 0 1 0.5 0.5 0.7666459 0.2333541 0.8512586 0.1487414 0.5 0.5 0.5 0.5 0.8130841 0.1869159 0.8902248 0.1097752 0.5 0.5 0.5 0.5 0.7494941000000001 0.2505059 0.8352808 0.1647192 0.5 0.5 0.5 0.5 0.8081998 0.1918002 0.8763189 0.1236811 0.5 0.5 0.5 0.5 0.7278226 0.2721774 0.8344498 0.1655502 0.5 0.5 0.5 0.5 0.8036481 0.1963519 0.9054242 0.0945758 0.5 0.5 1 0 0.874297 0.125703 0.93386398 0.06613602 0.5 0.5 0.5 0.5 0.91906283 0.08093717 0.96432964 0.03567036 0 1 0.5 0.5 0.7438709999999999 0.256129 0.8194349 0.1805651 0.5 0.5 0.5 0.5 0.7846568 0.2153432 0.8712687 0.1287313 0.5 0.5 0.5 0.5 0.8268492 0.1731508 0.90071436 0.09928563999999999 0.5 0.5 0.5 0.5 0.8817604999999999 0.1182395 0.93615423 0.06384577 0.5 0.5 1 0 0.8035809 0.1964191 0.877695 0.122305 0 1 0.5 0.5 0.8437914 0.1562086 0.92165655 0.07834345 0.5 0.5 0.5 0.5 0.7846672 0.2153328 0.86081 0.13919 0.5 0.5 0.5 0.5 0.8296654999999999 0.1703345 0.9054194 0.0945806 0.5 0.5 0.5 0.5 1 0 1 0 0.5 0.5 0.5 0.5 0.5 0.5 0.5 0.5 0.5 0.5 0.5 0.5 0.8636364 0.1363636 0.94117647 0.05882353 0.5 0.5 0.5 0.5 0.92913386 0.07086613999999999 0.96296296 0.03703704 0.5 0.5 0.5 0.5 0.8471338 0.1528662 0.92207792 0.07792208 0.5 0.5 0.5 0.5 0.96428571 0.03571429 0.95238095 0.04761905 0.5 0.5 0.5 0.5 0.8163265 0.1836735 0.91891892 0.08108108 0.5 0.5 0.5 0.5 0.8513514 0.1486486 0.9375 0.0625 0.5 0.5 0.5 0.5 0.8115942 0.1884058 0.94594595 0.05405405 0.5 0.5 0.5 0.5 0.8684210999999999 0.1315789 0.9 0.1 0.5 0.5 0.5 0.5 0.97468354 0.02531646 0.96774194 0.03225806 0.5 0.5 0.5 0.5 1 0 1 0 0.5 0.5 0.5 0.5 0.8461538 0.1538462 0.8035714 0.1964286 0.5 0.5 0.5 0.5 0.8852459 0.1147541 0.8333333000000001 0.1666667 0.5 0.5 0.5 0.5 0.95280236 0.04719764 0.9556962 0.0443038 0.5 0.5 0.5 0.5 0.96078431 0.03921569 1 0 0.5 0.5 0.5 0.5 0.91721854 0.08278146 0.94029851 0.05970149 0.5 0.5 0.5 0.5 0.93150685 0.06849315 0.94736842 0.05263158 0.5 0.5 0.5 0.5 0.8755274 0.1244726 0.9504132199999999 0.04958678 0.5 0.5 0.5 0.5 0.8865248 0.1134752 1 0 0.5 0.5 0.5 0.5 0.96394687 0.03605313 0.9817296 0.0182704 1 0 0.5 0.5 1 0 1 0 0.5 0.5 0.5 0.5 0.8158386 0.1841614 0.9222278 0.0777722 1 0 0.5 0.5 0.8460177 0.1539823 0.91817434 0.08182565999999999 0.5 0.5 0.5 0.5 0.806231 0.193769 0.92265625 0.07734375 0.5 0.5 1 0 0.8372294 0.1627706 0.9287902 0.0712098 0.5 0.5 0.5 0.5 0.794422 0.205578 0.90562315 0.09437685 0.5 0.5 0.5 0.5 0.8285182 0.1714818 0.91564292 0.08435708 0.5 0.5 0.5 0.5 0.7927107 0.2072893 0.91208791 0.08791209 0.5 0.5 0.5 0.5 0.7977099 0.2022901 0.899177 0.100823 0.5 0.5 0 1 0.8900088 0.1099912 0.96474119 0.03525881 1 0 0.5 0.5 0.92910448 0.07089552 0.96747967 0.03252033 0.5 0.5 0.5 0.5 0.7893632 0.2106368 0.8948931 0.1051069 0.5 0.5 0.5 0.5 0.8049738 0.1950262 0.9191919200000001 0.08080808 0.5 0.5 0 1 0.8641484 0.1358516 0.95082097 0.04917903 0.5 0.5 0.5 0.5 0.897184 0.102816 0.95215563 0.04784437 0.5 0.5 0.5 0.5 0.8398719 0.1601281 0.94397463 0.05602537 1 0 0.5 0.5 0.8783552 0.1216448 0.95173042 0.04826958 0.5 0.5 0.5 0.5 0.8322981 0.1677019 0.93515764 0.06484236 1 0 0.5 0.5 0.8544367 0.1455633 0.93696669 0.06303331 0.5 0.5 0.5 0.5 1 0 0.5 0.5 0.5 0.5 0.5 0.5 0.5 0.5 0.5 0.5 0.5 0.5 0.5 0.5 0.8985507 0.1014493 0.9655172400000001 0.03448276 0.5 0.5 0.5 0.5 1 0 0.8571429 0.1428571 0.5 0.5 0.5 0.5 0.91666667 0.08333333 1 0 0.5 0.5 0.5 0.5 0.9 0.1 0.6666666999999999 0.3333333 0.5 0.5 0.5 0.5 0.8684210999999999 0.1315789 0.94117647 0.05882353 0.5 0.5 0.5 0.5 0.7272727 0.2727273 0.5 0.5 0.5 0.5 0.5 0.5 0.8571429 0.1428571 1 0 0.5 0.5 0.5 0.5 0.91666667 0.08333333 1 0 0.5 0.5 0.5 0.5 1 0 1 0 0.5 0.5 0.5 0.5 0.5 0.5 0.5 0.5 0.5 0.5 0.5 0.5 0.6896552 0.3103448 0.90909091 0.09090909 0.5 0.5 0.5 0.5 0.91666667 0.08333333 1 0 0.5 0.5 0.5 0.5 0.9787234 0.0212766 0.93548387 0.06451613 0.5 0.5 0.5 0.5 1 0 0.5 0.5 0.5 0.5 0.5 0.5 0.9399999999999999 0.06 1 0 0.5 0.5 0.5 0.5 1 0 1 0 0.5 0.5 0.5 0.5 0.9104477600000001 0.08955224000000001 0.93877551 0.06122449 0.5 0.5 0.5 0.5 0.875 0.125 1 0 0.5 0.5 0.5 0.5 0.95555556 0.04444444 1 0 0.5 0.5 0.5 0.5 0.5 0.5 0.5 0.5 0.5 0.5 0.5 0.5 0.8348624 0.1651376 0.95142379 0.04857621 0.5 0.5 0.5 0.5 0.94642857 0.05357143 0.95327103 0.04672897 0.5 0.5 0.5 0.5 0.8053097 0.1946903 0.94463668 0.05536332 0.5 0.5 0.5 0.5 0.88 0.12 0.95833333 0.04166667 0.5 0.5 0.5 0.5 0.8265306 0.1734694 0.94354839 0.05645161 0.5 0.5 0.5 0.5 0.8333333000000001 0.1666667 0.8857143 0.1142857 0.5 0.5 0.5 0.5 0.8648649 0.1351351 0.97674419 0.02325581 0.5 0.5 0.5 0.5 0.8888889 0.1111111 0.90909091 0.09090909 0.5 0.5 0.5 0.5 0.97402597 0.02597403 0.98412698 0.01587302 0.5 0.5 0.5 0.5 1 0 1 0 0.5 0.5 0.5 0.5 0.8723404 0.1276596 0.94545455 0.05454545 0.5 0.5 0.5 0.5 0.7272727 0.2727273 0.95833333 0.04166667 0.5 0.5 0.5 0.5 0.8860294 0.1139706 0.97816092 0.02183908 0.5 0.5 0.5 0.5 1 0 0.95 0.05 0.5 0.5 0.5 0.5 0.8851852 0.1148148 0.96584699 0.03415301 0.5 0.5 0.5 0.5 0.975 0.025 1 0 0.5 0.5 0.5 0.5 0.875 0.125 0.94782609 0.05217391 0.5 0.5 0.5 0.5 0.8666667 0.1333333 0.97637795 0.02362205 0.5 0.5 0.5 0.5 1 0 0.5 0.5 0.5 0.5 0.5 0.5 0.5 0.5 0.5 0.5 0.5 0.5 0.5 0.5 0.5 0.5 0.5 0.5 0.5 0.5 0.5 0.5 0.5 0.5 0.5 0.5 0.5 0.5 0.5 0.5 0.5 0.5 0.5 0.5 0.5 0.5 0.5 0.5 0.5 0.5 0.5 0.5 0.5 0.5 0.5 0.5 0.5 0.5 0.5 0.5 0.5 0.5 0.5 0.5 0.5 0.5 0.5 0.5 0.5 0.5 0.5 0.5 1 0 0.5 0.5 0.5 0.5 0.5 0.5 0.5 0.5 0.5 0.5 0.5 0.5 0.5 0.5 0.5 0.5 0.5 0.5 0.5 0.5 0.5 0.5 0.5 0.5 0.5 0.5 0.5 0.5 0.5 0.5 0.5 0.5 0.5 0.5 0.5 0.5 0.5 0.5 0.5 0.5 0.5 0.5 0.5 0.5 0.5 0.5 0.5 0.5 0.5 0.5 0.5 0.5 0.5 0.5 0.5 0.5 0.5 0.5 0.5 0.5 0.5 0.5 0.5 0.5 1 0 0.5 0.5 0.5 0.5 0.5 0.5 1 0 0.5 0.5 0.5 0.5 1 0 0.5 0.5 0.5 0.5 0.5 0.5 1 0 0.5 0.5 0.5 0.5</probabilities>
		</cpt>
		<cpt id="Emr_Surg">
			<state id="S0" />
			<state id="S1" />
			<parents>Age_At_Start_of_Spell_SUS Cancer</parents>
			<probabilities>0.98830864 0.01169136 0.998274871 0.001725129 1 0 0.5 0.5 0.97634484 0.02365516 0.990932642 0.009067357999999999 0.98571337 0.01428663 0.996374184 0.003625816 0.9872605800000001 0.01273942 0.993865031 0.006134969 0.98962474 0.01037526 0.9962676620000001 0.003732338 0.992591628 0.007408372 0.996578047 0.003421953 0.995840029 0.004159971 0.996721889 0.003278111 0.998352245 0.001647755 0.997790404 0.002209596 0.9996762182 0.0003237818 1 0</probabilities>
		</cpt>
		<cpt id="Impaired_Swallow_and_Aspiration">
			<state id="S0" />
			<state id="S1" />
			<parents>CKD Der_Diagnosis_Count Diabetes</parents>
			<probabilities>0.996353465 0.003646535 0.998958333 0.001041667 0.9400984100000001 0.05990159 0.96254597 0.03745403 0.93312331 0.06687669 0.95591435 0.04408565 0.9137179600000001 0.08628204 0.93871326 0.06128674 0.8897608 0.1102392 0.91991992 0.08008008 0.993259225 0.006740775 0.9963595629999999 0.003640437 0.8492053000000001 0.1507947 0.8928571 0.1071429 0.9861678 0.0138322 0.991859426 0.008140573999999999 0.97686906 0.02313094 0.98435934 0.01564066 0.96288909 0.03711091 0.97634466 0.02365534 1 0 1 0 0.9591394 0.0408606 0.97823098 0.02176902 0.95780903 0.04219097 0.97244259 0.02755741 0.94805195 0.05194805 0.95958333 0.04041667 0.9160696 0.0839304 0.94978723 0.05021277 0.993902439 0.006097561 1 0 0.90049751 0.09950249 0.91886305 0.08113695 0.991653508 0.008346492 0.991962492 0.008037508 0.98525195 0.01474805 0.98719044 0.01280956 0.97839056 0.02160944 0.98800081 0.01199919</probabilities>
		</cpt>
		<cpt id="Immuno">
			<state id="S0" />
			<state id="S1" />
			<parents>Age_At_Start_of_Spell_SUS Cancer Der_Diagnosis_Count</parents>
			<probabilities>0.91676121 0.08323878999999999 0.8764368 0.1235632 0.88 0.12 0.85 0.15 0.8 0.2 0.91928934 0.08071066 0.8333333000000001 0.1666667 0.91526084 0.08473915999999999 0.92517892 0.07482108 0.92016377 0.07983622999999999 0.9851301099999999 0.01486989 0.8666667 0.1333333 0.95238095 0.04761905 0.8571429 0.1428571 0.5 0.5 0.97894737 0.02105263 0.8 0.2 0.94382022 0.05617978 0.95808383 0.04191617 0.92857143 0.07142857 1 0 1 0 1 0 1 0 0.5 0.5 1 0 1 0 1 0 1 0 1 0 0.5 0.5 0.5 0.5 0.5 0.5 0.5 0.5 0.5 0.5 0.5 0.5 0.5 0.5 0.5 0.5 0.5 0.5 0.5 0.5 0.9385158 0.0614842 0.96360759 0.03639241 0.9444444400000001 0.05555556 0.92215569 0.07784431 0.98039216 0.01960784 0.94310435 0.05689565 0.859375 0.140625 0.96428571 0.03571429 0.9753979699999999 0.02460203 0.96851102 0.03148898 0.98876404 0.01123596 0.8666667 0.1333333 0.8947368 0.1052632 0.625 0.375 1 0 0.96089385 0.03910615 0.90909091 0.09090909 0.92063492 0.07936508 0.93478261 0.06521739 0.97183099 0.02816901 0.98345833 0.01654167 0.95100069 0.04899931 0.93478261 0.06521739 0.91135734 0.08864266 0.9 0.1 0.97291973 0.02708027 0.8209877 0.1790123 0.96132827 0.03867173 0.9602507 0.0397493 0.96333725 0.03666275 0.93258427 0.06741572999999999 0.8767123 0.1232877 0.9375 0.0625 0.8571429 0.1428571 0.6428571 0.3571429 0.95517241 0.04482759 0.8181818 0.1818182 0.9248927 0.0751073 0.90909091 0.09090909 0.93820225 0.06179775 0.98835248 0.01164752 0.92152835 0.07847165 0.9259962 0.07400379999999999 0.9135446699999999 0.08645533 0.8846154000000001 0.1153846 0.98709596 0.01290404 0.8486352 0.1513648 0.97114308 0.02885692 0.96446639 0.03553361 0.9569909 0.0430091 0.98795181 0.01204819 0.92682927 0.07317073 0.9444444400000001 0.05555556 0.9047619 0.09523810000000001 0.8461538 0.1538462 0.97368421 0.02631579 0.8857143 0.1142857 0.94369748 0.05630252 0.9427662999999999 0.0572337 0.92766727 0.07233273 0.99449404 0.00550596 0.94650713 0.05349287 0.9385929200000001 0.06140708 0.91370836 0.08629164 0.8983287 0.1016713 0.98963654 0.01036346 0.8327206 0.1672794 0.98409802 0.01590198 0.96761248 0.03238752 0.96044114 0.03955886 0.91906005 0.08093995 0.92616034 0.07383966 0.8886463 0.1113537 0.91483516 0.08516484000000001 0.93382353 0.06617647 0.95079695 0.04920305 0.8439306 0.1560694 0.9634757 0.0365243 0.95052083 0.04947917 0.94835219 0.05164781 0.996707217 0.003292783 0.95420588 0.04579412 0.95245108 0.04754892 0.94017333 0.05982667 0.92430279 0.07569721 0.994118205 0.005881795 0.8808125999999999 0.1191874 0.9888513 0.0111487 0.98396421 0.01603579 0.97297565 0.02702435 0.95309168 0.04690832 0.9310477700000001 0.06895223 0.94957983 0.05042017 0.92670157 0.07329843 0.90721649 0.09278351 0.9669299099999999 0.03307009 0.863711 0.136289 0.95803587 0.04196413 0.95612295 0.04387705 0.94732441 0.05267559 0.9988310929999999 0.001168907 0.97278667 0.02721333 0.9704123099999999 0.02958769 0.95824496 0.04175504 0.94371602 0.05628398 0.995927063 0.004072937 0.91780822 0.08219178000000001 0.993944922 0.006055078 0.990978038 0.009021962 0.98538072 0.01461928 0.96202532 0.03797468 0.94348042 0.05651958 0.95138178 0.04861822 0.93891798 0.06108202 0.90909091 0.09090909 0.9744898 0.0255102 0.88956 0.11044 0.97189612 0.02810388 0.96553165 0.03446835 0.9604371900000001 0.03956281 0.9996257485 0.0003742515 0.98185232 0.01814768 0.97683544 0.02316456 0.9705391 0.0294609 0.95950506 0.04049494 0.997181775 0.002818225 0.94435976 0.05564024 0.995693647 0.004306353 0.993502343 0.006497657 0.9875848699999999 0.01241513 0.9852941200000001 0.01470588 0.96022202 0.03977798 0.96980787 0.03019213 0.96157541 0.03842459 0.93243243 0.06756756999999999 0.98571429 0.01428571 0.90489914 0.09510086 0.98230563 0.01769437 0.9816273 0.0183727 0.97147651 0.02852349 1 0 0.98896247 0.01103753 0.98148148 0.01851852 0.97191011 0.02808989 0.97777778 0.02222222 1 0 0.95454545 0.04545455 0.994936709 0.005063291 0.9896616499999999 0.01033835 0.991701245 0.008298755 1 0 0.98648649 0.01351351 1 0 0.8378378 0.1621622 1 0 1 0 0.875 0.125 0.98113208 0.01886792 1 0 1 0</probabilities>
		</cpt>
		<cpt id="Tachycardia">
			<state id="S0" />
			<state id="S1" />
			<parents>Age_At_Start_of_Spell_SUS Der_Diagnosis_Count Hypotension</parents>
			<probabilities>0.997028006 0.002971994 1 0 0.93684211 0.06315788999999999 0.6923077 0.3076923 0.93717277 0.06282723 1 0 0.9223301 0.0776699 0.5 0.5 0.91666667 0.08333333 0.6666666999999999 0.3333333 0.98623482 0.01376518 1 0 0.8035714 0.1964286 0.75 0.25 0.97359134 0.02640866 0.7391304 0.2608696 0.95929204 0.04070796 0.8888889 0.1111111 0.95458758 0.04541242 0.9 0.1 1 0 0.5 0.5 0.5 0.5 1 0 1 0 0.5 0.5 1 0 0.5 0.5 0.5 0.5 0.5 0.5 1 0 0.5 0.5 1 0 0.5 0.5 1 0 1 0 0.8888889 0.1111111 0.5 0.5 1 0 1 0 0.995130108 0.004869892 1 0 0.92879257 0.07120743 0.7741935 0.2258065 0.92031873 0.07968127 0.75 0.25 0.8819876 0.1180124 0.8571429 0.1428571 0.8510638 0.1489362 0.7 0.3 0.98519357 0.01480643 0.93 0.07000000000000001 0.7457627 0.2542373 0.75 0.25 0.97529144 0.02470856 0.8905109 0.1094891 0.96164854 0.03835146 0.7924528 0.2075472 0.94511921 0.05488079 0.7887324 0.2112676 0.996417445 0.003582555 1 0 0.9425605500000001 0.05743945 0.8571429 0.1428571 0.94127517 0.05872483 0.7941176 0.2058824 0.91899441 0.08100559 0.90322581 0.09677419 0.8699187 0.1300813 0.6363636 0.3636364 0.98736462 0.01263538 0.94890511 0.05109489 0.91729323 0.08270677 0.8 0.2 0.97911705 0.02088295 0.93243243 0.06756756999999999 0.9652145600000001 0.03478544 0.8532110000000001 0.146789 0.95319741 0.04680259 0.8290598 0.1709402 0.9967621129999999 0.003237887 0.96774194 0.03225806 0.95607843 0.04392157 0.8769231 0.1230769 0.94954955 0.05045045 0.91428571 0.08571429 0.94972067 0.05027933 0.91935484 0.08064515999999999 0.91353383 0.08646616999999999 0.8484848 0.1515152 0.98807754 0.01192246 0.97637795 0.02362205 0.8943299 0.1056701 0.7764706 0.2235294 0.98246875 0.01753125 0.94776119 0.05223881 0.97433265 0.02566735 0.95151515 0.04848485 0.9639824299999999 0.03601757 0.8761905 0.1238095 0.995856064 0.004143936 1 0 0.96783578 0.03216422 0.94369369 0.05630631 0.96200664 0.03799336 0.9029126200000001 0.09708738 0.9409650899999999 0.05903491 0.92712551 0.07287449 0.92916667 0.07083333 0.9029850699999999 0.09701493 0.990289891 0.009710109 0.95714286 0.04285714 0.90973631 0.09026368999999999 0.8654545 0.1345455 0.98388689 0.01611311 0.96543779 0.03456221 0.97856601 0.02143399 0.91530945 0.08469055 0.97144285 0.02855715 0.90909091 0.09090909 0.995431784 0.004568216 1 0 0.97271967 0.02728033 0.93284365 0.06715635 0.96533923 0.03466077 0.9344894 0.0655106 0.95873726 0.04126274 0.91159136 0.08840864 0.9540658 0.0459342 0.92932862 0.07067138000000001 0.990810505 0.009189495000000001 0.98639456 0.01360544 0.93880266 0.06119734 0.8945518 0.1054482 0.98625371 0.01374629 0.96566524 0.03433476 0.98140816 0.01859184 0.96960926 0.03039074 0.9768162 0.0231838 0.95695971 0.04304029 0.995091164 0.004908836 0.96666667 0.03333333 0.97770849 0.02229151 0.9627204 0.0372796 0.97905504 0.02094496 0.95718363 0.04281637 0.97280819 0.02719181 0.95574388 0.04425612 0.96660595 0.03339405 0.95437956 0.04562044 0.993306019 0.006693981 1 0 0.95767196 0.04232804 0.92585895 0.07414105 0.9890967899999999 0.01090321 0.98191214 0.01808786 0.9874489 0.0125511 0.97993827 0.02006173 0.9836711 0.0163289 0.97581967 0.02418033 0.9963248810000001 0.003675119 1 0 0.98588365 0.01411635 0.97300337 0.02699663 0.98278658 0.01721342 0.96618852 0.03381148 0.97801047 0.02198953 0.95855473 0.04144527 0.97269231 0.02730769 0.95499022 0.04500978 0.995953844 0.004046156 1 0 0.968849 0.031151 0.94774347 0.05225653 0.992785695 0.007214305 0.993079585 0.006920415 0.991076437 0.008923563000000001 0.98598131 0.01401869 0.98847468 0.01152532 0.9815864 0.0184136 1 0 1 0 0.98324022 0.01675978 1 0 0.995249406 0.004750594 0.96296296 0.03703704 0.98245614 0.01754386 0.98039216 0.01960784 0.95121951 0.04878049 0.9047619 0.09523810000000001 0.994047619 0.005952381 1 0 0.975 0.025 0.9375 0.0625 0.998319328 0.001680672 0.97916667 0.02083333 0.996240602 0.003759398 1 0 0.990202939 0.009797060999999999 0.991869919 0.008130081000000001</probabilities>
		</cpt>
		<cpt id="Coma">
			<state id="S0" />
			<state id="S1" />
			<parents>Der_Diagnosis_Count Emr_Surg</parents>
			<probabilities>0.9997112201 0.0002887799 1 0 0.997318036 0.002681964 1 0 0.997198791 0.002801209 0.993377483 0.006622517 0.996009798 0.003990202 1 0 0.996312112 0.003687888 0.98571429 0.01428571 0.9992503545 0.0007496455 1 0 0.9947930230000001 0.005206977 0.99375 0.00625 0.998485929 0.001514071 1 0 0.998031272 0.001968728 1 0 0.997950935 0.002049065 1 0</probabilities>
		</cpt>
		<cpt id="Der_Procedure_Count">
			<state id="S_0_2_4_" />
			<state id="S_12_14_4_" />
			<state id="S_14_4_16_8_" />
			<state id="S_16_8_19_2_" />
			<state id="S_19_2_21_6_" />
			<state id="S_2_4_4_8_" />
			<state id="S_21_6_24_" />
			<state id="S_4_8_7_2_" />
			<state id="S_7_2_9_6_" />
			<state id="S_9_6_12_" />
			<parents>Age_At_Start_of_Spell_SUS Der_Diagnosis_Count Emr_Surg Immuno</parents>
			<probabilities>0.9020356 0.0002400499 9.601997e-05 2.400499e-05 2.400499e-05 0.0740314 4.800999e-05 0.01944404 0.002760574 0.00129627 0.9874147876 0 0 0 0 0.0073413739 0 0.0036706869 0.0010487677 0.0005243838 0.8717948720000001 0 0 0 0 0.086538462 0 0.036858974 0.003205128 0.001602564 1 0 0 0 0 0 0 0 0 0 0.74127907 0.002906977 0.002906977 0.002906977 0 0.084302326 0 0.06686046499999999 0.026162791 0.072674419 0.70833333 0.02083333 0 0 0 0.04166667 0 0.0625 0.04166667 0.125 0.1 0.1 0.1 0.1 0.1 0.1 0.1 0.1 0.1 0.1 1 0 0 0 0 0 0 0 0 0 0.774566474 0.005780347 0.005780347 0 0.005780347 0.10982659 0 0.06936416199999999 0.01734104 0.011560694 0.8 0 0.05 0.05 0 0.05 0 0.05 0 0 0 0 0 0 0 0 0 0 1 0 0.5 0 0 0 0 0 0 0 0.5 0 0.7 0.01111111 0 0.02222222 0 0.11111111 0.01111111 0.08888889 0.05555556 0 0.46666667 0 0 0.06666667 0 0.2 0 0.2 0 0.06666667 0 0 0 1 0 0 0 0 0 0 0 0 0 1 0 0 0 0 0 0 0.66666667 0 0 0 0.03333333 0.06666667 0.03333333 0.1 0 0.1 0.3333333 0 0 0.1111111 0.1111111 0.2222222 0 0.1111111 0.1111111 0 0.1 0.1 0.1 0.1 0.1 0.1 0.1 0.1 0.1 0.1 0.1 0.1 0.1 0.1 0.1 0.1 0.1 0.1 0.1 0.1 0.8983759843 0.0007874016 0.0005905512 9.842519999999999e-05 9.842519999999999e-05 0.0584153543 9.842519999999999e-05 0.0293307087 0.0073818898 0.0048228346 0.9474899020000001 0.001154068 0.000577034 0 0 0.029428736 0.000577034 0.013848817 0.004039238 0.00288517 0.773584906 0.006289308 0 0 0 0.094339623 0 0.094339623 0.025157233 0.006289308 0.5 0 0 0 0 0.25 0 0.21428571 0.03571429 0 0.5 0.0625 0.02083333 0 0 0.08333333 0.0625 0.0625 0.125 0.08333333 0.27272727 0 0 0 0 0.27272727 0.36363636 0 0 0.09090909 0.2 0.2 0 0 0.2 0.2 0 0.2 0 0 0.1 0.1 0.1 0.1 0.1 0.1 0.1 0.1 0.1 0.1 0.9081210828 0.0018669156 0.00120016 0.0004000533 0.0008001067 0.0429390585 0.0014668622 0.0261368182 0.008401120099999999 0.008667822400000001 0.915915916 0.006006006 0.003003003 0 0.001501502 0.037537538 0.001501502 0.018018018 0.006006006 0.010510511 0.55172414 0 0 0 0 0.22413793 0 0.13793103 0.06896552 0.01724138 0.52941176 0.05882353 0 0 0 0.23529412 0 0.11764706 0.05882353 0 0.8905155952 0.0012730745 0.0012730745 0.0038192234 0.0006365372 0.0407383832 0 0.0369191598 0.010821133 0.0140038192 0.833333333 0.008333333 0.008333333 0.008333333 0.008333333 0.075 0.008333333 0.033333333 0.008333333 0.008333333 0.45454545 0 0 0 0 0.18181818 0 0.18181818 0.09090909 0.09090909 0.5 0 0 0 0 0 0 0.5 0 0 0.845845846 0.008008008 0.002002002 0.004004004 0 0.052052052 0.005005005 0.047047047 0.017017017 0.019019019 0.82352941 0 0.01176471 0.02352941 0.01176471 0.07058824 0 0.05882353 0 0 0.25 0 0 0 0 0.25 0 0.25 0 0.25 0 0 0 0 0 0 0 0 1 0 1 0 0 0 0 0 0 0 0 0 0.1 0.1 0.1 0.1 0.1 0.1 0.1 0.1 0.1 0.1 0.1 0.1 0.1 0.1 0.1 0.1 0.1 0.1 0.1 0.1 0.1 0.1 0.1 0.1 0.1 0.1 0.1 0.1 0.1 0.1 1 0 0 0 0 0 0 0 0 0 0.1 0.1 0.1 0.1 0.1 0.1 0.1 0.1 0.1 0.1 0.1 0.1 0.1 0.1 0.1 0.1 0.1 0.1 0.1 0.1 0.1 0.1 0.1 0.1 0.1 0.1 0.1 0.1 0.1 0.1 0 0 0 0 0 0 0.5 0.5 0 0 0.1 0.1 0.1 0.1 0.1 0.1 0.1 0.1 0.1 0.1 0.1 0.1 0.1 0.1 0.1 0.1 0.1 0.1 0.1 0.1 0.1 0.1 0.1 0.1 0.1 0.1 0.1 0.1 0.1 0.1 0 0 0 1 0 0 0 0 0 0 0.1 0.1 0.1 0.1 0.1 0.1 0.1 0.1 0.1 0.1 0.1 0.1 0.1 0.1 0.1 0.1 0.1 0.1 0.1 0.1 0.1 0.1 0.1 0.1 0.1 0.1 0.1 0.1 0.1 0.1 0.1 0.1 0.1 0.1 0.1 0.1 0.1 0.1 0.1 0.1 0.1 0.1 0.1 0.1 0.1 0.1 0.1 0.1 0.1 0.1 0.1 0.1 0.1 0.1 0.1 0.1 0.1 0.1 0.1 0.1 0.1 0.1 0.1 0.1 0.1 0.1 0.1 0.1 0.1 0.1 0.80769231 0 0 0 0 0.11538462 0 0.03846154 0 0.03846154 0.1 0.1 0.1 0.1 0.1 0.1 0.1 0.1 0.1 0.1 0.1 0.1 0.1 0.1 0.1 0.1 0.1 0.1 0.1 0.1 0.1 0.1 0.1 0.1 0.1 0.1 0.1 0.1 0.1 0.1 0 0 0 0 0 0 0 0 1 0 0.1 0.1 0.1 0.1 0.1 0.1 0.1 0.1 0.1 0.1 0.1 0.1 0.1 0.1 0.1 0.1 0.1 0.1 0.1 0.1 0.1 0.1 0.1 0.1 0.1 0.1 0.1 0.1 0.1 0.1 0.83333333 0 0 0 0 0.08333333 0 0.08333333 0 0 0.1 0.1 0.1 0.1 0.1 0.1 0.1 0.1 0.1 0.1 0.1 0.1 0.1 0.1 0.1 0.1 0.1 0.1 0.1 0.1 0.1 0.1 0.1 0.1 0.1 0.1 0.1 0.1 0.1 0.1 0.7777778 0 0 0 0 0 0 0.1111111 0 0.1111111 0.1 0.1 0.1 0.1 0.1 0.1 0.1 0.1 0.1 0.1 0.1 0.1 0.1 0.1 0.1 0.1 0.1 0.1 0.1 0.1 0.1 0.1 0.1 0.1 0.1 0.1 0.1 0.1 0.1 0.1 0 0 0 0 0 0.5 0 0.5 0 0 0.1 0.1 0.1 0.1 0.1 0.1 0.1 0.1 0.1 0.1 0.1 0.1 0.1 0.1 0.1 0.1 0.1 0.1 0.1 0.1 0.1 0.1 0.1 0.1 0.1 0.1 0.1 0.1 0.1 0.1 0.8749313 0.000226398 3.234257e-05 0.0001293703 3.234257e-05 0.07891587999999999 6.468515000000001e-05 0.03890811 0.004560303 0.002199295 0.9722222222 0 0 0 0 0.0205938697 0 0.0052681992 0.0004789272 0.0014367816 0.826678766 0 0 0 0 0.098911071 0 0.06352087100000001 0.00907441 0.001814882 0.8 0 0 0 0 0 0 0 0.2 0 0.73250389 0.00622084 0.00777605 0.01244168 0.00155521 0.07931571 0.009331259999999999 0.06687403 0.03421462 0.04976672 0.31034483 0.03448276 0 0 0 0.24137931 0 0.20689655 0.13793103 0.06896552 0 0 0 0.2 0 0 0.4 0.2 0 0.2 0.1 0.1 0.1 0.1 0.1 0.1 0.1 0.1 0.1 0.1 0.71541502 0.011857708 0.015810277 0.007905138000000001 0 0.079051383 0.043478261 0.055335968 0.035573123 0.035573123 0.625 0.0625 0 0 0 0.0625 0.0625 0.125 0 0.0625 0 0 0 0 0 0.5 0 0 0.5 0 0.1 0.1 0.1 0.1 0.1 0.1 0.1 0.1 0.1 0.1 0.632911392 0.006329114 0.006329114 0.03164557 0.006329114 0.082278481 0.075949367 0.101265823 0.025316456 0.03164557 0.25 0 0 0 0 0.25 0.1875 0.0625 0 0.25 0 0 0 0 0 0 1 0 0 0 0.1 0.1 0.1 0.1 0.1 0.1 0.1 0.1 0.1 0.1 0.38181818 0.01818182 0.01818182 0 0.03636364 0.12727273 0.14545455 0.12727273 0.09090909 0.05454545 0 0 0 0 1 0 0 0 0 0 0 0 0 0 0 0 1 0 0 0 0.1 0.1 0.1 0.1 0.1 0.1 0.1 0.1 0.1 0.1 0.8259786644 0.0014568354 0.0010808779 0.0006579257 0.0002349734 0.0885379952 0.0002349734 0.0614220593 0.011654683 0.0087410123 0.9076923077 0.0015384615 0.0007692308 0 0 0.0507692308 0 0.03 0.0053846154 0.0038461538 0.675789474 0 0 0.002105263 0 0.202105263 0 0.082105263 0.018947368 0.018947368 0.5555556 0 0 0.1111111 0 0.3333333 0 0 0 0 0.25396825 0.03174603 0.06349206 0.04761905 0.03174603 0.14285714 0.23809524 0.09523810000000001 0.03174603 0.06349206 0.2 0 0.1 0 0.1 0.1 0.2 0.1 0 0.2 0 0 0 0 0 0 0 0.5 0 0.5 0.1 0.1 0.1 0.1 0.1 0.1 0.1 0.1 0.1 0.1 0.8284777303 0.0029743746 0.0016015863 0.0016778523 0.0005338621 0.0684868822 0.0015253203 0.0636821232 0.0160158633 0.0150244051 0.78207739 0.01221996 0.00203666 0 0 0.07331976 0.00407332 0.08146639999999999 0.0305499 0.01425662 0.45962733 0 0.00621118 0.01863354 0 0.27329193 0 0.18012422 0.0310559 0.0310559 0.5 0 0 0 0.08333333 0.08333333 0 0.25 0.08333333 0 0.822670172 0.006719252 0.004966404 0.00204499 0.001460707 0.066316097 0.003505697 0.0543383 0.020157756 0.017820625 0.64772727 0.01136364 0.02272727 0.01136364 0 0.06818182 0 0.11363636 0.07954545 0.04545455 0.33333333 0.03030303 0.03030303 0 0 0.18181818 0 0.18181818 0.09090909 0.15151515 0.3333333 0 0 0 0 0.3333333 0 0.3333333 0 0 0.800181653 0.007720254 0.006357856 0.006811989 0.004087193 0.066757493 0.008174387 0.053587648 0.02270663 0.023614896 0.55882353 0.01470588 0.02941176 0 0 0.07352941 0.05882353 0.13235294 0.08823528999999999 0.04411765 0.25 0.05 0.1 0.05 0.05 0.1 0 0.25 0 0.15 0.25 0 0 0 0 0.25 0 0 0.25 0.25 0.8935293 0.000232118 0.0001785523 8.927615e-05 3.571046e-05 0.06074349 5.356569e-05 0.03953148 0.003821019 0.001785523 0.919708029 0 0 0 0 0.045881126 0 0.030239833 0.002085506 0.002085506 0.671345029 0.002339181 0 0 0 0.122807018 0 0.161403509 0.029239766 0.012865497 0.5 0 0 0 0 0 0 0.5 0 0 0.7092942 0.007686932 0.006289308 0.009084556000000001 0.00698812 0.085953878 0.013277428 0.083857442 0.032145353 0.045422781 0.48101266 0 0.02531646 0.02531646 0.01265823 0.16455696 0.05063291 0.11392405 0.05063291 0.07594937 0.18181818 0.09090909 0.09090909 0 0 0.09090909 0 0.09090909 0.09090909 0.36363636 0 0 0 0 0 0 0 0 0 1 0.678141136 0.010327022 0.017211704 0.005163511 0.005163511 0.09982788300000001 0.017211704 0.09982788300000001 0.034423408 0.032702238 0.48780488 0.02439024 0.02439024 0 0 0.09756098000000001 0.02439024 0.09756098000000001 0.12195122 0.12195122 0.125 0 0.125 0 0 0.125 0.125 0.125 0.25 0.125 0.1 0.1 0.1 0.1 0.1 0.1 0.1 0.1 0.1 0.1 0.602272727 0.036931818 0.019886364 0.008522727000000001 0.005681818 0.090909091 0.039772727 0.119318182 0.017045455 0.059659091 0.28571429 0.02857143 0.05714286 0.05714286 0.08571429 0.14285714 0.05714286 0.05714286 0.11428571 0.11428571 0 0 0 0 0 1 0 0 0 0 0 0 0 0 0 0 0 1 0 0 0.50877193 0.01754386 0.05263158 0.02631579 0.03508772 0.09649123 0.07017544000000001 0.07017544000000001 0.06140351 0.06140351 0.17647059 0.05882353 0 0 0.11764706 0.05882353 0.11764706 0.11764706 0.23529412 0.11764706 0 0 0 0 0 0 0.6666666999999999 0.3333333 0 0 0.1 0.1 0.1 0.1 0.1 0.1 0.1 0.1 0.1 0.1 0.8042675819 0.0011008937 0.0006799637 0.0008742391 0.000291413 0.09717005569999999 0.0001618961 0.0754759746 0.0127250356 0.0072529465 0.739030023 0.002309469 0.001154734 0.002309469 0 0.137413395 0 0.09237875299999999 0.019630485 0.005773672 0.551383399 0.003952569 0 0 0 0.166007905 0 0.187747036 0.065217391 0.0256917 0.30769231 0 0 0 0 0.15384615 0 0.46153846 0.07692308 0 0.36428571 0.05 0.02142857 0.02857143 0.01428571 0.13571429 0.2 0.07142857 0.06428571 0.05 0.19354839 0.06451613 0.03225806 0.09677419 0 0.09677419 0.32258065 0.06451613 0.06451613 0.06451613 0 0 0 0 0 0 1 0 0 0 0.1 0.1 0.1 0.1 0.1 0.1 0.1 0.1 0.1 0.1 0.7790108103 0.0036831532 0.0022003253 0.0011001626 0.0003826653 0.0946139864 0.0011958289 0.0843776906 0.0195637616 0.0138716158 0.705813953 0.001162791 0.001162791 0.002325581 0.002325581 0.112790698 0.002325581 0.110465116 0.036046512 0.025581395 0.372340426 0.021276596 0.003546099 0.017730496 0 0.209219858 0 0.24822695 0.092198582 0.035460993 0.3 0 0.1 0.1 0 0.1 0 0.2 0.1 0.1 0.769373004 0.005042864 0.003025719 0.003193814 0.001680955 0.08808203100000001 0.00336191 0.08572869399999999 0.020003362 0.020507648 0.584313725 0.003921569 0.011764706 0.011764706 0.003921569 0.156862745 0.007843137 0.098039216 0.054901961 0.066666667 0.26415094 0 0 0.03773585 0 0.13207547 0.01886792 0.30188679 0.13207547 0.11320755 0 0 0.25 0 0 0.25 0 0.5 0 0 0.7441037740000001 0.006839623 0.005424528 0.003773585 0.002122642 0.084198113 0.007311321 0.085377358 0.028066038 0.032783019 0.469512195 0.030487805 0.012195122 0.030487805 0.006097561 0.109756098 0.030487805 0.158536585 0.048780488 0.103658537 0.19230769 0.07692308 0 0 0.03846154 0.19230769 0.03846154 0.11538462 0.03846154 0.30769231 0.3333333 0 0 0 0 0.3333333 0 0 0 0.3333333 0.8112556 0.0006422608 0.0002007065 0.0002408478 0.0001204239 0.09252568999999999 8.028259e-05 0.08273121 0.007907836 0.004295119 0.889261745 0.003355705 0 0 0 0.063758389 0 0.033557047 0.006711409 0.003355705 0.52863436 0 0 0 0 0.11453744 0 0.3061674 0.03524229 0.0154185 1 0 0 0 0 0 0 0 0 0 0.645424837 0.011437908 0.006944444 0.004493464 0.001633987 0.110702614 0.008169935 0.120915033 0.031045752 0.059232026 0.44019139 0.02392344 0.01913876 0.01435407 0.01435407 0.10526316 0.03827751 0.13875598 0.08133971 0.12440191 0.08695652 0.08695652 0.04347826 0.04347826 0 0.13043478 0.13043478 0.13043478 0.08695652 0.26086957 0.1 0.1 0.1 0.1 0.1 0.1 0.1 0.1 0.1 0.1 0.630755064 0.018416206 0.016574586 0.004604052 0.004604052 0.119705341 0.012891344 0.116022099 0.039594843 0.036832413 0.42857143 0.02380952 0.10714286 0.04761905 0.01190476 0.08333333 0.05952381 0.13095238 0.02380952 0.08333333 0 0.1111111 0 0.1111111 0.1111111 0.3333333 0.2222222 0.1111111 0 0 0 0 0 0 0 0 0 1 0 0 0.610241821 0.021337127 0.008534851 0.011379801 0.0056899 0.110953058 0.036984353 0.122332859 0.032716927 0.039829303 0.25757576 0.04545455 0.04545455 0.06060606 0 0.16666667 0.06060606 0.1969697 0.06060606 0.10606061 0 0 0 0.1428571 0.1428571 0 0.5714286 0 0.1428571 0 0 0 0 0 0 0 0 0 0.5 0.5 0.45945946 0.02316602 0.04247104 0.05019305 0.02316602 0.1042471 0.05019305 0.11969112 0.04247104 0.08494208 0.2 0.05714286 0.02857143 0.05714286 0 0.2 0.14285714 0.17142857 0.05714286 0.08571429 0 0 0 0 0 0.25 0.25 0 0.25 0.25 0 0 0 0 0 0 0 0 0 1 0.8033103 0.001740616 0.00104437 0.0004747136 9.494272e-05 0.08791696 0.000221533 0.08443572000000001 0.01227926 0.008481549 0.655581948 0.004750594 0.002375297 0.002375297 0 0.156769596 0 0.114014252 0.038004751 0.026128266 0.362944162 0.005076142 0.002538071 0.002538071 0.002538071 0.185279188 0 0.30964467 0.088832487 0.040609137 0.1666667 0 0 0 0 0.3333333 0 0.5 0 0 0.38847118 0.03258145 0.03007519 0.04511278 0.01253133 0.10776942 0.15538847 0.10275689 0.06516291 0.06015038 0.21538462 0.06153846 0.06153846 0.06153846 0 0.09230769 0.18461538 0.18461538 0.01538462 0.12307692 0 0 0 0 0 0 0.6 0 0 0.4 0 0 0 0.25 0 0 0.75 0 0 0 0.7515545855 0.0024708644 0.0019766915 0.0013177943 0.0006588972 0.1050117366 0.0009471647 0.1015113454 0.0193962855 0.0151546349 0.5984147950000001 0.00660502 0.001321004 0.002642008 0 0.165125495 0.00660502 0.132100396 0.046235139 0.040951123 0.239543726 0.030418251 0.003802281 0.007604563 0.003802281 0.228136882 0 0.269961977 0.159695817 0.057034221 0.3333333 0 0 0 0 0.3333333 0 0 0.1666667 0.1666667 0.7421664124 0.0056331417 0.0038727849 0.0025818566 0.0009388569 0.09329890859999999 0.0034033564 0.1050346203 0.0246449947 0.0184250675 0.496969697 0.015151515 0.012121212 0.006060606 0.003030303 0.190909091 0.009090908999999999 0.175757576 0.048484848 0.042424242 0.07594937 0.01265823 0.01265823 0.02531646 0.01265823 0.21518987 0.03797468 0.32911392 0.17721519 0.10126582 0 0 0 0 0 0 0 1 0 0 0.714778177 0.007494005 0.005095923 0.004496403 0.001948441 0.101468825 0.003597122 0.107014388 0.028477218 0.025629496 0.490566038 0.018867925 0.012578616 0.012578616 0.009433962000000001 0.163522013 0.009433962000000001 0.135220126 0.06918239 0.078616352 0.10204082 0.04081633 0.04081633 0.04081633 0 0.2244898 0.04081633 0.2244898 0.16326531 0.12244898 0 0 0 0 0 0 1 0 0 0 0.7891695 0.0008026541 0.0005351027 0.0001070205 5.351027e-05 0.1020976 0.0001070205 0.09214469 0.00984589 0.005136986 0.805970149 0 0.007462687 0 0 0.141791045 0 0.029850746 0.014925373 0 0.384328358 0.003731343 0.003731343 0 0 0.123134328 0.003731343 0.417910448 0.041044776 0.02238806 0.1 0.1 0.1 0.1 0.1 0.1 0.1 0.1 0.1 0.1 0.658842444 0.008199357000000001 0.006270096 0.004019293 0.003376206 0.115434084 0.004983923 0.109003215 0.040192926 0.049678457 0.406504065 0.016260163 0.008130081000000001 0.008130081000000001 0.005420054 0.149051491 0.01897019 0.162601626 0.059620596 0.165311653 0.02702703 0.05405405 0.02702703 0.02702703 0 0.18918919 0.02702703 0.18918919 0.16216216 0.2972973 0 0 0.2 0 0 0 0 0 0.2 0.6 0.638971684 0.01266766 0.011177347 0.010432191 0.004470939 0.120342772 0.008941878 0.110655738 0.042846498 0.039493294 0.37623762 0.01980198 0.05940594 0.04455446 0.01980198 0.13366337 0.02970297 0.12871287 0.08415842 0.1039604 0 0 0.09677419 0.06451613 0 0.29032258 0.12903226 0.19354839 0.09677419 0.12903226 0.1 0.1 0.1 0.1 0.1 0.1 0.1 0.1 0.1 0.1 0.56905242 0.01814516 0.01461694 0.01159274 0.01058468 0.11643145 0.01360887 0.13054435 0.05493952 0.06048387 0.29411765 0.02673797 0.05347594 0.02673797 0.02673797 0.13903743 0.0802139 0.15508021 0.09090909 0.10695187 0.04545455 0.09090909 0.04545455 0.09090909 0.04545455 0.18181818 0.04545455 0.18181818 0.13636364 0.13636364 0 0.5 0 0 0 0 0.5 0 0 0 0.48825065 0.03394256 0.02088773 0.03524804 0.02219321 0.10835509 0.02872063 0.12663185 0.0613577 0.07441253 0.36708861 0.07594937 0.01265823 0.05063291 0.05063291 0.03797468 0.10126582 0.21518987 0.03797468 0.05063291 0 0.1666667 0.1666667 0 0.3333333 0.1666667 0 0.1666667 0 0 0 0 0.3333333 0.3333333 0 0 0 0 0.3333333 0 0.757156214 0.0017620829 0.0008990219 0.000575374 0.000287687 0.1093929804 0.0003596087 0.1042865362 0.0154272152 0.009853279600000001 0.6389684799999999 0.00286533 0 0.00286533 0.00286533 0.1260745 0 0.15472779 0.02578797 0.04584527 0.241721854 0.013245033 0 0.003311258 0 0.145695364 0 0.443708609 0.099337748 0.052980132 0 0 0 0 0 0.5 0 0.5 0 0 0.4032882 0.03965184 0.02514507 0.03868472 0.01257253 0.11508704 0.08897484999999999 0.12862669 0.05222437 0.09574468 0.21182266 0.03940887 0.04433498 0.0591133 0.02463054 0.14285714 0.19704433 0.08866995 0.07881773 0.11330049 0 0.05555556 0 0.16666667 0 0.16666667 0.38888889 0 0.05555556 0.16666667 0 0.1666667 0 0.1666667 0 0.1666667 0.3333333 0 0 0.1666667 0.7562963765 0.0029518496 0.0017331961 0.0012998971 0.0004603802 0.1035043059 0.0007853545 0.0989275849 0.0189297514 0.0151113037 0.548048048 0.012012012 0.003003003 0.004504505 0.003003003 0.163663664 0.003003003 0.16966967 0.061561562 0.031531532 0.134375 0.028125 0.021875 0.0125 0.003125 0.225 0.003125 0.390625 0.125 0.05625 0 0 0 0 0 0 0 0.4285714 0.4285714 0.1428571 0.724830042 0.004208482 0.003172548 0.001618647 0.00110068 0.108514082 0.002330851 0.108255099 0.02557462 0.02039495 0.557377049 0.012750455 0.007285974 0.005464481 0 0.14571949 0.005464481 0.183970856 0.027322404 0.054644809 0.09756097599999999 0.048780488 0.024390244 0.008130081000000001 0.016260163 0.18699187 0.008130081000000001 0.382113821 0.12195122 0.105691057 0.1666667 0 0 0 0 0.3333333 0 0.3333333 0 0.1666667 0.700592743 0.007300853 0.003541998 0.004120283 0.002096285 0.112910221 0.003469712 0.109006795 0.028552841 0.028408269 0.483221477 0.026845638 0.020134228 0.005033557 0.013422819 0.134228188 0.006711409 0.159395973 0.067114094 0.083892617 0.0625 0.053571429 0.071428571 0.008928571 0.008928571 0.3125 0.017857143 0.214285714 0.133928571 0.116071429 0 0.25 0 0 0 0 0 0.25 0.25 0.25 0.8149823 0.0006205674 0.0002659574 0.000177305 0 0.09193262000000001 8.865248e-05 0.07686170000000001 0.009929077999999999 0.005141844 0.63793103 0.01724138 0 0.01724138 0 0.13793103 0 0.17241379 0 0.01724138 0.3125 0 0 0 0 0.109375 0 0.53125 0.03125 0.015625 0.1 0.1 0.1 0.1 0.1 0.1 0.1 0.1 0.1 0.1 0.6726107322 0.0069027858 0.0048483852 0.004026625 0.0007395842 0.1124167968 0.0026296327 0.1111019804 0.0399375462 0.0447859315 0.46213292 0.01700155 0.00618238 0.00927357 0.00927357 0.13910355 0.00927357 0.15919629 0.08037094 0.10819165 0.02409639 0.03614458 0.01204819 0.01204819 0 0.21686747 0.04819277 0.24096386 0.15662651 0.25301205 0 0 0 0 0.25 0 0 0 0 0.75 0.663526484 0.012619979 0.009420547 0.007643086 0.00373267 0.110913615 0.006576609 0.112513331 0.039637398 0.033416282 0.48070175 0.02105263 0.04210526 0.01403509 0.01052632 0.11929825 0.02105263 0.16491228 0.06666667 0.05964912 0.03225806 0.09677419 0.16129032 0 0 0.29032258 0.06451613 0.09677419 0.16129032 0.09677419 0 0 0 0 0 0 1 0 0 0 0.5937202660000001 0.023549001 0.010466223 0.009752617 0.005233111 0.129162702 0.008563273 0.127973359 0.050190295 0.041389153 0.46808511 0.0177305 0.02836879 0.02836879 0 0.12765957 0.02836879 0.14539007 0.07446809 0.08156028 0 0.13636364 0.02272727 0.09090909 0.04545455 0.09090909 0.15909091 0.27272727 0.11363636 0.06818182 0 0.5 0 0 0 0 0 0.5 0 0 0.53712297 0.02320186 0.01856148 0.0162413 0.01450116 0.12529002 0.01450116 0.13109049 0.06844548 0.05104408 0.30612245 0.04081633 0.04081633 0.02040816 0.03401361 0.18367347 0.06802721 0.1292517 0.07482993 0.10204082 0 0.05 0.05 0 0.2 0.15 0.15 0.2 0.15 0.05 0 0 0 0.3333333 0.6666666999999999 0 0 0 0 0 0.7825915 0.001495426 0.0008796622 0.0004838142 8.796622000000001e-05 0.104196 0.0001319493 0.08713054000000001 0.01425053 0.008752639 0.587301587 0.010582011 0 0.005291005 0 0.164021164 0.005291005 0.137566138 0.042328042 0.047619048 0.248618785 0.011049724 0.011049724 0 0 0.187845304 0.005524862 0.325966851 0.165745856 0.044198895 0 0 0 0 0 0 0 1 0 0 0.46936275 0.03267974 0.02941176 0.02614379 0.01062092 0.12663399 0.05310458 0.12091503 0.06985294 0.06127451 0.267062315 0.053412463 0.047477745 0.041543027 0.008902077 0.12462908 0.127596439 0.15727003 0.08308605300000001 0.089020772 0 0 0.03448276 0.10344828 0.06896552 0.03448276 0.4137931 0 0.13793103 0.20689655 0 0 0.1 0 0 0.1 0.5 0 0 0.3 0.7672820638 0.0018828708 0.0009292089 0.0011492848 0.0002934344 0.1063210661 0.0005624159 0.0907445898 0.0177772344 0.013057831 0.603125 0.0109375 0.003125 0.003125 0.0046875 0.140625 0.0015625 0.13125 0.059375 0.0421875 0.072243346 0.030418251 0.007604563 0.003802281 0 0.231939163 0 0.399239544 0.159695817 0.095057034 0 0 0 0 0 0.3333333 0 0.6666666999999999 0 0 0.7536312849 0.0030941126 0.0019338204 0.0011173184 0.0005586592 0.1051998281 0.0009024495 0.0936398797 0.0219596046 0.0179630425 0.572874494 0.010121457 0.008097165999999999 0.01417004 0.002024291 0.111336032 0.008097165999999999 0.16194332 0.05465587 0.056680162 0.07453416 0.04968944 0.01863354 0.00621118 0 0.23602484 0.00621118 0.35403727 0.11180124 0.14285714 0.5 0 0 0 0 0 0 0.5 0 0 0.7286937723 0.0050719215 0.0033258502 0.0023280951 0.0009146088 0.1076328261 0.0023280951 0.1009811258 0.0272303983 0.0214933067 0.555555556 0.015151515 0.011363636 0.01010101 0.001262626 0.143939394 0.007575758 0.138888889 0.058080808 0.058080808 0.05147059 0.02205882 0.02941176 0.02205882 0.02205882 0.22058824 0.02205882 0.30882353 0.11029412 0.19117647 0 0 0 0 0 0.3333333 0.1666667 0.1666667 0 0.3333333 0.8643448954 0.0002808594 0.0002808594 0.0001404297 0 0.0776576324 0 0.0481673922 0.0060384777 0.0030894537 1 0 0 0 0 0 0 0 0 0 0.05263158 0 0 0 0 0.36842105 0 0.47368421 0.10526316 0 0.1 0.1 0.1 0.1 0.1 0.1 0.1 0.1 0.1 0.1 0.7333215516 0.0039321375 0.0016347088 0.0014138022 0.0006627198 0.1065211629 0.0013696209 0.09216223380000001 0.0286736768 0.0303083856 0.55437666 0.007957560000000001 0.0066313 0.00928382 0.00265252 0.13925729 0.00928382 0.11671088 0.05570292 0.09814324000000001 0.02439024 0.01219512 0.08536584999999999 0.01219512 0 0.18292683 0 0.35365854 0.1097561 0.2195122 0 0 0 0 0 0.3333333 0 0 0.3333333 0.3333333 0.712635247 0.007427104 0.006418485 0.002750779 0.001558775 0.112506877 0.003025857 0.096460664 0.032734275 0.024481937 0.52303523 0.01897019 0.029810298 0.005420054 0.013550136 0.154471545 0.013550136 0.124661247 0.078590786 0.037940379 0.02631579 0.07894737 0.15789474 0.05263158 0.02631579 0.10526316 0.05263158 0.21052632 0.21052632 0.07894737 0 0.3333333 0 0 0 0 0.3333333 0 0 0.3333333 0.671137888 0.010117085 0.007275207 0.006024781 0.002159827 0.120040923 0.003978629 0.110378538 0.036717063 0.032170058 0.54086538 0.02163462 0.01442308 0.02403846 0.01201923 0.15625 0.01442308 0.12740385 0.04807692 0.04086538 0.04347826 0.06521739 0.10869565 0.06521739 0.04347826 0.06521739 0.10869565 0.2173913 0.15217391 0.13043478 0 0 0 0 0 0 0.25 0.25 0.25 0.25 0.621055571 0.017034348 0.009215302999999999 0.007819045 0.006422787 0.122591455 0.009494555 0.115610165 0.048869031 0.041887741 0.445833333 0.029166667 0.0125 0.008333333 0.025 0.1125 0.0375 0.145833333 0.09166666699999999 0.09166666699999999 0 0.15 0.05 0.15 0.05 0.05 0.1 0.15 0.15 0.15 0 1 0 0 0 0 0 0 0 0 0.8277572681000001 0.0008075681 0.0003461006 0.0003461006 0.0002307337 0.0913705584 0.0001730503 0.0641439778 0.008825565299999999 0.0059990771 0.625 0.009615385000000001 0 0.009615385000000001 0 0.096153846 0 0.182692308 0.028846154 0.048076923 0.19767442 0.03488372 0.01162791 0.01162791 0 0.1744186 0 0.40697674 0.10465116 0.05813953 0 0 0 0 0 0 0 0 0 1 0.520319028 0.025066464 0.017660463 0.014812002 0.006646411 0.131029244 0.024496772 0.13805545 0.063995442 0.057918724 0.32539683 0.04166667 0.03373016 0.02777778 0.02380952 0.13888889 0.06547619 0.15079365 0.07539683 0.11706349 0.01886792 0.05660377 0.03773585 0.03773585 0.0754717 0.0754717 0.33962264 0.1509434 0.0754717 0.13207547 0 0 0.125 0.125 0.125 0.125 0.5 0 0 0 0.8145635865 0.0014599524 0.0006513634 0.0003593729 0.0001572256 0.0925160595 0.0004042945 0.0689322133 0.013072189 0.007883742900000001 0.632911392 0.012658228 0.002531646 0.002531646 0.002531646 0.101265823 0.005063291 0.141772152 0.063291139 0.035443038 0.086206897 0.005747126 0.017241379 0.005747126 0 0.310344828 0.005747126 0.32183908 0.155172414 0.091954023 0.5 0 0 0 0 0.5 0 0 0 0 0.7984288297 0.002338051 0.0010287424 0.0009975684 0.0001870441 0.09361556209999999 0.0006858283 0.0744747179 0.0166157491 0.011627907 0.611650485 0.007281553 0.012135922 0.004854369 0.002427184 0.118932039 0.007281553 0.152912621 0.046116505 0.036407767 0.12280702 0.02631579 0 0.01754386 0 0.28070175 0 0.3245614 0.11403509 0.11403509 0 0 0 0 0 0 0 0.25 0 0.75 0.7730802416 0.0035020048 0.001649495 0.0011419581 0.0003045222 0.098639801 0.0009643202 0.0815358067 0.0216464498 0.0175354007 0.58768407 0.018741633 0.00669344 0.002677376 0.001338688 0.129852744 0.00669344 0.143239625 0.048192771 0.054886212 0.02307692 0.02307692 0.03846154 0.02307692 0.02307692 0.22307692 0.01538462 0.36153846 0.13846154 0.13076923 0 0 0.25 0 0 0 0 0.5 0 0.25 0.90786106 0 0 0 0 0.060329068 0 0.025959781 0.004021938 0.001828154 1 0 0 0 0 0 0 0 0 0 0.3333333 0 0 0 0 0 0 0.3333333 0.3333333 0 0.1 0.1 0.1 0.1 0.1 0.1 0.1 0.1 0.1 0.1 0.774751917 0.001747857 0.00135318 0.00090212 0.00022553 0.09804916599999999 0.00067659 0.08181100600000001 0.02277853 0.017704105 0.5802139039999999 0.002673797 0 0 0 0.114973262 0 0.179144385 0.058823529 0.064171123 0.06666667 0.03333333 0.06666667 0 0 0.2 0.06666667 0.2 0.2 0.16666667 0 0 0 0 0 0 0 0.5 0 0.5 0.7589673292 0.0044551062 0.0028558373 0.0010281014 0.0007996345 0.1065798492 0.0011423349 0.084761252 0.0241032671 0.0153072881 0.6465116279999999 0.027906977 0.009302326 0.009302326 0 0.11627907 0.004651163 0.134883721 0.041860465 0.009302326 0 0.04347826 0 0 0.04347826 0.17391304 0.04347826 0.47826087 0.13043478 0.08695652 0 1 0 0 0 0 0 0 0 0 0.732077517 0.00501423 0.001761756 0.002168315 0.001084158 0.110313051 0.001219677 0.098522835 0.02900122 0.018837241 0.598290598 0.008547009 0 0 0.004273504 0.14957265 0 0.128205128 0.07692307700000001 0.034188034 0 0.23076923 0.07692308 0 0 0.15384615 0 0.07692308 0.23076923 0.23076923 0.1 0.1 0.1 0.1 0.1 0.1 0.1 0.1 0.1 0.1 0.6741989882 0.0047217538 0.0074198988 0.0040472175 0.0010118044 0.1291736931 0.0006745363 0.1089376054 0.042158516 0.0276559865 0.594202899 0.028985507 0.02173913 0.007246377 0.007246377 0.108695652 0 0.18115942 0.036231884 0.014492754 0 0.125 0 0 0 0 0 0.375 0.5 0 0.1 0.1 0.1 0.1 0.1 0.1 0.1 0.1 0.1 0.1 0.8706056129999999 0.0008862628999999999 0.000295421 0.000295421 0 0.0744460857 0 0.0447562777 0.0069423929 0.0017725258 0.75 0 0 0 0 0.16666667 0 0.04166667 0.04166667 0 0.07692308 0 0 0 0 0.46153846 0 0.38461538 0.07692308 0 0.1 0.1 0.1 0.1 0.1 0.1 0.1 0.1 0.1 0.1 0.584796673 0.019177449 0.009473198 0.007393715 0.003465804 0.130314233 0.006007394 0.129390018 0.054990758 0.054990758 0.454225352 0.01056338 0.024647887 0.042253521 0.007042254 0.123239437 0.007042254 0.161971831 0.084507042 0.084507042 0 0.11764706 0 0.05882353 0 0.11764706 0.23529412 0.17647059 0.11764706 0.17647059 0 0 1 0 0 0 0 0 0 0 0.862286499 0.0008582954 0.0001716591 0.0001716591 0 0.07450004289999999 0.0002574886 0.048965754 0.008239636099999999 0.0045489658 0.76984127 0.015873016 0.007936508 0 0 0.07936507900000001 0 0.103174603 0.007936508 0.015873016 0.12121212 0.09090909 0 0 0 0.18181818 0 0.33333333 0.15151515 0.12121212 0.1 0.1 0.1 0.1 0.1 0.1 0.1 0.1 0.1 0.1 0.8441647151 0.0009758002 0.0006342701 0.00024395 0.00014637 0.0794301327 0.00014637 0.0543032787 0.012490242 0.0074648712 0.66025641 0.012820513 0.006410256 0 0 0.141025641 0 0.141025641 0.012820513 0.025641026 0.03571429 0 0 0 0 0.35714286 0 0.32142857 0.25 0.03571429 0 0 0 0 0 1 0 0 0 0 0.8216594256999999 0.0014128784 0.0008477270000000001 0.0005298294 0.0002119318 0.0876691039 0.0001412878 0.0614602098 0.0154003744 0.0106672318 0.631188119 0.00990099 0.002475248 0 0 0.133663366 0 0.146039604 0.037128713 0.03960396 0.02564103 0 0 0.02564103 0 0.25641026 0.02564103 0.28205128 0.25641026 0.12820513 0 0 0 0 0 1 0 0 0 0 0.97163121 0 0 0 0 0.02836879 0 0 0 0 0.1 0.1 0.1 0.1 0.1 0.1 0.1 0.1 0.1 0.1 0.1 0.1 0.1 0.1 0.1 0.1 0.1 0.1 0.1 0.1 0.1 0.1 0.1 0.1 0.1 0.1 0.1 0.1 0.1 0.1 0.817337461 0.003095975 0 0 0 0.08875129 0 0.066047472 0.014447884 0.010319917 0.72727273 0 0 0 0 0 0 0.18181818 0.09090909 0 0.1 0.1 0.1 0.1 0.1 0.1 0.1 0.1 0.1 0.1 0.1 0.1 0.1 0.1 0.1 0.1 0.1 0.1 0.1 0.1 0.800856531 0 0 0 0 0.083511777 0.002141328 0.08565310499999999 0.021413276 0.006423983 0.875 0 0 0 0 0.125 0 0 0 0 0.1 0.1 0.1 0.1 0.1 0.1 0.1 0.1 0.1 0.1 0.1 0.1 0.1 0.1 0.1 0.1 0.1 0.1 0.1 0.1 0.73209549 0 0.00530504 0 0 0.12201592 0 0.09549072 0.03713528 0.007957560000000001 0.625 0 0 0 0 0.3125 0 0 0.0625 0 0.1 0.1 0.1 0.1 0.1 0.1 0.1 0.1 0.1 0.1 0.1 0.1 0.1 0.1 0.1 0.1 0.1 0.1 0.1 0.1 0.73049645 0 0 0 0 0.16312057 0 0.07801418 0.0141844 0.0141844 0.3333333 0 0 0 0 0.3333333 0 0.3333333 0 0 0.1 0.1 0.1 0.1 0.1 0.1 0.1 0.1 0.1 0.1 0.1 0.1 0.1 0.1 0.1 0.1 0.1 0.1 0.1 0.1 0.898255814 0 0 0 0 0.063953488 0 0.029069767 0.005813953 0.002906977 0.1 0.1 0.1 0.1 0.1 0.1 0.1 0.1 0.1 0.1 0.1 0.1 0.1 0.1 0.1 0.1 0.1 0.1 0.1 0.1 0.1 0.1 0.1 0.1 0.1 0.1 0.1 0.1 0.1 0.1 0.67032967 0 0.005494505 0 0 0.126373626 0 0.10989011 0.032967033 0.054945055 0.3 0 0 0 0 0.2 0 0.2 0.2 0.1 0.1 0.1 0.1 0.1 0.1 0.1 0.1 0.1 0.1 0.1 0.1 0.1 0.1 0.1 0.1 0.1 0.1 0.1 0.1 0.1 0.8943089431 0 0 0.0008130081 0 0.0601626016 0 0.0292682927 0.0081300813 0.0073170732 1 0 0 0 0 0 0 0 0 0 0 0 0 0 0 1 0 0 0 0 0.1 0.1 0.1 0.1 0.1 0.1 0.1 0.1 0.1 0.1 0.8720720721 0.0009009009 0 0 0 0.0756756757 0 0.0414414414 0.0063063063 0.0036036036 0.8181818199999999 0 0 0 0 0 0 0.09090909 0 0.09090909 0.1 0.1 0.1 0.1 0.1 0.1 0.1 0.1 0.1 0.1 0.1 0.1 0.1 0.1 0.1 0.1 0.1 0.1 0.1 0.1 0.85640026 0.00259909 0 0 0 0.07992202700000001 0 0.043534763 0.012995452 0.004548408 0.91666667 0 0 0 0 0.08333333 0 0 0 0 0 0 0 0 0 1 0 0 0 0 0.1 0.1 0.1 0.1 0.1 0.1 0.1 0.1 0.1 0.1</probabilities>
		</cpt>
		<cpt id="Infec_Agents">
			<state id="S0" />
			<state id="S1" />
			<parents>Cancer Der_Diagnosis_Count Impaired_Swallow_and_Aspiration</parents>
			<probabilities>0.99899338 0.00100662 1 0 0.98920114 0.01079886 0.96774194 0.03225806 0.98852201 0.01147799 0.96832579 0.03167421 0.98526348 0.01473652 0.96161353 0.03838647 0.97912665 0.02087335 0.94074074 0.05925926 0.9978813439999999 0.002118656 0.99829497 0.00170503 0.96947387 0.03052613 0.9161053300000001 0.08389467 0.997150564 0.002849436 0.9909980430000001 0.009001957 0.995928429 0.004071571 0.98507463 0.01492537 0.99344492 0.00655508 0.9813272 0.0186728 0.998915989 0.001084011 1 0 0.97553235 0.02446765 0.94285714 0.05714286 0.9717502099999999 0.02824979 0.93859649 0.06140351 0.97116114 0.02883886 0.94827586 0.05172414 0.94154229 0.05845771 0.92517007 0.07482993 0.997042254 0.002957746 1 0 0.94251936 0.05748064 0.8966667 0.1033333 0.991459792 0.008540208000000001 0.98880597 0.01119403 0.98653049 0.01346951 0.96389892 0.03610108 0.98285408 0.01714592 0.95736434 0.04263566</probabilities>
		</cpt>
		<cpt id="Reduced_oxygen_saturations">
			<state id="S0" />
			<state id="S1" />
			<parents>COPD Der_Diagnosis_Count Impaired_Swallow_and_Aspiration</parents>
			<probabilities>0.9999605 3.949876e-05 0.6875853 0.3124147 0.994303226 0.005696774 0.91055718 0.08944282000000001 0.991166978 0.008833021999999999 0.90915395 0.09084605 0.98913343 0.01086657 0.90404387 0.09595613 0.98677732 0.01322268 0.8986667 0.1013333 0.9996275771000001 0.0003724229 0.6588037 0.3411963 0.9835443 0.0164557 0.8951936 0.1048064 0.99851623 0.00148377 0.7800306 0.2199694 0.996807284 0.003192716 0.8568086 0.1431914 0.99481272 0.00518728 0.8904874 0.1095126 1 0 0.5 0.5 0.97417536 0.02582464 0.8705148 0.1294852 0.96848485 0.03151515 0.8528529 0.1471471 0.95584227 0.04415773 0.90217391 0.09782609 0.95667244 0.04332756 0.884058 0.115942 0.9943579769999999 0.005642023 0.6176471 0.3823529 0.95784402 0.04215598 0.8873563 0.1126437 0.990114967 0.009885033 0.7272727 0.2727273 0.9827216600000001 0.01727834 0.7816901000000001 0.2183099 0.9777648 0.0222352 0.8510998 0.1489002</probabilities>
		</cpt>
		<cpt id="Fluid_Resuc">
			<state id="S0" />
			<state id="S1" />
			<parents>Cancer Der_Diagnosis_Count Der_Procedure_Count Myelodysplastic</parents>
			<probabilities>0.998382596 0.001617404 0.5526316 0.4473684 1 0 0.5 0.5 1 0 0.5 0.5 1 0 0.5 0.5 1 0 0.5 0.5 0.9998689898999999 0.0001310101 1 0 1 0 0.5 0.5 0.9996933456 0.0003066544 0.5 0.5 0.9990557128999999 0.0009442871 0.5 0.5 1 0 0.5 0.5 0.9987629770000001 0.001237023 0.98125 0.01875 0.98490566 0.01509434 1 0 0.994285714 0.005714286 0.5 0.5 0.97810219 0.02189781 0.5 0.5 0.96825397 0.03174603 0.5 0.5 0.997866404 0.002133596 1 0 0.98787879 0.01212121 1 0 0.998273878 0.001726122 0.93333333 0.06666667 0.993586006 0.006413994 1 0 0.98903394 0.01096606 1 0 0.9991627858 0.0008372142 0.98461538 0.01538462 0.99103139 0.00896861 0.5 0.5 0.98564593 0.01435407 0.5 0.5 0.94488189 0.05511811 0.5 0.5 1 0 0.5 0.5 0.997993311 0.002006689 1 0 0.993288591 0.006711409 1 0 0.998806683 0.001193317 1 0 0.990610329 0.009389671 1 0 0.98310292 0.01689708 1 0 0.9990070218 0.0009929781999999999 0.97142857 0.02857143 0.991416309 0.008583690999999999 0.5 0.5 1 0 1 0 0.96453901 0.03546099 0.5 0.5 0.96 0.04 1 0 0.998 0.002 1 0 0.98969072 0.01030928 0.5 0.5 0.997804128 0.002195872 1 0 0.997461929 0.002538071 1 0 0.98630137 0.01369863 1 0 0.9994214079 0.0005785921 1 0 0.97972973 0.02027027 0.5 0.5 0.99009901 0.00990099 0.5 0.5 0.97894737 0.02105263 1 0 0.96842105 0.03157895 0.5 0.5 0.9990645463 0.0009354537 1 0 0.992424242 0.007575758 1 0 0.996910402 0.003089598 1 0 0.995238095 0.004761905 1 0 0.98614958 0.01385042 1 0 0.998495618 0.001504382 0.746988 0.253012 1 0 0.5 0.5 1 0 0.5 0.5 0.98924731 0.01075269 0.5 0.5 1 0 0.5 0.5 0.9991533624 0.0008466376 1 0 1 0 0.5 0.5 0.9995542016 0.0004457984 1 0 0.998187585 0.001812415 1 0 0.9985496740000001 0.001450326 0.5 0.5 0.9993792674999999 0.0006207325 1 0 0.996969697 0.003030303 1 0 0.97478992 0.02521008 1 0 0.97457627 0.02542373 1 0 0.9897959200000001 0.01020408 0.5 0.5 1 0 1 0 0.97168142 0.02831858 1 0 0.9993815708 0.0006184292000000001 1 0 0.993315508 0.006684492 1 0 0.98969072 0.01030928 1 0 0.998261918 0.001738082 0.9057377 0.09426229999999999 1 0 0.5 0.5 1 0 0.5 0.5 0.98958333 0.01041667 0.5 0.5 0.98684211 0.01315789 0.5 0.5 0.9992650147 0.0007349853 1 0 1 0 0.5 0.5 0.9991264196 0.0008735804 0.93333333 0.06666667 0.997885196 0.002114804 1 0 0.995733788 0.004266212 1 0 0.998226501 0.001773499 0.95081967 0.04918033 0.98746082 0.01253918 0.5 0.5 0.98591549 0.01408451 0.5 0.5 0.97887324 0.02112676 0.5 0.5 1 0 0.5 0.5 0.9989498 0.0010502 0.90909091 0.09090909 1 0 0.5 0.5 0.997672139 0.002327861 1 0 0.994249869 0.005750131 1 0 0.9938858699999999 0.00611413 1 0 0.998441704 0.001558296 0.94552529 0.05447471 0.98474946 0.01525054 1 0 0.98239437 0.01760563 1 0 0.995594714 0.004405286 0.5 0.5 0.98198198 0.01801802 0.5 0.5 0.998400301 0.001599699 1 0 0.99086758 0.00913242 0.5 0.5 0.998422002 0.001577998 1 0 0.992983904 0.007016096 1 0 0.98902196 0.01097804 1 0 0.92647059 0.07352941 0 1 1 0 0.5 0.5 1 0 0.5 0.5 1 0 0.5 0.5 0.5 0.5 0.5 0.5 0.98742138 0.01257862 0.5 0.5 0.5 0.5 0.5 0.5 1 0 0.5 0.5 1 0 0.5 0.5 1 0 0.5 0.5 0.995752427 0.004247573 0.96969697 0.03030303 0.98701299 0.01298701 0.5 0.5 0.9787234 0.0212766 1 0 1 0 0.5 0.5 0.9375 0.0625 0.5 0.5 0.990662932 0.009337068 1 0 1 0 0.5 0.5 1 0 1 0 0.995391705 0.004608295 1 0 0.994584838 0.005415162 0.5 0.5 0.996745851 0.003254149 0.9047619 0.09523810000000001 1 0 0.5 0.5 1 0 0.5 0.5 1 0 0.5 0.5 1 0 0.5 0.5 0.998198198 0.001801802 1 0 1 0 0.5 0.5 0.998452012 0.001547988 1 0 0.98333333 0.01666667 1 0 0.994791667 0.005208333 0.5 0.5 0.9954732509999999 0.004526749 0.93333333 0.06666667 0.98989899 0.01010101 0.5 0.5 0.96 0.04 0.5 0.5 0.98113208 0.01886792 0.5 0.5 0.9444444400000001 0.05555556 0.5 0.5 0.994094488 0.005905512 1 0 1 0 0.5 0.5 1 0 1 0 1 0 0.5 0.5 0.995327103 0.004672897 1 0 0.997770346 0.002229654 1 0 1 0 0.5 0.5 1 0 1 0 1 0 0.5 0.5 1 0 0.5 0.5 1 0 1 0 1 0 0.5 0.5 1 0 1 0 1 0 0.5 0.5 1 0 0.5 0.5 0.96746818 0.03253182 0.8571429 0.1428571 1 0 0.5 0.5 0.90909091 0.09090909 0.5 0.5 1 0 0.5 0.5 1 0 0.5 0.5 0.995073892 0.004926108 0.5 0.5 1 0 0.5 0.5 1 0 1 0 1 0 0.5 0.5 1 0 0.5 0.5 0.998303647 0.001696353 0.90909091 0.09090909 1 0 0.5 0.5 1 0 0.5 0.5 1 0 0.5 0.5 0.96774194 0.03225806 0.5 0.5 0.996835443 0.003164557 1 0 0.98387097 0.01612903 0.5 0.5 0.992268041 0.007731959 1 0 1 0 1 0 1 0 1 0 0.98396052 0.01603948 0.95 0.05 0.9852941200000001 0.01470588 1 0 0.97368421 0.02631579 0.5 0.5 1 0 0.5 0.5 1 0 0.5 0.5 0.995875074 0.004124926 1 0 1 0 0.5 0.5 0.999452954 0.000547046 1 0 1 0 0.5 0.5 0.997229917 0.002770083 0.5 0.5 0.9895823 0.0104177 0.94594595 0.05405405 1 0 0.5 0.5 1 0 0.5 0.5 1 0 0.5 0.5 1 0 0.5 0.5 0.992684711 0.007315289 1 0 1 0 0.5 0.5 0.998611111 0.001388889 1 0 0.992146597 0.007853403 0.5 0.5 0.994117647 0.005882353 0.5 0.5 0.993838824 0.006161176 1 0 1 0 0.5 0.5 1 0 0.5 0.5 1 0 0.5 0.5 1 0 0.5 0.5 0.99608282 0.00391718 1 0 1 0 0.5 0.5 0.998425197 0.001574803 1 0 0.996330275 0.003669725 1 0 0.998242531 0.001757469 0.5 0.5</probabilities>
		</cpt>
		<cpt id="Vasoactive">
			<state id="S0" />
			<state id="S1" />
			<parents>Der_Procedure_Count</parents>
			<probabilities>0.9999414 5.861202e-05 0.998828697 0.001171303 0.9995491434 0.0004508566 0.998287671 0.001712329 0.998780488 0.001219512 0.999936 6.402184999999999e-05 0.9976099430000001 0.002390057 0.9996029459 0.0003970541 0.9991790718 0.0008209282 0.998515119 0.001484881</probabilities>
		</cpt>
		<cpt id="Trauma">
			<state id="S0" />
			<state id="S1" />
			<parents>Der_Diagnosis_Count Der_Procedure_Count</parents>
			<probabilities>0.999288638 0.000711362 1 0 1 0 1 0 1 0 0.996175288 0.003824712 1 0 0.994745352 0.005254648 0.9845173 0.0154827 0.9725777 0.0274223 0.98994022 0.01005978 0.96793003 0.03206997 0.9596412600000001 0.04035874 0.90607735 0.09392265 0.91139241 0.08860759 0.9846882 0.0153118 0.8923077 0.1076923 0.98442272 0.01557728 0.97223508 0.02776492 0.95959596 0.04040404 0.98823529 0.01176471 0.93835616 0.06164384 0.96715328 0.03284672 0.96598639 0.03401361 0.92682927 0.07317073 0.97921932 0.02078068 0.8722221999999999 0.1277778 0.98076923 0.01923077 0.97810219 0.02189781 0.96937574 0.03062426 0.98874443 0.01125557 0.94277108 0.05722892 0.93103448 0.06896552 0.93298969 0.06701031 0.92783505 0.07216495000000001 0.98116947 0.01883053 0.8577982 0.1422018 0.98440208 0.01559792 0.96650246 0.03349754 0.96796339 0.03203661 0.98725698 0.01274302 0.94535519 0.05464481 0.9352518 0.06474820000000001 0.9379845 0.0620155 0.8909091 0.1090909 0.97890625 0.02109375 0.8397436 0.1602564 0.9733441 0.0266559 0.96727273 0.03272727 0.97008547 0.02991453 0.997623726 0.002376274 0.99245283 0.00754717 0.95333333 0.04666667 0.95192308 0.04807692 1 0 0.994809588 0.005190412 0.94736842 0.05263158 0.99122807 0.008771930000000001 0.9681528700000001 0.03184713 0.96648794 0.03351206 0.98446678 0.01553322 0.95058824 0.04941176 0.97770701 0.02229299 0.97096774 0.02903226 0.91472868 0.08527132 0.98136959 0.01863041 0.8813314 0.1186686 0.97028232 0.02971768 0.96502058 0.03497942 0.96460177 0.03539823 0.995756964 0.004243036 0.97570093 0.02429907 0.93006993 0.06993007 0.92376682 0.07623318 0.8941176 0.1058824 0.990558767 0.009441233 0.91860465 0.08139535000000001 0.98729786 0.01270214 0.9706744899999999 0.02932551 0.97080562 0.02919438 0.993556629 0.006443371 0.95526316 0.04473684 0.94238683 0.05761317 0.93491124 0.06508876 0.90140845 0.09859155 0.98973701 0.01026299 0.8666667 0.1333333 0.98763251 0.01236749 0.97125436 0.02874564 0.96802646 0.03197354 0.99245283 0.00754717 0.95042735 0.04957265 0.94842407 0.05157593 0.93040293 0.06959707 0.8951613 0.1048387 0.98648866 0.01351134 0.90151515 0.09848485 0.98518793 0.01481207 0.96239087 0.03760913 0.96581197 0.03418803</probabilities>
		</cpt>
		<cpt id="Abdominal">
			<state id="S0" />
			<state id="S1" />
			<parents>Age_At_Start_of_Spell_SUS Der_Procedure_Count Emr_Surg</parents>
			<probabilities>0.998520235 0.001479765 0.3704206 0.6295794 0.984375 0.015625 0.6666666999999999 0.3333333 0.97368421 0.02631579 0.5 0.5 0.96 0.04 1 0 1 0 1 0 0.99367734 0.00632266 0.4123711 0.5876289 0.96875 0.03125 0.5 0.5 0.991223258 0.008776742000000001 0.440678 0.559322 0.99009901 0.00990099 0.5625 0.4375 0.993650794 0.006349206 0.8 0.2 1 0 0.5 0.5 0.5 0.5 0.5 0.5 0.5 0.5 0.5 0.5 1 0 0.5 0.5 0.5 0.5 0.5 0.5 1 0 0.5 0.5 1 0 0.5 0.5 1 0 0.5 0.5 1 0 0.5 0.5 1 0 0.5 0.5 0.994997832 0.005002168 0.06945482 0.93054518 0.96428571 0.03571429 1 0 0.96938776 0.03061224 0.75 0.25 0.96296296 0.03703704 0.7142857 0.2857143 1 0 1 0 0.96231884 0.03768116 0.2007576 0.7992424 0.98347107 0.01652893 1 0 0.97042034 0.02957966 0.2387097 0.7612903 0.96375 0.03625 0.2258065 0.7741935 0.97993827 0.02006173 0.5555556 0.4444444 0.995953892 0.004046108 0.07684530000000001 0.9231547 0.98305085 0.01694915 0.3846154 0.6153845999999999 0.95783133 0.04216867 0.8 0.2 0.97777778 0.02222222 0.625 0.375 0.97101449 0.02898551 1 0 0.92923139 0.07076861 0.3022388 0.6977612 0.98429319 0.01570681 1 0 0.95476407 0.04523593 0.1721068 0.8278932 0.94207955 0.05792045 0.2989691 0.7010309 0.9535316 0.0464684 0.5535714 0.4464286 0.996548423 0.003451577 0.1144708 0.8855292 0.95953757 0.04046243 0.4375 0.5625 0.96774194 0.03225806 1 0 0.96236559 0.03763441 0.90909091 0.09090909 0.97333333 0.02666667 0.4 0.6 0.9705941 0.0294059 0.5357143 0.4642857 0.97735849 0.02264151 0.90909091 0.09090909 0.9774529 0.0225471 0.2460317 0.7539683 0.95947489 0.04052511 0.3553719 0.6446281 0.96103896 0.03896104 0.625 0.375 0.997435979 0.002564021 0.219917 0.780083 0.9710884400000001 0.02891156 0.8 0.2 0.97953964 0.02046036 0.7777778 0.2222222 0.98203593 0.01796407 0.8823529 0.1176471 0.96256684 0.03743316 0.8571429 0.1428571 0.98674405 0.01325595 0.7744681 0.2255319 0.97536946 0.02463054 1 0 0.98474248 0.01525752 0.3897216 0.6102784 0.97026932 0.02973068 0.5 0.5 0.9727943999999999 0.0272056 0.6914894 0.3085106 0.998328536 0.001671464 0.317757 0.682243 0.9828722 0.0171278 0.7142857 0.2857143 0.98027613 0.01972387 0.7619048 0.2380952 0.97862233 0.02137767 0.92857143 0.07142857 0.98850575 0.01149425 1 0 0.98925453 0.01074547 0.84689 0.15311 0.9665924299999999 0.03340757 0.95 0.05 0.9878255 0.0121745 0.5772595 0.4227405 0.9780887 0.0219113 0.6715328 0.3284672 0.97704814 0.02295186 0.792 0.208 0.9994008707000001 0.0005991293 0.4736842 0.5263158 0.98046398 0.01953602 0.92 0.08 0.97319588 0.02680412 0.9375 0.0625 0.98066298 0.01933702 0.7894736999999999 0.2105263 0.97076023 0.02923977 0.91666667 0.08333333 0.993945302 0.006054698 0.8742515 0.1257485 0.97820823 0.02179177 0.8611111 0.1388889 0.992901564 0.007098436 0.7479675 0.2520325 0.98560981 0.01439019 0.8235294 0.1764706 0.98568566 0.01431434 0.7916666999999999 0.2083333 0.9998408483 0.0001591517 0.4 0.6 0.98726115 0.01273885 0.8333333000000001 0.1666667 0.97814208 0.02185792 1 0 0.97619048 0.02380952 1 0 0.96 0.04 1 0 0.998659637 0.001340363 0.91666667 0.08333333 1 0 1 0 0.9969278029999999 0.003072197 0.8709677 0.1290323 0.994621246 0.005378754 0.8333333000000001 0.1666667 0.994256541 0.005743459 1 0 0.999819982 0.000180018 0.5 0.5 1 0 0.5 0.5 1 0 0.5 0.5 1 0 0.5 0.5 0.5 0.5 0.5 0.5 1 0 1 0 1 0 0.5 0.5 1 0 0.5 0.5 1 0 0.5 0.5 1 0 0.5 0.5</probabilities>
		</cpt>
		<cpt id="Parenteral">
			<state id="S0" />
			<state id="S1" />
			<parents>Coma Der_Procedure_Count</parents>
			<probabilities>0.9999426 5.741854e-05 0.991475603 0.008524397 0.98866727 0.01133273 0.9856486800000001 0.01435132 0.97188264 0.02811736 0.999679381 0.000320619 0.96591455 0.03408545 0.9993074347999999 0.0006925652 0.9979154099999999 0.00208459 0.992549949 0.007450051 1 0 0.92307692 0.07692308 1 0 1 0 1 0 1 0 1 0 1 0 1 0 1 0</probabilities>
		</cpt>
		<cpt id="Elevated_Respiratory_Rate">
			<state id="S0" />
			<state id="S1" />
			<parents>Reduced_oxygen_saturations Tachycardia</parents>
			<probabilities>0.9997523245 0.0002476755 0.998598101 0.001401899 0.998978848 0.001021152 0.994550409 0.005449591</probabilities>
		</cpt>
		<cpt id="CVL">
			<state id="S0" />
			<state id="S1" />
			<parents>CKD Cancer Der_Procedure_Count Parenteral Vasoactive</parents>
			<probabilities>0.9996552398 0.0003447602 1 0 0.97297297 0.02702703 0.5 0.5 0.9007177 0.0992823 1 0 0.6666666999999999 0.3333333 0 1 0.8540507000000001 0.1459493 1 0 0.6470588 0.3529412 0.5 0.5 0.8392283 0.1607717 0.6666666999999999 0.3333333 0.5789474 0.4210526 0.5 0.5 0.8189369 0.1810631 1 0 0.7058824 0.2941176 0.5 0.5 0.9945951280000001 0.005404872 1 0 0.92307692 0.07692308 0.5 0.5 0.7599232 0.2400768 0.75 0.25 0.5471698 0.4528302 0.5 0.5 0.98928158 0.01071842 0.92857143 0.07142857 0.6585366 0.3414634 0.5 0.5 0.97066556 0.02933444 0.92307692 0.07692308 0.5714286 0.4285714 0.5 0.5 0.93457776 0.06542224000000001 0.7222222 0.2777778 0.8205128 0.1794872 0.5 0.5 0.995229412 0.004770588 1 0 1 0 0.5 0.5 0.91059603 0.08940397 0.5 0.5 0.5 0.5 0.5 0.5 0.873057 0.126943 0.5 0.5 1 0 0.5 0.5 0.8496732 0.1503268 0.5 0.5 0.5 0.5 0.5 0.5 0.7520661 0.2479339 0.5 0.5 0.6666666999999999 0.3333333 0.5 0.5 0.98429183 0.01570817 0.5 0.5 1 0 0.5 0.5 0.7418182 0.2581818 0.5 0.5 0.6666666999999999 0.3333333 0.5 0.5 0.98565718 0.01434282 1 0 0.92307692 0.07692308 0.5 0.5 0.97048678 0.02951322 1 0 1 0 0.5 0.5 0.94481937 0.05518063 0 1 0.8275862 0.1724138 0.5 0.5 0.998195948 0.001804052 1 0 1 0 0.5 0.5 0.6517857 0.3482143 1 0 1 0 0.5 0.5 0.6125 0.3875 0.5 0.5 0.5 0.5 0.5 0.5 0.5902778 0.4097222 0.5 0.5 1 0 0.5 0.5 0.609375 0.390625 0.5 0.5 1 0 0.5 0.5 0.9621212099999999 0.03787879 0.5 0.5 1 0 0.5 0.5 0.5398773 0.4601227 1 0 0.5 0.5 0.5 0.5 0.9304973 0.0695027 1 0 0.5 0.5 0.5 0.5 0.9003083200000001 0.09969168 1 0 1 0 0.5 0.5 0.786808 0.213192 1 0 1 0 0.5 0.5 0.9990184049 0.0009815951000000001 0.5 0.5 1 0 0.5 0.5 0.826087 0.173913 0.5 0.5 0 1 0.5 0.5 0.8275862 0.1724138 0.5 0.5 1 0 0.5 0.5 0.7333333 0.2666667 0.5 0.5 1 0 0.5 0.5 0.8888889 0.1111111 0.5 0.5 0.5 0.5 0.5 0.5 0.98632479 0.01367521 0.5 0.5 0.5 0.5 0.5 0.5 0.6875 0.3125 0.5 0.5 0.5 0.5 0.5 0.5 0.96236559 0.03763441 0.5 0.5 0.5 0.5 0.5 0.5 0.95081967 0.04918033 0.5 0.5 0.5 0.5 0.5 0.5 0.95375723 0.04624277 0.5 0.5 0.5 0.5 0.5 0.5</probabilities>
		</cpt>
		<cpt id="Anuria">
			<state id="S0" />
			<state id="S1" />
			<parents>Der_Diagnosis_Count Trauma</parents>
			<probabilities>0.9999216 7.843983e-05 0.9962825279999999 0.003717472 0.9991426251 0.0008573749 0.93369565 0.06630435 0.9992042018 0.0007957982 0.93700787 0.06299212999999999 0.99804188 0.00195812 0.93563218 0.06436782000000001 0.997140039 0.002859961 0.93589744 0.06410256 0.9997898175 0.0002101825 0.994374121 0.005625879 0.994638602 0.005361398 0.92548077 0.07451923000000001 0.9997930939 0.0002069061 0.98659139 0.01340861 0.9997805304 0.0002194696 0.97102897 0.02897103 0.9994985481999999 0.0005014518 0.94580549 0.05419451</probabilities>
		</cpt>
		<cpt id="Mec_Vent">
			<state id="S0" />
			<state id="S1" />
			<parents>CVL Coma Der_Procedure_Count Impaired_Swallow_and_Aspiration</parents>
