<?xml version="1.0" encoding="UTF-8"?>
<!-- This network was created in GeNIe Academic, which can be used for academic teaching and research purposes only -->
<smile version="1.0" id="Bayesys" numsamples="1000000" discsamples="1000000">
	<nodes>
		<cpt id="MINVOLSET">
			<state id="NORMAL" />
			<state id="HIGH" />
			<state id="LOW" />
			<probabilities>0.899908 0.050064 0.050028</probabilities>
		</cpt>
		<cpt id="DISCONNECT">
			<state id="FALSE" />
			<state id="TRUE" />
			<probabilities>0.899967 0.100033</probabilities>
		</cpt>
		<cpt id="FIO2">
			<state id="NORMAL" />
			<state id="LOW" />
			<probabilities>0.949887 0.050113</probabilities>
		</cpt>
		<cpt id="ERRCAUTER">
			<state id="FALSE" />
			<state id="TRUE" />
			<probabilities>0.899749 0.100251</probabilities>
		</cpt>
		<cpt id="ERRLOWOUTPUT">
			<state id="FALSE" />
			<state id="TRUE" />
			<probabilities>0.950224 0.049776</probabilities>
		</cpt>
		<cpt id="KINKEDTUBE">
			<state id="FALSE" />
			<state id="TRUE" />
			<probabilities>0.9598449999999999 0.040155</probabilities>
		</cpt>
		<cpt id="LVFAILURE">
			<state id="FALSE" />
			<state id="TRUE" />
			<probabilities>0.95028 0.04972</probabilities>
		</cpt>
		<cpt id="HYPOVOLEMIA">
			<state id="FALSE" />
			<state id="TRUE" />
			<probabilities>0.800431 0.199569</probabilities>
		</cpt>
		<cpt id="ANAPHYLAXIS">
			<state id="TRUE" />
			<state id="FALSE" />
			<probabilities>0.010063 0.989937</probabilities>
		</cpt>
		<cpt id="INTUBATION">
			<state id="NORMAL" />
			<state id="ONESIDED" />
			<state id="ESOPHAGEAL" />
			<probabilities>0.919953 0.05004 0.030007</probabilities>
		</cpt>
		<cpt id="INSUFFANESTH">
			<state id="FALSE" />
			<state id="TRUE" />
			<probabilities>0.899759 0.100241</probabilities>
		</cpt>
		<cpt id="PULMEMBOLUS">
			<state id="FALSE" />
			<state id="TRUE" />
			<probabilities>0.98977 0.01023</probabilities>
		</cpt>
		<cpt id="VENTMACH">
			<state id="NORMAL" />
			<state id="HIGH" />
			<state id="ZERO" />
			<state id="LOW" />
			<parents>MINVOLSET</parents>
			<probabilities>0.9302417580463781 0.009929903945736675 0.0499962218360099 0.009832116171875347 0.0107662192393736 0.928471556407798 0.04995605624800255 0.01080616810482582 0.009414727752458623 0.009674582233948988 0.04991204925241865 0.9309986407611738</probabilities>
		</cpt>
		<cpt id="STROKEVOLUME">
			<state id="NORMAL" />
			<state id="LOW" />
			<state id="HIGH" />
			<parents>HYPOVOLEMIA LVFAILURE</parents>
			<probabilities>0.9003631190904405 0.04971918089167955 0.04991770001787987 0.04105630794743587 0.9480891479685419 0.01085454408402221 0.4907723783008521 0.4990456002699739 0.01018202142917405 0.008870073581292208 0.9810502973490576 0.01007962906965024</probabilities>
		</cpt>
		<cpt id="LVEDVOLUME">
			<state id="NORMAL" />
			<state id="HIGH" />
			<state id="LOW" />
			<parents>HYPOVOLEMIA LVFAILURE</parents>
			<probabilities>0.900599764406441 0.04982698598007972 0.04957324961347932 0.01050277645166964 0.008919822106083067 0.9805774014422473 0.08989285412975619 0.8998776681009028 0.0102294777693411 0.04213284951113799 0.009777240197560729 0.9480899102913013</probabilities>
		</cpt>
		<cpt id="HISTORY">
			<state id="FALSE" />
			<state id="TRUE" />
			<parents>LVFAILURE</parents>
			<probabilities>0.9898682493580839 0.01013175064191607 0.1006838294448914 0.8993161705551086</probabilities>
		</cpt>
		<cpt id="PAP">
			<state id="NORMAL" />
			<state id="HIGH" />
			<state id="LOW" />
			<parents>PULMEMBOLUS</parents>
			<probabilities>0.9006122634551461 0.04994493670246623 0.04944279984238763 0.1924731182795699 0.7982404692082111 0.009286412512218964</probabilities>
		</cpt>
		<cpt id="VENTTUBE">
			<state id="LOW" />
			<state id="HIGH" />
			<state id="ZERO" />
			<state id="NORMAL" />
			<parents>DISCONNECT VENTMACH</parents>
			<probabilities>0.9700088302913465 0.009853862655822821 0.01003948439584101 0.01009782265698959 0.01007197097368995 0.9683962170628705 0.01100382655590142 0.01052798540753812 0.009898347309651445 0.01032097337455791 0.9695264363725338 0.01025424294325689 0.009572798951361443 0.01000973168358126 0.970407737681476 0.01000973168358126 0.01015252621544328 0.01003336510962822 0.9697330791229742 0.01008102955195424 0.01280643980973289 0.009696304427369191 0.01134284668862056 0.9661544090742773 0.01072918736340155 0.00735148023047884 0.9723822769719849 0.009537055434134712 0.009618810117563235 0.01282508015675098 0.9674029212682579 0.01015318845742786</probabilities>
		</cpt>
		<cpt id="TPR">
			<state id="LOW" />
			<state id="NORMAL" />
			<state id="HIGH" />
			<parents>ANAPHYLAXIS</parents>
			<probabilities>0.9804233330020868 0.008744907085362219 0.01083175991255093 0.2998019065859747 0.4001749606288077 0.3000231327852176</probabilities>
		</cpt>
		<cpt id="PCWP">
			<state id="NORMAL" />
			<state id="HIGH" />
			<state id="LOW" />
			<parents>LVEDVOLUME</parents>
			<probabilities>0.9498711782037219 0.01001978919035039 0.04010903260592765 0.03986373988096377 0.9502755822632193 0.009860677855816891 0.03941915780151909 0.00992291011478332 0.9506579320836976</probabilities>
		</cpt>
		<cpt id="SHUNT">
			<state id="NORMAL" />
			<state id="HIGH" />
			<parents>INTUBATION PULMEMBOLUS</parents>
			<probabilities>0.9497846832410966 0.05021531675890344 0.1017595929616281 0.8982404070383718 0.05109989909182644 0.9489001009081736 0.01428571428571429 0.9857142857142858 0.95013635904515 0.04986364095485001 0.1111111111111111 0.8888888888888888</probabilities>
		</cpt>
		<cpt id="CVP">
			<state id="NORMAL" />
			<state id="HIGH" />
			<state id="LOW" />
			<parents>LVEDVOLUME</parents>
			<probabilities>0.949814271833196 0.01012933395361277 0.04005639421319118 0.2905096358103841 0.699610548676631 0.009879815512984901 0.04044096776757229 0.01021809966053202 0.9493409325718957</probabilities>
		</cpt>
		<cpt id="VENTLUNG">
			<state id="ZERO" />
			<state id="NORMAL" />
			<state id="LOW" />
			<state id="HIGH" />
			<parents>INTUBATION KINKEDTUBE VENTTUBE</parents>
			<probabilities>0.9503428673711238 0.01002987359273158 0.02980415514517085 0.00982310389097373 0.009185892954245319 0.009710246251844946 0.9714712965120795 0.009632564281830187 0.2994537834910769 0.009788341102792296 0.6809695343033385 0.009788341102792296 0.01049597161652746 0.01012639515115677 0.009904649271934364 0.9694729839603814 0.9676766189301623 0.01034495453374075 0.01052902845782866 0.01144939807826823 0.9691504508780256 0.01044138585666825 0.009492168960607499 0.01091599430469862 0.9726162055891027 0.0105322286195759 0.008987501755371437 0.007864064035950007 0.9586919104991394 0.01376936316695353 0.01032702237521515 0.01721170395869191 0.301145059803866 0.01045859078283544 0.6785046199195057 0.00989172949379287 0.01110713006091007 0.01003224650662845 0.01110713006091007 0.9677534933715514 0.9679619006385972 0.01071544539452322 0.01114839268319082 0.01017426128368871 0.9714673913043478 0.009510869565217392 0.0108695652173913 0.008152173913043478 0.9701897018970189 0.008130081300813009 0.01016260162601626 0.01151761517615176 0.9809523809523809 0 0.01904761904761905 0 0.3753280839895013 0.01837270341207349 0.5931758530183727 0.01312335958005249 0 0.9666666666666667 0 0.03333333333333333 0.505121548265282 0.009063016285107387 0.4763275902761388 0.009487845173471796 0.005913660555884092 0.9757539917208752 0.01064458900059137 0.00768775872264932 0.968846784478047 0.008926944798688285 0.01220623064310439 0.01002004008016032 0.9778270509977827 0.006651884700665188 0.01330376940133038 0.002217294900221729 0.9632107023411371 0.01003344481605351 0.01003344481605351 0.01672240802675585 0.9672131147540983 0.03278688524590164 0 0 0.9722222222222222 0 0.01851851851851852 0.009259259259259259 0.05882352941176471 0 0.9411764705882353 0</probabilities>
		</cpt>
		<cpt id="PRESS">
			<state id="HIGH" />
			<state id="NORMAL" />
			<state id="LOW" />
			<state id="ZERO" />
			<parents>INTUBATION KINKEDTUBE VENTTUBE</parents>
			<probabilities>0.4000685117519258 0.3007187561722299 0.289236865494766 0.009975866581078413 0.009690825759341257 0.07824516429736658 0.9020624563038918 0.01000155363940029 0.9702111880209069 0.009935489946790978 0.009788341102792296 0.01006498092950982 0.9677729322196762 0.009165496341192993 0.01160470101263951 0.01145687042649124 0.4538894820159776 0.2500828332658396 0.2473585391893384 0.04866914552884438 0.008068343616516375 0.03844328429046037 0.7361177028951116 0.2173706691979117 0.01067265833450358 0.01039179890464822 0.01011093947479287 0.9688246032860554 0.006884681583476764 0.01376936316695353 0.01204819277108434 0.9672977624784854 0.9705515560342384 0.009721671107080098 0.00986338642934074 0.00986338642934074 0.9670369043353637 0.01289860265137943 0.01182371909709781 0.008240773916159082 0.1035826388137244 0.04816538586427103 0.8388353717934841 0.009416603528520402 0.009510869565217392 0.01222826086956522 0.5692934782608695 0.4089673913043478 0.01287262872628726 0.01084010840108401 0.01151761517615176 0.964769647696477 0.009523809523809525 0.009523809523809525 0.009523809523809525 0.9714285714285714 0.9343832020997376 0.04724409448818898 0.01312335958005249 0.005249343832020997 0 0.9666666666666667 0 0.03333333333333333 0.9000236016049091 0.07972622138305405 0.01052631578947368 0.009723861222563135 0.5972797161442933 0.3849793021880544 0.008870490833826138 0.008870490833826138 0.01074877026780834 0.01056658772089634 0.01020222262707233 0.968482419384223 0.006651884700665188 0.01108647450110865 0.004434589800443459 0.9778270509977827 0.5797101449275363 0.2474916387959866 0.1627647714604236 0.01003344481605351 0.03278688524590164 0.09836065573770492 0.639344262295082 0.2295081967213115 0.2037037037037037 0.5 0.2916666666666667 0.004629629629629629 0 0.05882352941176471 0.9411764705882353 0</probabilities>
		</cpt>
		<cpt id="MINVOL">
			<state id="ZERO" />
			<state id="HIGH" />
			<state id="NORMAL" />
			<state id="LOW" />
			<parents>INTUBATION VENTLUNG</parents>
			<probabilities>0.9700291815513437 0.009994539124894765 0.009894991922455574 0.01008128740130606 0.502394948835184 0.01088613106901807 0.007402569126932288 0.4793163509688657 0.01001929482273555 0.9702654924491489 0.009943840208685904 0.009771372519429562 0.0103443582414591 0.01011750828002359 0.009890658318588087 0.9696474751599292 0.0109585303746817 0.01086758821389596 0.9668061113132048 0.01136777009821753 0.9800362976406534 0.009074410163339383 0.009074410163339383 0.001814882032667877 0.6015046867291564 0.01011346817957573 0.01056569643150798 0.3778161486597599 0.01166088874881815 0.9725811534825086 0.008824456350456981 0.006933501418216199 0.009600090888434446 0.008691206543967281 0.00897523290161327 0.972733469665985 0.4902887139107612 0.007349081364829396 0.007874015748031496 0.494488188976378 0.9680736460679659 0.009695426500832436 0.009303692096758397 0.01292723533444325 0.01045296167247387 0.02439024390243903 0.9547038327526133 0.01045296167247387</probabilities>
		</cpt>
		<cpt id="VENTALV">
			<state id="ZERO" />
			<state id="NORMAL" />
			<state id="LOW" />
			<state id="HIGH" />
			<parents>INTUBATION VENTLUNG</parents>
			<probabilities>0.9699339006575803 0.01000876015381465 0.01001160435959863 0.01004573482900635 0.01055954713694753 0.9721315044633138 0.007838014369693011 0.009470934030045721 0.009922281747528862 0.9702439339879919 0.009943840208685904 0.009889944055793298 0.03144140465496121 0.009482328388004174 0.9478698788621206 0.01120638809491402 0.0100491087668243 0.9710803928701346 0.009594397962895598 0.009276100400145508 0.9673321234119783 0.01451905626134301 0.00544464609800363 0.01270417422867514 0.009414569972044071 0.009579016609110343 0.9721262950172669 0.008880118401578688 0.008194138039710053 0.1043176804286165 0.87897888433659 0.008509297195083518 0.01016814360372643 0.01033855941831402 0.9690411270165872 0.01045216996137241 0.008923884514435695 0.009448818897637795 0.01049868766404199 0.9711286089238845 0.9679757124669474 0.01096856331407306 0.01077269611203604 0.01028302810694349 0.003484320557491289 0.04181184668989547 0.9477351916376306 0.006968641114982578</probabilities>
		</cpt>
		<cpt id="ARTCO2">
			<state id="HIGH" />
			<state id="NORMAL" />
			<state id="LOW" />
			<parents>VENTALV</parents>
			<probabilities>0.9797258549247373 0.01010832711713615 0.01016581795812655 0.03944151979858091 0.9201556420233463 0.04040283817807278 0.9798131397125435 0.01007314863640666 0.01011371165104991 0.01048359824146094 0.09037876225904633 0.8991376394994928</probabilities>
		</cpt>
		<cpt id="PVSAT">
			<state id="LOW" />
			<state id="HIGH" />
			<state id="NORMAL" />
			<parents>FIO2 VENTALV</parents>
			<probabilities>0.9899873840130941 0 0.010012615986906 0.9490818633666135 0.0103504297814695 0.04056770685191703 0.9506253739422775 0.009701131086355737 0.03967349497136671 0.007416011436740529 0.9815939957112223 0.01098999285203717 1 0 0 1 0 0 0.9542674820526456 0.007178941770805637 0.03855357617654879 0.01572327044025157 0.04245283018867924 0.9418238993710691</probabilities>
		</cpt>
		<cpt id="EXPCO2">
			<state id="LOW" />
			<state id="NORMAL" />
			<state id="ZERO" />
			<state id="HIGH" />
			<parents>ARTCO2 VENTLUNG</parents>
			<probabilities>0.9699179830372371 0.01010470894718707 0.009973516406996744 0.01000379160857913 0.004604051565377533 0.009208103130755065 0.9742173112338858 0.01197053406998158 0.009900539408698819 0.9697066253954526 0.01021917745863395 0.01017365773721465 0.01132091063091352 0.01107300747841177 0.009668222947568483 0.9679378589431062 0.9709651875531572 0.009883567469278822 0.009238349414904538 0.009912895562659471 0.007360797815505165 0.9719814792829158 0.01044758399620088 0.01021013890537813 0.009750415773579015 0.01022472787093908 0.9702083971253085 0.009816459230173455 0.01542416452442159 0.012853470437018 0.0115681233933162 0.9601542416452442 0.008440781603083876 0.009304798617572777 0.9722185298418184 0.01003588993752492 0.006094702297233943 0.9718706047819972 0.01218940459446789 0.009845288326300985 0.9704685380361056 0.01053949702598351 0.0088698737347386 0.01012209120317228 0.01346153846153846 0.007692307692307693 0.009615384615384616 0.9692307692307692</probabilities>
		</cpt>
		<cpt id="SAO2">
			<state id="LOW" />
			<state id="HIGH" />
			<state id="NORMAL" />
			<parents>PVSAT SHUNT</parents>
			<probabilities>0.9801184121442684 0.009878041478793127 0.01000354637693842 0.9802938739212159 0.009741900276896335 0.009964225801887746 0.009084956621378294 0.9798657718120806 0.01104927156654117 0.683030303030303 0.0103030303030303 0.3066666666666666 0.009722222222222222 0.007891414141414142 0.9823863636363637 0.9803232607167955 0.01089248067463106 0.008784258608573436</probabilities>
		</cpt>
		<cpt id="CATECHOL">
			<state id="HIGH" />
			<state id="NORMAL" />
			<parents>ARTCO2 INSUFFANESTH SAO2 TPR</parents>
			<probabilities>0.990069016901298 0.009930983098702011 0.990100099834116 0.009899900165884063 0.8992637198593224 0.1007362801406776 0.9916188795765328 0.008381120423467137 0.9912464985994398 0.008753501400560224 0.7071524966261808 0.2928475033738192 0.9904695490469549 0.009530450953045095 0.989947944713696 0.01005205528630407 0.7008626719515039 0.2991373280484961 0.9889031345329148 0.01109686546708519 0.9906202209005948 0.009379779099405268 0.8991665528077606 0.1008334471922394 0.99609375 0.00390625 0.9868421052631579 0.0131578947368421 0.7413793103448276 0.2586206896551724 0.9891304347826086 0.0108695652173913 0.9931856899488927 0.006814310051107325 0.8725274725274725 0.1274725274725275 0.9901528702354828 0.00984712976451714 0.950024930550609 0.04997506944939098 0.2978308274991392 0.7021691725008607 0.950510604870385 0.04948939512961508 0.9436352121595947 0.05636478784040532 0.007275666936135812 0.9927243330638642 0.9942196531791907 0.005780346820809248 0.9467878001297858 0.05321219987021415 0.009623430962343096 0.9903765690376569 0.990419557317476 0.00958044268252395 0.9883455789206993 0.01165442107930073 0.3029535864978903 0.6970464135021097 0.8943089430894309 0.1056910569105691 0.9408602150537635 0.05913978494623656 0.016 0.984 0.9849056603773585 0.01509433962264151 0.952112676056338 0.04788732394366197 0.3127572016460906 0.6872427983539094 0.9922178988326849 0.007782101167315175 0.949763991908294 0.050236008091706 0.2841846977470444 0.7158153022529556 0.9569630531871701 0.04303694681282988 0.9445991952955741 0.05540080470442588 0.05187319884726225 0.9481268011527377 0.9855072463768116 0.01449275362318841 0.9622641509433962 0.03773584905660377 0.04522613065326633 0.9547738693467337 0.9850746268656716 0.01492537313432836 0.9895988112927192 0.01040118870728083 0.2971428571428572 0.7028571428571428 0.9966216216216216 0.003378378378378379 0.9518072289156626 0.04819277108433735 0.02898550724637681 0.9710144927536232 1 0 0.9104477611940298 0.08955223880597014 0.2424242424242424 0.7575757575757576</probabilities>
		</cpt>
		<cpt id="HR">
			<state id="HIGH" />
			<state id="NORMAL" />
			<state id="LOW" />
			<parents>CATECHOL</parents>
			<probabilities>0.8999654260906099 0.09019413906589174 0.009840434843498355 0.04928152901785714 0.9008672805059523 0.04985119047619048</probabilities>
		</cpt>
		<cpt id="CO">
			<state id="HIGH" />
			<state id="LOW" />
			<state id="NORMAL" />
			<parents>HR STROKEVOLUME</parents>
			<probabilities>0.9501159427033651 0.01001062484973981 0.03987343244689514 0.01029556054354108 0.8004999932796603 0.1892044461767987 0.9797752133669912 0.009646592138478183 0.01057819449453059 0.009683169270791514 0.04033048030446582 0.9499863504247427 0.009938837920489297 0.9503058103975535 0.03975535168195719 0.6952900196880206 0.01181281235801908 0.2928971679539603 0.009633911368015413 0.9508670520231214 0.0394990366088632 0.009365687526607066 0.9808429118773946 0.009791400595998296 0.0108499095840868 0.3074141048824593 0.6817359855334539</probabilities>
		</cpt>
		<cpt id="BP">
			<state id="LOW" />
			<state id="HIGH" />
			<state id="NORMAL" />
			<parents>CO TPR</parents>
			<probabilities>0.9006851069577245 0.009994830260210237 0.0893200627820652 0.04974425944063554 0.7498349475822541 0.2004207929771103 0.009635796429955882 0.9000363034475969 0.09032790012244722 0.9786055132704973 0.01072682099617463 0.01066766573332808 0.9804850638601607 0.009476513736388902 0.01003842240345042 0.3005302932318324 0.09994272094011566 0.599526985828052 0.9800611264735847 0.009920923688934168 0.0100179498374812 0.09958149819989401 0.04956230925272757 0.8508561925473784 0.04943272898984753 0.5486187913958719 0.4019484796142805</probabilities>
		</cpt>
		<cpt id="HREKG">
			<state id="HIGH" />
			<state id="LOW" />
			<state id="NORMAL" />
			<parents>ERRCAUTER HR</parents>
			<probabilities>0.9800441700506625 0.009975226596661304 0.009980603352676212 0.009676679341818966 0.980097461957164 0.01022585870101702 0.3381848598912589 0.3283981597657884 0.3334169803429528 0.0103922751961376 0.009656004828002414 0.9799517199758599 0.3315913898220729 0.3351374891128531 0.333271121065074 0.333835719668425 0.3157498116051243 0.3504144687264507</probabilities>
		</cpt>
		<cpt id="HRBP">
			<state id="HIGH" />
			<state id="LOW" />
			<state id="NORMAL" />
			<parents>ERRLOWOUTPUT HR</parents>
			<probabilities>0.9800575022050149 0.00995406696372321 0.009988430831261956 0.009617156849838068 0.9801995839806209 0.01018325916954106 0.01095325025795698 0.3977299785697277 0.5913167711723153 0.01046636160062311 0.009663129198714829 0.9798705092006621 0.3026595080534399 0.3027843675864652 0.3945561243600949 0.01756954612005857 0.9707174231332357 0.01171303074670571</probabilities>
		</cpt>
		<cpt id="HRSAT">
			<state id="HIGH" />
			<state id="LOW" />
			<state id="NORMAL" />
			<parents>ERRCAUTER HR</parents>
			<probabilities>0.9799648628994425 0.01002361740079549 0.01001151969976194 0.009600211329778729 0.9805562700294054 0.009843518640815844 0.3355081555834379 0.3309075700543705 0.3335842743621916 0.009969824984912492 0.01050090525045263 0.9795292697646348 0.3327112106507403 0.3391812865497076 0.3281075027995521 0.33232856066315 0.3308214016578749 0.3368500376789751</probabilities>
		</cpt>
	</nodes>
	<extensions>
		<genie version="1.0" app="GeNIe 3.0.5905.0 ACADEMIC" name="Bayesys_network">
			<node id="VENTLUNG">
				<name>VENTLUNG</name>
				<interior color="e5f6f7" />
				<outline color="000080" />
				<font color="000000" name="Arial" size="8" />
				<position>1299 879 1299 779</position>
				<barchart active="true" width="128" height="90" />
			</node>
			<node id="MINVOLSET">
				<name>MINVOLSET</name>
				<interior color="e5f6f7" />
				<outline color="000080" />
				<font color="000000" name="Arial" size="8" />
				<position>1878 105 1878 5</position>
				<barchart active="true" width="128" height="72" />
			</node>
			<node id="DISCONNECT">
				<name>DISCONNECT</name>
				<interior color="e5f6f7" />
				<outline color="000080" />
				<font color="000000" name="Arial" size="8" />
				<position>1868 503 1868 403</position>
				<barchart active="true" width="128" height="64" />
			</node>
			<node id="VENTMACH">
				<name>VENTMACH</name>
				<interior color="e5f6f7" />
				<outline color="000080" />
				<font color="000000" name="Arial" size="8" />
				<position>1754 304 1754 204</position>
				<barchart active="true" width="128" height="90" />
			</node>
			<node id="PRESS">
				<name>PRESS</name>
				<interior color="e5f6f7" />
				<outline color="000080" />
				<font color="000000" name="Arial" size="8" />
				<position>1524 705 1524 605</position>
				<barchart active="true" width="128" height="90" />
			</node>
			<node id="FIO2">
				<name>FIO2</name>
				<interior color="e5f6f7" />
				<outline color="000080" />
				<font color="000000" name="Arial" size="8" />
				<position>1762 1642 1762 1542</position>
				<barchart active="true" width="128" height="64" />
			</node>
			<node id="PVSAT">
				<name>PVSAT</name>
				<interior color="e5f6f7" />
				<outline color="000080" />
				<font color="000000" name="Arial" size="8" />
				<position>1611 1446 1611 1346</position>
				<barchart active="true" width="128" height="72" />
			</node>
			<node id="EXPCO2">
				<name>EXPCO2</name>
				<interior color="e5f6f7" />
				<outline color="000080" />
				<font color="000000" name="Arial" size="8" />
				<position>1173 1128 1173 1028</position>
				<barchart active="true" width="128" height="90" />
			</node>
			<node id="HREKG">
				<name>HREKG</name>
				<interior color="e5f6f7" />
				<outline color="000080" />
				<font color="000000" name="Arial" size="8" />
				<position>716 1010 716 910</position>
				<barchart active="true" width="128" height="72" />
			</node>
			<node id="ERRCAUTER">
				<name>ERRCAUTER</name>
				<interior color="e5f6f7" />
				<outline color="000080" />
				<font color="000000" name="Arial" size="8" />
				<position>759 738 759 638</position>
				<barchart active="true" width="128" height="64" />
			</node>
			<node id="HRBP">
				<name>HRBP</name>
				<interior color="e5f6f7" />
				<outline color="000080" />
				<font color="000000" name="Arial" size="8" />
				<position>322 1353 322 1253</position>
				<barchart active="true" width="128" height="72" />
			</node>
			<node id="ERRLOWOUTPUT">
				<name>ERRLOWOUTPUT</name>
				<interior color="e5f6f7" />
				<outline color="000080" />
				<font color="000000" name="Arial" size="8" />
				<position>74 1436 74 1336</position>
				<barchart active="true" width="128" height="64" />
			</node>
			<node id="MINVOL">
				<name>MINVOL</name>
				<interior color="e5f6f7" />
				<outline color="000080" />
				<font color="000000" name="Arial" size="8" />
				<position>1462 968 1462 868</position>
				<barchart active="true" width="128" height="90" />
			</node>
			<node id="KINKEDTUBE">
				<name>KINKEDTUBE</name>
				<interior color="e5f6f7" />
				<outline color="000080" />
				<font color="000000" name="Arial" size="8" />
				<position>1100 793 1100 693</position>
				<barchart active="true" width="128" height="64" />
			</node>
			<node id="STROKEVOLUME">
				<name>STROKEVOLUME</name>
				<interior color="e5f6f7" />
				<outline color="000080" />
				<font color="000000" name="Arial" size="8" />
				<position>995 943 995 843</position>
				<barchart active="true" width="128" height="72" />
			</node>
			<node id="LVFAILURE">
				<name>LVFAILURE</name>
				<interior color="e5f6f7" />
				<outline color="000080" />
				<font color="000000" name="Arial" size="8" />
				<position>1201 575 1201 475</position>
				<barchart active="true" width="128" height="64" />
			</node>
			<node id="LVEDVOLUME">
				<name>LVEDVOLUME</name>
				<interior color="e5f6f7" />
				<outline color="000080" />
				<font color="000000" name="Arial" size="8" />
				<position>684 792 684 692</position>
				<barchart active="true" width="128" height="72" />
			</node>
			<node id="HYPOVOLEMIA">
				<name>HYPOVOLEMIA</name>
				<interior color="e5f6f7" />
				<outline color="000080" />
				<font color="000000" name="Arial" size="8" />
				<position>891 834 891 734</position>
				<barchart active="true" width="128" height="64" />
			</node>
			<node id="HRSAT">
				<name>HRSAT</name>
				<interior color="e5f6f7" />
				<outline color="000080" />
				<font color="000000" name="Arial" size="8" />
				<position>526 970 526 870</position>
				<barchart active="true" width="128" height="72" />
			</node>
			<node id="HISTORY">
				<name>HISTORY</name>
				<interior color="e5f6f7" />
				<outline color="000080" />
				<font color="000000" name="Arial" size="8" />
				<position>1119 425 1119 325</position>
				<barchart active="true" width="128" height="64" />
			</node>
			<node id="ANAPHYLAXIS">
				<name>ANAPHYLAXIS</name>
				<interior color="e5f6f7" />
				<outline color="000080" />
				<font color="000000" name="Arial" size="8" />
				<position>689 1883 689 1783</position>
				<barchart active="true" width="128" height="64" />
			</node>
			<node id="PAP">
				<name>PAP</name>
				<interior color="e5f6f7" />
				<outline color="000080" />
				<font color="000000" name="Arial" size="8" />
				<position>2271 1400 2271 1300</position>
				<barchart active="true" width="128" height="72" />
			</node>
			<node id="INTUBATION">
				<name>INTUBATION</name>
				<interior color="e5f6f7" />
				<outline color="000080" />
				<font color="000000" name="Arial" size="8" />
				<position>1628 859 1628 759</position>
				<barchart active="true" width="128" height="72" />
			</node>
			<node id="VENTTUBE">
				<name>VENTTUBE</name>
				<interior color="e5f6f7" />
				<outline color="000080" />
				<font color="000000" name="Arial" size="8" />
				<position>1456 543 1456 443</position>
				<barchart active="true" width="128" height="90" />
			</node>
			<node id="VENTALV">
				<name>VENTALV</name>
				<interior color="e5f6f7" />
				<outline color="000080" />
				<font color="000000" name="Arial" size="8" />
				<position>1479 1184 1479 1084</position>
				<barchart active="true" width="128" height="90" />
			</node>
			<node id="CATECHOL">
				<name>CATECHOL</name>
				<interior color="e5f6f7" />
				<outline color="000080" />
				<font color="000000" name="Arial" size="8" />
				<position>984 1462 984 1362</position>
				<barchart active="true" width="128" height="64" />
			</node>
			<node id="ARTCO2">
				<name>ARTCO2</name>
				<interior color="e5f6f7" />
				<outline color="000080" />
				<font color="000000" name="Arial" size="8" />
				<position>1221 1298 1221 1198</position>
				<barchart active="true" width="128" height="72" />
			</node>
			<node id="HR">
				<name>HR</name>
				<interior color="e5f6f7" />
				<outline color="000080" />
				<font color="000000" name="Arial" size="8" />
				<position>639 1247 639 1147</position>
				<barchart active="true" width="128" height="72" />
			</node>
			<node id="CO">
				<name>CO</name>
				<interior color="e5f6f7" />
				<outline color="000080" />
				<font color="000000" name="Arial" size="8" />
				<position>840 1222 840 1122</position>
				<barchart active="true" width="128" height="72" />
			</node>
			<node id="BP">
				<name>BP</name>
				<interior color="e5f6f7" />
				<outline color="000080" />
				<font color="000000" name="Arial" size="8" />
				<position>731 1466 731 1366</position>
				<barchart active="true" width="128" height="72" />
			</node>
			<node id="TPR">
				<name>TPR</name>
				<interior color="e5f6f7" />
				<outline color="000080" />
				<font color="000000" name="Arial" size="8" />
				<position>785 1667 785 1567</position>
				<barchart active="true" width="128" height="72" />
			</node>
			<node id="PCWP">
				<name>PCWP</name>
				<interior color="e5f6f7" />
				<outline color="000080" />
				<font color="000000" name="Arial" size="8" />
				<position>547 566 547 466</position>
				<barchart active="true" width="128" height="72" />
			</node>
			<node id="INSUFFANESTH">
				<name>INSUFFANESTH</name>
				<interior color="e5f6f7" />
				<outline color="000080" />
				<font color="000000" name="Arial" size="8" />
				<position>1057 1686 1057 1586</position>
				<barchart active="true" width="128" height="64" />
			</node>
			<node id="SHUNT">
				<name>SHUNT</name>
				<interior color="e5f6f7" />
				<outline color="000080" />
				<font color="000000" name="Arial" size="8" />
				<position>1696 1264 1696 1164</position>
				<barchart active="true" width="128" height="64" />
			</node>
			<node id="PULMEMBOLUS">
				<name>PULMEMBOLUS</name>
				<interior color="e5f6f7" />
				<outline color="000080" />
				<font color="000000" name="Arial" size="8" />
				<position>2018 1337 2018 1237</position>
				<barchart active="true" width="128" height="64" />
			</node>
			<node id="CVP">
				<name>CVP</name>
				<interior color="e5f6f7" />
				<outline color="000080" />
				<font color="000000" name="Arial" size="8" />
				<position>397 711 397 611</position>
				<barchart active="true" width="128" height="72" />
			</node>
			<node id="SAO2">
				<name>SAO2</name>
				<interior color="e5f6f7" />
				<outline color="000080" />
				<font color="000000" name="Arial" size="8" />
				<position>1387 1435 1387 1335</position>
				<barchart active="true" width="128" height="72" />
			</node>
		</genie>
	</extensions>
</smile>
